layers 14
layer 0 Dense
5 128
[-2.33841944e-03 -1.76520661e-01 -1.60204053e-01  1.32658407e-01
  5.39466180e-03 -5.01555875e-02 -3.59986839e-03 -1.35885738e-02
 -4.69998568e-02  1.98188685e-02  7.96430185e-02 -6.53157011e-02
 -3.61324437e-02  6.44133007e-03  2.69977868e-01 -2.87124723e-01
 -5.89409936e-03  1.19128503e-01 -8.68489966e-02  2.42751557e-02
  6.86239004e-02 -6.75853435e-03 -7.48402253e-02  1.89615339e-02
 -2.21113414e-02  2.21274458e-02  3.37019004e-02  1.95485249e-01
  1.22994602e-01  1.53035715e-01 -8.48041177e-02 -2.11994365e-01
 -2.06922330e-02 -5.05121462e-02  1.15585975e-01  2.44940296e-02
 -1.30936906e-01 -2.21704086e-03  6.44259294e-03 -3.57828550e-02
  1.91076901e-02  8.32496211e-03  1.21717140e-01  1.36394947e-05
 -7.07456619e-02 -9.18994993e-02  1.62109330e-01 -1.06218651e-01
  4.02465649e-02 -6.03449866e-02 -8.62139463e-03  2.20921442e-01
  1.15618305e-02 -9.83321145e-02  1.36806071e-03  7.85876811e-02
 -2.95806117e-02  1.80076689e-01 -4.63884883e-03  1.93510100e-01
 -2.34707575e-02 -1.18227527e-01 -5.78236170e-02 -3.51635367e-02
  3.60991098e-02  1.02347089e-03  9.38886702e-02 -7.63401389e-02
  2.04088981e-04  1.57889992e-01  1.69151239e-02 -8.55339319e-02
 -4.81428811e-03  1.93611085e-02 -7.41256820e-03  4.23225649e-02
 -6.82258531e-02 -8.69119947e-04 -2.08432898e-02 -1.16312884e-01
 -6.66297413e-03 -1.79770648e-01 -6.06371351e-02 -1.56802777e-02
 -4.76812869e-02  9.78310630e-02 -9.34092551e-02  2.51866765e-02
  1.51221588e-01  1.29569019e-03 -3.98726319e-04 -6.11161115e-03
 -1.55099720e-01  1.05154142e-01  1.06366202e-01  3.11109014e-02
  1.19716987e-01  1.15964580e-02 -3.25787157e-01 -2.60614767e-03
 -1.44799694e-01  1.49806544e-01  2.20884308e-01  2.39544939e-02
 -1.92144252e-02  2.54857000e-02 -1.52199030e-01  5.81914894e-02
 -1.32081229e-02 -1.86280757e-02  8.04552622e-03  3.11604977e-01
 -1.03580944e-01  4.46748696e-02 -9.88064185e-02 -1.33563101e-01
 -1.61439091e-01 -7.11806864e-02  1.64884303e-04  8.24176241e-03
  6.69497177e-02  1.82209779e-02  2.57586651e-02 -1.37901545e-01
  2.33877040e-02 -7.19797891e-03  3.46708149e-02  7.37857446e-03]
[ 8.52216408e-02 -7.46146977e-01 -3.47914129e-01  6.51485175e-02
  2.88408231e-02 -5.55019498e-01  1.03990706e-02 -5.54928184e-03
 -8.88734281e-01  1.09901689e-02 -5.86241782e-01 -3.27635854e-02
 -7.05622017e-01 -3.31990719e-02 -1.77755162e-01  7.90833756e-02
 -1.29782781e-02  1.74944937e-01 -7.53095269e-01 -6.97467988e-03
  1.78502440e-01 -1.10189235e+00 -2.90660948e-01 -1.98830385e-02
 -1.05757220e-02  7.97339063e-03  2.69080043e-01 -4.35762614e-01
  2.26914451e-01  1.90806761e-01 -1.87776163e-01  1.55484408e-01
  2.69948668e-03 -5.43136120e-01  7.39525557e-02 -1.42668821e-02
 -2.31477425e-01  1.23425927e-02  5.95839694e-03  2.61684265e-02
  2.27475405e-01 -2.11462285e-02  1.94316551e-01  1.78435054e-02
 -2.97089726e-01  1.10800982e-01  1.49070814e-01  1.80731595e-01
  9.93200988e-02 -1.22541197e-01 -5.48003376e-01 -9.57928691e-03
 -1.31733259e-02 -1.15562499e+00 -3.26136574e-02  3.32295825e-03
  9.65776213e-04  6.68307021e-02 -1.78237315e-02  6.90699443e-02
 -1.19413659e-02  1.74053431e-01  1.71948105e-01 -1.09884048e+00
  9.61357579e-02 -2.86343740e-03  1.75910756e-01  1.81957006e-01
 -1.31339580e-02  1.64798409e-01  2.51608971e-03  1.34692028e-01
 -5.80869149e-03 -6.02620542e-02 -4.83439909e-03  1.00108378e-01
 -5.71376026e-01 -2.08166540e-02 -2.53817886e-02 -6.86540365e-01
  8.53704195e-03 -5.08038253e-02 -3.33028495e-01 -3.25363217e-04
 -1.05686365e-02  1.49177209e-01 -2.51751661e-01 -3.65148157e-01
  1.45120531e-01 -1.01382148e+00 -1.14619778e-03 -5.11766732e-01
  7.01337978e-02  1.77775204e-01  1.66382223e-01  1.09448694e-01
  2.90053245e-02 -2.77193845e-03  1.10003419e-01 -9.78248287e-03
 -7.40107179e-01  8.19926336e-02  1.07116498e-01  1.40336931e-01
 -1.56329945e-02  2.27218986e-01 -9.75486040e-01  6.61722496e-02
  4.65016887e-02 -4.97771194e-03  1.63359456e-02  8.78224969e-02
 -1.20415592e+00  1.04724929e-01 -1.43343389e-01 -5.24323881e-01
 -2.64537871e-01 -8.04271027e-02 -5.78020653e-03  1.71890631e-02
  2.89127916e-01  5.73915942e-03  2.07272172e-01 -2.12982535e-01
 -1.08604981e-02 -4.83169127e-03  1.45465001e-01  1.40300896e-02]
[ 0.650483   -0.02286343 -0.4675604   0.7059704   0.26591247 -0.29622844
  0.01870118  0.4319396   0.29603228  0.11437257  0.1665818   0.5570325
  0.04954919  0.5740307   0.4407724   0.2757026   0.01818407  0.20022002
  0.02560934  0.5755907   0.30318174 -0.03040071 -0.40944126  0.561114
  0.53540015  0.02760171  0.29150602  0.10210536  0.2679528   0.43539903
  0.17152908  0.43064287 -0.5390598   0.57005346  0.27876595 -0.5189732
 -0.36975223  0.01293957  0.578323    0.6132034   0.26216364 -0.49941885
  0.25831085 -0.03585864 -0.4955521   0.70538485  0.23977417  0.42432332
  0.31645694  0.4486234   0.13555525  0.46140182 -0.5105565  -0.17001766
  0.5629961   0.31768897 -0.55384004  0.54226744 -0.5382716   0.6808035
  0.49670485  0.4359311   0.5819997   0.02100698  0.4455135   0.56910866
  0.2107967   0.2395175  -0.5295068   0.26047158  0.5747107   0.49902338
  0.09137124 -0.0018725  -0.01288953  0.33796498  0.4763133   0.53988844
  0.47213638 -0.48697725  0.5711345   0.01104166 -0.23477493  0.54785675
  0.44146588  0.43758383 -0.40613356  0.41588736  0.25096312 -0.29112875
  0.45478848 -0.25442135  0.36507657  0.245528    0.20030794  0.25651523
  0.50495756  0.5627115   0.3112086  -0.52867407  0.22194707  0.37619582
  0.39051035  0.31398025 -0.52026296  0.906464   -0.2770799   0.39434832
  0.62251496 -0.57212317 -0.0300497   0.15191862 -0.16581686  0.40594515
 -0.57166106 -0.08052352 -0.363859    0.56220114  0.03413656  0.1714857
  0.1783534   0.06695506  0.275315   -0.00823829  0.5857087   0.57575536
  0.20219067  0.07110652]
[-2.13171214e-01  9.67901424e-02 -2.28417907e-02 -1.65162101e-01
 -8.90900753e-03 -2.13412698e-02  2.61596050e-02 -1.37837240e-02
 -5.53712174e-02 -3.07027483e-03 -1.01027638e-01  3.33315730e-02
 -1.55917173e-02  2.70374608e-03 -2.00335220e-01 -1.78563539e-02
 -2.11296063e-02 -5.79493120e-03 -3.38925701e-03 -2.61299815e-02
 -1.61211174e-02 -1.29886419e-01  5.43154636e-03  2.33775359e-02
  3.49951349e-03  4.97524103e-04  4.08953842e-04 -2.25709200e-01
  4.36647497e-02  2.17607021e-02  3.67094502e-02  3.70810293e-02
  4.82420251e-03 -1.78260338e-02  1.48769096e-02  4.00413293e-03
 -4.64579603e-03 -3.36591229e-02  8.00093915e-03 -4.14910428e-02
 -2.40814835e-02  1.19013432e-03  1.10838979e-01  4.72335191e-03
  1.72136594e-02  1.78368632e-02  1.14670597e-01 -6.82291985e-02
 -2.54691988e-01 -4.26630750e-02  3.86451446e-02 -2.14505821e-01
 -8.56961682e-03  4.76225615e-02 -5.13712456e-03  5.64579703e-02
  1.06071690e-02 -1.58535719e-01  5.67123806e-03 -1.68264005e-02
  9.52484366e-03  1.28328502e-01  1.06858134e-01 -5.15292920e-02
  1.68685138e-01 -2.26546992e-02  2.14475878e-02 -7.43026137e-02
 -2.59958953e-03  4.19640206e-02  5.56543237e-03 -1.19765371e-01
  1.24080004e-02 -5.58203347e-02 -1.09190512e-02 -1.10630922e-01
  1.06797097e-02 -2.64765322e-02  1.05608385e-02 -1.75282005e-02
 -4.76162881e-04 -3.32745194e-01 -1.57903843e-02 -2.67789862e-03
 -6.37485180e-03  4.49836731e-01 -5.26438020e-02 -2.54661560e-01
  1.38168886e-01 -1.19727641e-01 -2.91887810e-03  1.08260009e-02
  6.87391609e-02 -7.56218359e-02  4.71054725e-02 -6.59693033e-02
 -1.82530537e-01  7.19564501e-03 -1.30426168e-01  1.54582355e-02
  3.31121236e-02 -8.75154957e-02  3.22082266e-02 -1.15403876e-01
  1.13675203e-02 -1.03189655e-01  4.96664420e-02 -2.05417303e-03
 -6.26717508e-02  5.89089049e-03 -2.10929420e-02 -3.80945159e-03
  7.61908293e-03  9.26367715e-02  1.99838802e-02  2.54704244e-02
 -3.55683081e-02  1.03501320e-01  2.77901068e-02  4.42050099e-02
 -1.47331864e-01  1.50284227e-02 -1.15707010e-01  3.30138728e-02
 -1.27150044e-02 -1.30345430e-02 -4.19856429e-01 -3.85248624e-02]
[ 1.60113171e-01 -4.44912940e-01 -2.38111377e-01  1.75545737e-01
 -4.73726243e-02  8.59249476e-03 -1.67547520e-02 -7.96757080e-03
 -5.74241392e-02 -6.05866220e-03  1.52931526e-01 -2.21799240e-01
 -3.85446101e-02  1.89769338e-03  2.36386433e-01  1.91402823e-01
  1.25132697e-02  1.65301144e-01 -1.22433566e-01  4.11712535e-04
  1.57457024e-01  1.19331971e-01 -1.30154073e-01 -8.13098717e-03
 -1.37654431e-02  1.77562758e-02  1.30520448e-01  1.90244928e-01
  1.93728000e-01  1.22399502e-01 -3.98166031e-01 -4.36832160e-01
 -1.32926414e-02  9.85982716e-02  4.53690700e-02 -6.14557229e-03
 -2.09476382e-01 -1.03684617e-02  2.23705117e-02  5.82108311e-02
  1.80391833e-01 -5.58521645e-03  1.35883465e-01 -5.40302414e-03
 -1.22652136e-01  1.33046821e-01  1.31423205e-01  1.21603139e-01
 -3.48579913e-01 -2.16200978e-01 -1.17632806e-01  6.67642429e-02
 -6.75329473e-03 -1.66508272e-01 -2.31775106e-03  8.64443630e-02
 -1.45728309e-02  1.04237296e-01 -5.06086787e-03  2.81789619e-02
  2.47737253e-03 -3.97802651e-01 -4.17521983e-01 -8.73320326e-02
 -1.29629299e-01  5.10027166e-04  1.72847584e-01  1.10773914e-01
 -3.05168494e-03  9.58862528e-02 -3.95072214e-02  5.15304543e-02
 -2.63497997e-02 -8.12022984e-02  4.15144255e-03  4.33604419e-02
 -9.44777951e-02 -9.68611985e-03  3.36815906e-03 -1.72359630e-01
 -6.71601156e-03 -5.41346848e-01 -1.85530245e-01 -8.12479109e-03
 -5.70190907e-01 -2.68055171e-01 -1.11514166e-01  2.01577526e-02
  9.95630398e-02  4.12283577e-02  2.89499387e-03 -4.58320081e-02
 -5.02176762e-01  1.30217865e-01  2.52480030e-01  6.69725165e-02
  6.21767081e-02 -1.64688453e-02  7.58515820e-02 -1.74704716e-02
 -2.30092242e-01  8.77554342e-02  2.49552891e-01  1.01078168e-01
 -2.50476189e-02  9.76357237e-02 -3.67607802e-01 -2.93673992e-01
  6.25239536e-02  6.09884877e-03 -2.18991432e-02 -5.38512506e-02
 -1.50108010e-01 -7.92186633e-02 -1.19507104e-01 -2.78842926e-01
 -2.90005803e-01 -4.01396036e-01  6.41052099e-03 -2.03561597e-02
  1.42978698e-01 -3.09097897e-02  1.52404800e-01 -3.31735700e-01
 -6.80329511e-03  5.61732240e-03 -2.52547204e-01  3.27719143e-03]
[-0.08482419  0.13945134  0.07595843  0.0715699  -0.30720598 -0.06083088
 -0.25358593  0.5044674  -0.03942992 -0.28660223 -0.2677363   0.57496583
 -0.11467646  0.66594064  0.03937817 -0.28553727 -0.13973193 -0.35780966
  0.10272431  0.6501936  -0.332372   -0.08192395  0.106961    0.6225439
  0.6394799  -0.20741856 -0.2700569  -0.10102092 -0.24874917 -0.06198229
  0.2408338   0.07679523 -0.6923568   0.2784443  -0.36414832 -0.69707376
  0.1816295  -0.14304501  0.6616697   0.5173518  -0.2459295  -0.6651597
 -0.44367197 -0.1421834  -0.14889431  0.01429553 -0.30276948 -0.30580944
 -0.00074131  0.407298   -0.11658004 -0.23053388 -0.6752892  -0.03199262
  0.6787683  -0.42237157 -0.7218595  -0.36309102 -0.6880308   0.15398386
  0.6170366  -0.10497039  0.16459478 -0.343755   -0.20351997  0.65582347
 -0.22377054 -0.32782477 -0.68336636 -0.23160084  0.6736126  -0.13973913
 -0.22018455 -0.27216566 -0.1335388  -0.35978088  0.2336329   0.66182655
  0.5805015  -0.1476342   0.7043169   0.08729828  0.37588716  0.65254486
  0.13787252 -0.11804212  0.07772396  0.00632426 -0.31190756 -0.24490248
  0.5509911   0.1408328   0.31034315 -0.34369648 -0.36094594 -0.51745445
 -0.04621904  0.6529891  -0.3162428  -0.6989992  -0.08091213 -0.27987665
 -0.45726502 -0.14469635 -0.63269925 -0.01405559  0.0617022  -0.09211215
  0.34466013 -0.72465014 -0.1346961  -0.16876194 -0.24985261 -0.15158589
 -0.36889648  0.4566048   0.02627847  0.24407728 -0.12322145 -0.33011
 -0.3428088  -0.2592498  -0.40499413  0.28229344  0.66061825  0.658594
 -0.34223992 -0.25758004]
layer 1 Activation
relu
layer 2 Dropout
layer 3 Dense
128 256
[ 2.95652654e-02  1.80852517e-01  2.07267832e-02 -9.91769284e-02
 -9.12829861e-03 -1.24513254e-01 -1.30656421e-01 -1.57598615e-01
 -1.57970220e-01 -1.93526909e-01  4.63594459e-02  2.12779388e-01
  2.32147962e-01 -9.31181908e-02  5.96725903e-02  2.30097696e-01
  9.03344229e-02 -1.58402473e-02 -7.64083564e-02 -2.17255861e-01
  7.44763315e-02  1.30544186e-01 -3.15031782e-02 -4.69373656e-04
  2.27275476e-01 -3.80278170e-01 -3.58207971e-02  1.11232497e-01
 -2.93962598e-01  2.68690940e-02  1.94769442e-01  6.59473464e-02
  6.32033199e-02 -1.01141326e-01  2.07147598e-02 -7.92360678e-03
  1.33292198e-01 -2.64494747e-01 -2.98554629e-01 -2.35425010e-02
 -1.97723508e-01  8.66748095e-02  2.43182760e-02  1.02847077e-01
  1.82094976e-01 -8.68740156e-02  1.15684599e-01  1.31959677e-01
  3.80056351e-02  6.15451224e-02 -1.07254013e-01  5.47852404e-02
  1.97189897e-02  3.15764219e-01 -4.08398025e-02 -6.20877137e-03
 -7.03969598e-02 -1.11940235e-01  9.70855355e-02  4.11594845e-02
  3.79686281e-02  8.35624561e-02  3.35246362e-02 -1.42591223e-01
  3.34428772e-02  3.14380616e-01 -4.13820781e-02  2.44874973e-02
 -2.48112399e-02 -3.32960151e-02 -2.28920594e-01  2.45752960e-01
  1.22830264e-01  2.87354924e-02 -3.80035564e-02  1.44545302e-01
  3.51548105e-01 -1.56864468e-02 -4.82451320e-02  7.82466754e-02
 -2.81649441e-01 -5.62164076e-02  1.06623480e-02 -8.25791806e-02
 -1.29494727e-01  3.27872671e-02  1.85901791e-01 -3.25481333e-02
  2.21290737e-02  2.59877026e-01 -5.46868779e-02  9.57498178e-02
  9.59746838e-02  2.18299627e-01  1.03651427e-01 -4.67951186e-02
  4.80864197e-02  3.54242325e-01  5.59964627e-02  1.33923247e-01
 -3.60195525e-02  1.90724105e-01 -4.50568186e-04 -9.63585079e-02
 -5.69381081e-02 -1.45117953e-01 -2.88843125e-01  4.49971892e-02
  6.10142387e-02  1.79025888e-01 -3.01584810e-01  1.84461683e-01
  3.10505591e-02  1.49872631e-01 -1.70894787e-01  1.20834252e-02
  4.76163805e-01  5.95748536e-02 -1.11509115e-01 -3.11756104e-01
  8.11828524e-02  1.98125854e-01  2.65835021e-02  2.32843980e-02
  2.17911869e-01 -9.11311656e-02 -2.02110559e-02  1.84556186e-01
  1.42758697e-01 -4.04352993e-02 -3.77241857e-02 -2.18455940e-02
  2.81878650e-01 -9.52796489e-02 -1.95375015e-03  7.77398422e-02
  7.54677653e-02  1.81994036e-01  2.27507446e-02  1.70609608e-01
 -7.95905814e-02 -3.94277684e-02  3.81005295e-02  1.37762159e-01
 -1.00138888e-01  4.15075608e-02 -1.87028319e-01 -2.49050692e-01
  3.59283179e-01  1.36394687e-02 -1.07226603e-01 -1.26778543e-01
  1.49326310e-01  1.07195880e-02 -1.61591262e-01 -2.39289366e-03
  1.33415505e-01  6.61822781e-03  4.52954620e-02  1.45078495e-01
 -3.24164815e-02  1.61075681e-01  2.21814245e-01 -5.54986186e-02
  3.43205899e-01 -1.07603170e-01 -1.63135394e-01 -1.83378205e-01
 -3.32351848e-02 -5.61670847e-02 -2.13034470e-02  2.39254609e-02
 -1.07891485e-01 -2.22718284e-01 -1.15595751e-01 -1.47212416e-01
  5.84040463e-01  5.38171828e-02  1.21927887e-01  3.80356014e-02
 -5.17743789e-02 -2.30105743e-02  4.84343059e-02 -1.89581841e-01
 -6.34946674e-02 -3.94826308e-02  3.97560596e-01  1.84522029e-02
 -2.69456178e-01  1.33284256e-01  1.17711544e-01 -5.18327206e-02
 -2.31583461e-01 -3.84258926e-02  1.07093146e-02  1.50419930e-02
  3.58899266e-01  1.04244813e-01 -7.66901895e-02 -2.82500893e-01
  8.09405297e-02  1.17746271e-01 -5.64519763e-02  2.27821283e-02
 -1.32208206e-02 -1.61310554e-01 -2.43243396e-01 -1.35657847e-01
  9.37282443e-02  2.09716588e-01 -9.63956788e-02 -7.85303190e-02
 -2.00709447e-01 -5.70931248e-02 -9.07424316e-02 -1.03144430e-01
 -2.25892827e-01 -1.42595336e-01  4.28662226e-02 -5.46135455e-02
  6.04907796e-02  2.09593447e-03  1.57965769e-04  4.38170992e-02
 -1.25769168e-01 -1.50457278e-01 -7.59109408e-02 -5.17939370e-05
  7.44173769e-03  8.43773857e-02  1.65683925e-02 -1.26758054e-01
  1.68662801e-01 -9.93487164e-02  7.34235421e-02  1.34749720e-02
 -1.74848691e-01  1.60017699e-01 -9.34050679e-02  1.72398731e-01
 -4.51734439e-02  2.58819103e-01  9.92877036e-02 -1.11384302e-01
  2.96085566e-01 -1.07651606e-01 -9.10674781e-02 -1.62312105e-01
 -6.11352734e-04  9.92229134e-02 -1.29638866e-01  8.60730745e-03
  1.99588463e-01 -4.59161371e-01 -1.24763265e-01 -9.15823206e-02]
[ 3.61696146e-02 -3.53208512e-01  9.13109332e-02 -1.88457802e-01
 -1.75923392e-01 -3.78943205e-01  3.99350785e-02  2.92455684e-02
 -3.25296074e-01 -1.77973911e-01 -1.10596254e-01 -3.59062135e-01
 -1.26687989e-01 -6.04650453e-02 -1.51671015e-03  1.26052409e-01
 -3.54935951e-03 -2.72917375e-02 -1.57197103e-01 -5.73955588e-02
  1.92635044e-01  4.26887244e-01 -5.05737588e-03  2.65660621e-02
 -1.19066589e-01 -1.19815660e+00 -2.23491117e-02  1.17803626e-01
 -1.56662434e-01 -9.13029239e-02  2.91069508e-01 -6.19909346e-01
  3.05043049e-02  1.52219394e-02 -2.33726993e-01  3.68456263e-03
 -1.40821651e-01  4.07356322e-02 -7.00654328e-01 -1.41401887e-02
 -4.56425905e-01  5.59449419e-02 -1.19208887e-01 -1.50075287e-01
 -2.17408180e-01  3.34643084e-03  5.87144569e-02 -1.28930181e-01
 -1.12130411e-01  7.90007636e-02 -3.12710665e-02 -4.31354046e-02
  4.48772237e-02  3.11116248e-01 -1.30864650e-01  4.00086269e-02
 -1.45348132e-01  4.87827696e-02  4.26737480e-02 -5.85193224e-02
  1.11952126e-01 -9.41200778e-02  3.07160500e-03 -1.96184471e-01
 -1.75669938e-01  5.75768314e-02 -1.73937559e-01 -7.04476312e-02
 -2.63921857e-01  5.11327200e-02 -1.02702156e-01 -3.53813380e-01
 -1.19339943e-01 -4.22273092e-02 -6.75561056e-02 -7.75626451e-02
  5.45976996e-01 -2.63117254e-01 -4.38037552e-02  1.81206949e-02
 -1.21483549e-01 -1.41065255e-01 -3.82281661e-01 -1.53574780e-01
 -9.13288444e-02 -6.12851024e-01 -3.21969809e-03 -1.52896484e-02
 -3.20810616e-01  1.98894054e-01  1.21885099e-01  2.12415233e-02
  1.15752377e-01 -2.09773369e-02  4.08304669e-02 -1.52883872e-01
 -6.49660155e-02  4.82921094e-01 -3.22770149e-01  9.56013948e-02
 -5.57236560e-02  1.55472886e-02 -1.37596011e-01 -1.19392416e-02
  6.53123707e-02  2.87399255e-02 -3.94723058e-01 -7.71012232e-02
  2.91422963e-01 -3.58925983e-02 -6.72641516e-01  1.82327628e-02
  2.96371043e-01  1.95232816e-02 -3.14917922e-01  1.54358923e-01
  3.35257314e-02  9.81581435e-02  6.39851466e-02 -3.34190756e-01
 -3.42488945e-01  1.10730641e-01  7.47086406e-02 -6.22572564e-02
 -5.04514836e-02  1.47390559e-01 -1.23445399e-01 -1.45630032e-01
 -1.33033827e-01  1.44476324e-01 -6.76302791e-01 -4.14161831e-01
  2.14396149e-01 -9.85490084e-02 -3.34085584e-01 -1.59694910e-01
  4.04532328e-02 -1.37508631e-01 -1.32990688e-01  3.45614962e-02
 -6.96920529e-02 -1.57570213e-01 -3.09652269e-01 -1.85751051e-01
 -3.48279029e-01  5.86053878e-02  1.94741338e-02 -1.39089972e-01
  3.86095375e-01 -8.83014202e-02  4.16621454e-02  5.58932871e-03
 -3.58559489e-01  5.30488640e-02 -7.48713911e-02 -4.20787036e-02
 -7.07952082e-02 -2.28595540e-01 -1.14996424e-02 -1.14257351e-01
 -2.44575962e-01  1.74752519e-01 -1.97410826e-02  2.51205042e-02
  1.17397346e-01 -3.37253064e-01 -2.68001854e-01 -4.56044972e-02
  2.61711981e-02 -3.50113004e-03 -5.74729979e-01 -1.15553796e-01
 -1.84732318e-01 -7.80804634e-01 -2.33624205e-01 -5.14496326e-01
  3.07534665e-01  1.01844214e-01  1.70689672e-01 -9.78147835e-02
 -5.81355929e-01 -2.02775702e-01 -2.58443709e-02 -5.05605221e-01
  3.03301830e-02 -8.30359466e-04 -1.55712754e-01 -8.76232013e-02
 -4.12765183e-02 -2.10121423e-01  1.44931540e-01 -8.63485411e-02
 -9.86732125e-01 -6.34198427e-01 -2.40602419e-02  1.16249248e-01
  4.64085907e-01 -3.31522003e-02 -2.52144933e-02 -3.78579587e-01
 -2.38215461e-01 -1.46217450e-01 -5.68574965e-02  4.32654331e-03
 -3.07527781e-02 -2.14326754e-01 -6.39695823e-01 -1.21476466e-03
 -1.45268545e-01  1.39925957e-01 -1.19351432e-01 -1.25934854e-01
 -5.67561030e-01  3.61743271e-02  2.30137929e-01  8.54994357e-02
 -1.38179794e-01  1.15202464e-01 -8.59111845e-02 -1.62017643e-01
  3.08107525e-01 -5.36277175e-01 -1.20312825e-01 -4.49013799e-01
 -1.43146381e-01 -4.92257103e-02 -3.41421217e-01 -5.42126223e-03
 -1.10680833e-02 -5.86958408e-01 -6.45410120e-02 -2.11338058e-01
  4.01939079e-02 -2.99355447e-01  2.43839920e-01 -1.44918039e-01
 -4.54477429e-01  4.13003638e-02 -1.36128083e-01 -1.39857307e-02
 -1.14646954e-02  2.32157066e-01 -8.88343155e-02 -2.93321341e-01
  4.79673326e-01  1.55799344e-01 -2.02016532e-01 -1.08947724e-01
 -9.30579752e-02  8.50997493e-02 -4.34171736e-01 -1.25543535e-01
  1.25644237e-01  5.52070081e-01  1.86252981e-01 -2.14279011e-01]
[-0.52076805 -0.19405924 -0.38782582 -0.40232512 -0.49499127 -0.07634352
 -0.6210083   0.07073098 -0.2701171  -0.60621005 -0.21290915  0.05053675
 -0.02050759 -0.9013195  -0.16279909 -0.5325295  -0.22337975 -0.508627
 -0.35224533 -0.667337   -0.01365643 -0.3072055  -0.26877937 -0.7220347
 -0.30394617 -0.06229338 -0.04583285 -0.15811414 -0.30112606  0.20137289
 -0.11724608 -0.24314281 -0.7118542  -0.59287924 -0.00793621 -0.08383285
 -0.9410782  -0.76151633 -0.04089915 -0.66335386 -0.07600141 -0.22980867
 -0.35042724  0.07451807 -0.5165004  -0.57411224  0.04300172 -1.0118759
 -0.5381067  -0.26130384 -0.580437   -0.19830781 -0.10958206 -0.11978289
 -0.3734684  -0.24426208 -0.91262406 -0.13025956 -0.22673458 -0.2511807
 -0.6886123  -0.6496946  -1.0094702  -0.7023088  -0.8590223  -0.1424363
 -0.51083946 -0.5760708   0.18788369  0.09029004 -0.28971496 -0.01800756
  0.1872396  -0.20496343 -0.03537017  0.10087779 -0.13685355 -0.45884058
 -0.33713028  0.03496501 -0.58879757 -0.5905238  -0.14449352 -0.1687099
 -0.15727052 -0.15017869 -0.13937205 -0.18250714 -0.06869745  0.02586375
  0.14404395 -0.26946813 -0.4216687   0.24715164 -0.35479158 -0.7471461
 -0.25448835  0.29102358 -0.11161686 -0.7861192  -0.24428874  0.16365167
 -0.34137124 -0.3762226  -0.44296157 -0.33540013 -0.07735644 -0.09757809
 -0.57134753 -0.920372   -0.11286233  0.0363194   0.02947078 -0.01052559
 -0.66096383  0.07451806 -0.01082424 -0.18249671 -0.5742915  -0.671117
 -0.09539139 -0.5247142  -0.5971455  -0.665075   -0.7356915  -0.06442489
 -0.6901886   0.0460441  -0.20323111  0.13099274 -0.0405382  -0.8856462
 -0.02819632 -0.7794238  -0.06321192 -0.29996946 -0.8323759  -0.512704
 -0.354542   -0.75513774 -0.708899   -0.69270515 -0.14685073 -0.26930445
 -0.51698256  0.00732235 -0.45752934 -0.8270322   0.0736635  -0.6116685
 -0.16808164 -0.7465319  -0.6056288  -0.5875028  -0.44256738 -0.79800725
 -0.23205848  0.04962698 -0.5327908  -0.63392293 -0.48918098 -0.05886513
 -0.06884739 -0.65591776 -0.00636274 -0.08115512 -1.0993092  -0.8494379
 -0.1997831  -0.41717815 -0.03526823 -0.40181047 -0.80042225 -0.02287443
 -0.5105334  -0.285269    0.06264708 -0.42759237 -0.43972695 -0.1631339
 -0.00991752 -0.3229305  -0.25437185 -0.22171094 -0.46453103 -0.3223048
  0.05956795 -0.28705397 -0.04342349  0.30722263 -0.32700163 -0.21553296
 -0.03486114 -0.01081402 -0.6012484  -0.03227478  0.17719075 -0.80513966
 -0.9095431  -0.1589577  -0.16053195 -0.8595877  -0.2795574  -0.4792856
 -0.4143521  -0.71885586 -0.38991037  0.00852532 -0.08936156 -0.12725447
 -0.35054466 -0.34179226  0.05463681  0.03431582  0.5121897   0.00831207
 -0.19773309 -0.4512458  -0.29572636 -0.6221993   0.11399955 -0.06856564
 -0.39127073  0.08883303 -0.33384877 -0.3275984  -0.14273071 -0.4922293
 -0.26516417 -0.14630336 -0.23345247 -0.46546054 -0.43702257 -0.2179949
 -0.84981155 -0.1512324   0.00177913 -0.56420994 -0.56279075 -0.47366193
 -0.1786203   0.04984258 -0.16545129  0.03561265 -0.08049787  0.04618172
 -0.08093363 -0.54343194 -0.2633772   0.1505089   0.07318317 -0.18403974
 -0.6487763  -0.25124547 -0.37740082 -0.3993439 ]
[ 2.17434354e-02  2.29385898e-01 -2.25184277e-01 -4.57334742e-02
  1.36716098e-01 -5.79693466e-02 -1.49341658e-01 -1.03792436e-01
  2.75603943e-02 -3.52580369e-01  1.40459955e-01  4.35934544e-01
  5.92207372e-01  2.03624085e-01 -6.79170620e-03  1.85863629e-01
 -5.02630770e-02  6.35061115e-02 -9.03107598e-02  1.69608682e-01
  2.16197371e-01  1.12935193e-01 -1.16809040e-01  1.73874930e-01
  1.43683374e-01 -3.56604099e-01 -1.56366751e-01  1.31436259e-01
 -3.10869098e-01  3.57634753e-01  4.44794714e-01  5.64837866e-02
  3.75615582e-02  1.99513972e-01 -2.66973153e-02 -1.25874117e-01
  7.84318298e-02  1.26095906e-01 -4.70516562e-01  2.14404657e-01
 -1.36351541e-01  1.55248865e-01  1.53224673e-02  3.20285857e-01
 -8.83357525e-02 -1.79449067e-01 -3.11350301e-02 -2.20707491e-01
  1.38953000e-01  2.29791552e-02  2.31518105e-01 -7.74919018e-02
 -3.48600969e-02  5.04316866e-01 -1.81568805e-02  7.36662224e-02
  6.73201010e-02  2.90752411e-01  6.66857213e-02  1.43293574e-01
  2.78426614e-02  9.88982618e-02  1.00717098e-01  7.68002346e-02
 -7.22160041e-02  5.06305337e-01 -1.81623936e-01  1.03210188e-01
  1.35831416e-01  1.85144722e-01 -3.28842312e-01 -5.81453368e-02
  2.31443122e-01  6.32697865e-02 -6.63452372e-02  5.06494939e-01
  1.92990471e-02  3.11071306e-01  3.94846639e-03  3.14679265e-01
  5.74964844e-02 -1.81452315e-02 -8.62987339e-03  1.27691448e-01
  3.62329960e-01 -3.43332775e-02  2.72302419e-01  2.46179234e-02
 -1.34928480e-01  1.00270307e+00 -1.08369058e-02  1.56309754e-01
  2.28294432e-01  4.05224204e-01  4.74701673e-02  6.92583844e-02
  3.60205956e-02  6.04181767e-01  4.14484322e-01  3.88807021e-02
  2.55957209e-02  5.42302787e-01 -1.56483874e-01  2.94394493e-01
  2.35755537e-02 -8.04440677e-02  1.23169877e-01  1.84909310e-02
  1.37841165e-01  1.18473433e-01 -8.57992917e-02 -1.31192863e-01
  6.03884876e-01  5.11257350e-01  1.97742172e-02  1.09147418e+00
  6.22894168e-01  2.53648479e-02  9.41797718e-03 -3.95906180e-01
  3.04698706e-01  1.72167867e-02  4.36864309e-02 -1.77685380e-01
 -7.86684230e-02  1.19860902e-01 -1.39164627e-01  6.59489989e-01
  1.29630193e-01  5.18832922e-01  2.74827957e-01  1.26433611e-01
  5.57348073e-01 -1.95860732e-02 -3.03995520e-01  9.15889889e-02
  1.65129080e-01 -3.02625895e-02  7.01759709e-03  8.24437216e-02
 -1.62648484e-01 -3.25067341e-03  2.00461641e-01  3.48217711e-02
 -8.32877383e-02 -1.73275173e-01  1.09494478e-01  2.02903673e-01
  3.79015684e-01  2.07992747e-01  3.98289323e-01  6.57471046e-02
 -2.62706708e-02  1.01693742e-01 -1.54856155e-02  1.58587024e-01
  2.95053840e-01  7.68585503e-03 -1.04831019e-02 -8.17151070e-02
  1.00429073e-01  3.45008403e-01  1.55990630e-01 -7.28066191e-02
  5.13961256e-01  1.86366707e-01 -5.01186430e-01  1.04771316e-01
  1.44961504e-02  1.10319704e-01  1.20678067e-01 -9.39505771e-02
  6.64063962e-03 -2.15491682e-01 -2.84688026e-01 -2.73515165e-01
  3.83610129e-01  4.91262116e-02  1.32810682e-01 -3.42043750e-02
 -9.10717323e-02  2.87592337e-02  9.47070832e-04 -2.34382883e-01
 -4.57320660e-02  4.74962257e-02  4.20729250e-01  1.80128440e-01
 -1.56224266e-01  2.85737794e-02  1.16334409e-01  7.07661510e-02
 -6.44535363e-01  2.56074518e-01  4.08590160e-04  8.43693689e-02
  6.61527157e-01  2.01086447e-01  1.08139720e-02  1.36152506e-01
 -5.03615364e-02  4.59663430e-03  1.12205260e-01  1.77586660e-01
  3.03582335e-03  3.86124998e-01 -4.51845318e-01  5.07552251e-02
  3.85001563e-02  2.81045973e-01 -2.47071721e-02  2.07385883e-01
 -3.07807952e-01  2.40537003e-01  4.18487400e-01 -2.45539635e-01
 -1.52858689e-01 -1.32379547e-01  1.82545021e-01  1.04894467e-01
  9.64928687e-01  2.98367321e-01  1.55613005e-01  4.58400458e-01
  1.89095125e-01 -1.51576951e-01  3.05548199e-02  1.57118320e-01
  1.93903998e-01 -4.40025657e-01  1.65325597e-01  1.00313716e-01
  2.25429937e-01 -2.70741194e-01  2.24573035e-02  7.98457954e-03
 -8.21677670e-02  1.80183038e-01  9.38332640e-03  8.16893354e-02
  4.00830619e-02  1.57694876e-01  1.00141458e-01 -2.68885434e-01
  5.29952705e-01  1.21411547e-01 -9.06222537e-02  7.22354650e-02
  2.38991439e-01  9.50517133e-02  2.37060171e-02  2.57306844e-01
  1.02519970e-02  1.06066525e-01  1.08497806e-01  7.36198500e-02]
[-6.02067523e-02 -9.75530446e-02  2.59893090e-01  5.93224727e-02
 -1.55992419e-01  8.18565954e-03  2.09424458e-02 -3.94736528e-02
 -1.05865568e-01  2.05591936e-02  2.60651618e-01  1.12138875e-01
  1.50839567e-01  2.07917094e-01  2.58899093e-01  6.82320297e-02
 -9.71451029e-02  3.10498506e-01  2.46096477e-01 -4.76278812e-02
  2.72475094e-01  4.74574119e-02 -6.19986802e-02  1.22843799e-03
 -1.22511648e-01  1.48177087e-01  1.50029108e-01 -1.07300341e-01
 -1.74801633e-01  2.73594320e-01  2.47934107e-02  8.98865703e-03
  2.34091386e-01 -9.17937085e-02 -4.70420979e-02 -3.97729836e-02
  3.56387272e-02 -4.80200499e-02  1.49184301e-01  7.33664781e-02
 -7.19813108e-02  2.13295951e-01  1.63218975e-02  3.48977476e-01
  2.26790741e-01  7.74258673e-02 -7.16253147e-02 -9.15742889e-02
  1.55380964e-01  4.79277084e-03 -1.01302341e-01  1.27006352e-01
 -4.45327982e-02 -4.46812920e-02 -2.68453956e-01  4.46629673e-02
  1.71352133e-01 -9.40818638e-02 -2.36117214e-01 -9.47510079e-02
 -1.11751221e-01  1.95432946e-01  1.44615009e-01 -7.03350306e-02
  9.23331827e-02 -1.43484458e-01  1.54705048e-01  3.29292178e-01
 -8.50698203e-02 -3.68072316e-02  1.74436405e-01  2.91267157e-01
  2.09158421e-01 -1.60629326e-03  8.43003800e-04 -1.82631444e-02
  2.20842198e-01  1.11663617e-01 -6.80701509e-02 -2.31415689e-01
  1.70190185e-01  4.18739542e-02  2.00356409e-01  1.00695588e-01
  7.70632131e-03 -2.50694714e-02 -3.10513109e-01 -1.26650572e-01
  3.08261849e-02 -1.77241758e-01  2.00735807e-01  2.11419836e-02
  2.18714833e-01  1.37725711e-01  1.84283555e-01  7.56104589e-02
 -1.24762021e-01 -1.75208271e-01 -2.67681722e-02 -5.47046252e-02
 -9.32744145e-02  1.53956473e-01 -1.36756167e-01 -1.04192980e-01
  1.01826433e-02  4.26349081e-02  1.83473334e-01 -1.70673564e-01
  3.73504758e-01  1.22310454e-02  1.49632813e-02  2.42871679e-02
 -1.16830811e-01  4.00470078e-01  7.34025612e-02 -6.98034883e-01
  3.83157969e-01 -7.78345577e-03  1.84142739e-01  1.85669307e-02
  3.52687478e-01  2.21765906e-01 -3.15552275e-03  1.91361994e-01
  2.14503123e-03 -5.88254295e-02 -7.59192556e-02 -8.30970407e-01
  6.63795695e-02 -4.64311205e-02 -1.91183180e-01  9.70058963e-02
  1.07385227e-02  1.67217210e-01  5.53794950e-02  1.63929805e-01
  9.95099451e-03 -1.21185176e-01  2.43596703e-01  2.20281661e-01
  3.19850951e-01  7.40842149e-02  2.14394808e-01 -1.37320086e-01
  3.40758488e-02 -5.36153354e-02  3.94943170e-03  1.52791843e-01
  1.30949914e-01 -1.40061289e-01 -1.02166496e-01  6.60116151e-02
  2.51435816e-01  2.56088704e-01  2.42519051e-01  1.47797659e-01
  3.84667993e-01  9.95801389e-02  1.21587500e-01  5.49662858e-03
  4.29827869e-02  2.44760051e-01  1.76547021e-01  1.44890681e-01
  2.48234887e-02  5.22530377e-02 -5.47631159e-02  3.88720222e-02
 -3.13717812e-01 -8.55248719e-02 -1.29249737e-01  9.37961414e-03
  1.25382125e-01  2.01996565e-01  1.16323285e-01  7.29279369e-02
  9.03798640e-02  7.26681054e-02  7.92274028e-02  6.18070923e-02
  4.34453078e-02  1.00155033e-01 -7.21475035e-02 -1.44325659e-01
  1.35629430e-01 -1.54246939e-02  5.82535230e-02  1.69673964e-01
 -1.29919231e-01  2.46362060e-01 -2.13139448e-02  2.25332692e-01
 -4.35936265e-02 -6.98264167e-02  1.78772002e-01 -7.11486489e-02
  1.63314804e-01  2.72318423e-01  6.61693811e-02 -1.18765101e-01
 -3.65710049e-03 -4.57674637e-02  3.20740312e-01  5.83438426e-02
  8.34501013e-02  9.08327773e-02  4.64646295e-02  3.86913083e-02
 -6.63650185e-02  8.22409242e-02  1.33266166e-01  1.63295448e-01
  4.52997461e-02  1.15217462e-01 -2.29455531e-01 -1.02201924e-01
 -6.16936982e-02  1.47886500e-01  1.51549444e-01  1.53123647e-01
 -1.01306903e+00 -2.87688971e-01  8.93596858e-02  9.48629230e-02
  4.34424430e-01 -1.57704316e-02  1.23757213e-01 -4.21180874e-02
 -1.19206004e-01  1.19705036e-01 -1.86681241e-01 -2.65902895e-02
  1.96178705e-01 -2.19715126e-02  1.06083587e-01 -4.93261553e-02
  5.64739965e-02  2.14708596e-02  1.75040752e-01  1.07395463e-01
 -2.01578051e-01  2.31827244e-01  2.83110160e-02  1.43535793e-01
 -1.87202483e-01 -1.53357359e-02 -9.40299556e-02 -4.82138880e-02
  1.51849035e-02  3.29215527e-01 -1.22966118e-01  8.50216523e-02
  7.97797441e-02  2.04447806e-01  1.40099570e-01 -1.00020781e-01]
[-0.36838663 -0.08499089 -0.3514244  -0.33037457 -0.48246208  0.00231964
 -0.63998735 -0.02974825  0.08743612  0.01941352 -0.35118112  0.03012287
 -0.02135014 -0.6050205  -0.3378545   0.00824109 -0.20181917 -0.39567244
 -0.3751247  -0.40356952  0.08797669  0.01805211 -0.20724389 -0.59428567
 -0.32358342 -0.0838887   0.02034483 -0.05590456 -0.21851496 -0.1592752
 -0.07378359 -0.16242594 -0.6286307  -0.4074647  -0.03596772 -0.0161342
 -0.7457081  -0.46067432 -0.0973063  -0.4870373  -0.09254378 -0.33889607
 -0.26659328 -0.07439195 -0.45666173 -0.58966875  0.1856459  -0.9634989
 -0.42430028 -0.01078821 -0.06919095 -0.2841885  -0.19985192 -0.01829122
 -0.3690495  -0.3864536  -0.7036654  -0.145102   -0.24082464 -0.41084796
 -0.6006888  -0.5723271  -0.4054705  -0.5854855  -0.61396754  0.00845033
 -0.59570974 -0.37934092  0.01701008  0.03773405 -0.512207    0.01272584
  0.169148   -0.26280072  0.01860698  0.16642216  0.10057447 -0.30816483
 -0.4420441   0.14955977 -0.6818888  -0.2259105   0.04212737 -0.0786655
 -0.27277312 -0.03422739 -0.17330216 -0.25709265  0.01373086 -0.02283677
 -0.00334062 -0.40018556 -0.7104541   0.03318341 -0.5994385  -0.19536254
 -0.21325774  0.10501514  0.19223456 -0.507595   -0.27689755  0.08820558
 -0.6881466  -0.3592879  -0.40361828 -0.70758    -0.03370564 -0.07773516
 -0.5223977  -0.4852102  -0.08279387  0.01464507 -0.01275454  0.2151837
 -0.4617431   0.08989976 -0.07043221 -0.18247262 -0.31486517 -0.13199538
  0.08847289 -0.45450914  0.07023324 -0.7700828  -0.7563086  -0.10808203
 -0.824523    0.04589522 -0.33455336  0.03154547  0.11202798 -1.0061204
 -0.17011997 -0.69648534  0.02644315 -0.06749184 -0.7164807  -0.84877723
 -0.37341377 -0.72597665 -0.4718602  -0.28006297 -0.00959149 -0.42291775
 -0.09549502  0.02427299 -0.36501226 -0.56939375 -0.06809497 -0.5079843
 -0.06832304 -0.5837945  -0.58785933 -0.4475377  -0.63528603 -0.5204375
 -0.32526857 -0.05534929 -0.47380254 -0.57355756 -0.30147824  0.05941885
  0.07456882 -0.08497281  0.00273435 -0.00112279 -0.18274988 -0.41672018
 -0.26896325 -0.39844793 -0.01641449 -0.7332978  -0.5443321  -0.04853963
 -0.29734167 -0.06545948  0.06108014 -0.42657724  0.01427041 -0.23772247
  0.02412024 -0.32530525 -0.30880374 -0.42926908 -0.14673163 -0.08405889
  0.18562633 -0.3833481  -0.02749905 -0.2385585  -0.15181714 -0.33353898
 -0.10619903  0.0276762  -0.46107268 -0.10327531  0.39973745 -0.5962513
 -0.36028048 -0.18667383 -0.33530346 -0.32568228 -0.36025777 -0.03286389
 -0.5294193  -0.29131967 -0.17344391  0.02853076 -0.15041587  0.47914925
 -0.48524898 -0.5636842   0.11687785  0.0850013   0.12448353  0.02452266
 -0.35137492 -0.22545129 -0.10194625 -0.8056856  -0.00716248  0.15151866
 -0.67240214 -0.14276521 -0.36675987  0.11165018 -0.97019196 -0.2394812
 -0.25300428  0.09551419 -0.3125502   0.04437973 -0.41269332 -0.09694738
 -0.4360581  -0.25331262 -0.09041784 -0.5541632  -0.63768274 -0.3865618
 -0.34888992  0.00562892 -0.15788947  0.04923718 -0.03788913  0.23997483
  0.06214718 -0.47392493 -0.4657531  -0.00224794  0.12046749 -0.3393551
 -0.70790744  0.27831292  0.01320223 -0.01600424]
[ 5.42218313e-02 -6.06258772e-02  5.69798015e-02  2.94058286e-02
  5.17628156e-02  3.57438549e-02  1.63864959e-02 -2.14160848e-02
  3.11952783e-03  5.99472113e-02  3.01680826e-02 -6.12136675e-03
 -1.36870947e-02  1.19393237e-01  4.24110219e-02  3.62424031e-02
  1.31218322e-02  7.26775751e-02  1.23614542e-01 -4.55212407e-02
  1.76236317e-01  1.83913842e-01  1.85293034e-01  1.16225839e-01
  1.13911310e-03  6.90346807e-02 -4.91315313e-03  1.31219819e-01
  8.92234966e-02  9.09217745e-02 -1.19590499e-01 -6.68855710e-03
  5.81990071e-02  4.82274853e-02 -4.75772657e-03 -2.80323066e-02
 -2.14896575e-02 -3.04677319e-02 -1.79421395e-01  7.93382898e-02
 -1.71890911e-02  4.31261733e-02  6.07250743e-02  5.53722717e-02
  7.20308200e-02  1.06605217e-01  1.83169581e-02  4.84733209e-02
  1.30479895e-02  4.30477820e-02 -1.62893627e-02  2.77896114e-02
 -3.79957743e-02  5.55613637e-02 -2.62782518e-02  8.01258758e-02
  7.28168190e-02 -6.34763390e-02  1.44887149e-01 -8.78903642e-02
 -7.69839883e-02  2.52424483e-03  3.44461203e-02 -8.78722221e-03
  1.81370564e-02 -1.65366549e-02  4.63848598e-02  6.04021223e-03
  9.69439000e-02 -1.74250342e-02  9.26608741e-02 -4.83208448e-02
 -1.37833610e-01 -1.17425509e-02  4.00024392e-02  3.86295281e-02
  9.74995550e-03  1.48259506e-01 -1.29120955e-02  2.68488028e-03
  1.89993847e-02  3.84440199e-02  3.50093632e-03 -1.84182748e-02
  1.43055007e-01 -4.00684588e-02  1.65819656e-02  5.95840625e-03
  6.64596260e-02  1.23564310e-01 -5.40030412e-02 -6.58545131e-03
  2.18686946e-02  2.57734340e-02 -1.16634563e-01  2.43042037e-02
 -6.01373352e-02  5.37100621e-03  6.17822409e-02  9.99922007e-02
  6.58724532e-02  9.66872051e-02  1.54764503e-01  7.76393563e-02
  5.42386174e-02  5.52370958e-02  7.26069584e-02  1.39883002e-02
 -1.36607280e-02 -6.88315332e-02  4.21789521e-03  1.74019448e-02
  4.68280241e-02  2.32649371e-01  4.99577783e-02 -1.29430547e-01
 -1.81718841e-02  7.12054819e-02  7.29622096e-02 -3.03519461e-02
  2.07845327e-02  1.21949852e-01 -2.23579761e-02 -9.34499782e-03
  1.53483093e-01 -8.70517790e-02  1.86220538e-02  6.16030069e-03
  2.26115808e-02  1.29183922e-02  2.79960129e-02  8.90149102e-02
  9.72127616e-02  8.43654722e-02  6.71418831e-02 -1.44326895e-01
  6.55381233e-02  7.16570765e-02  1.15429960e-01  5.51132001e-02
  7.39726201e-02  8.77885446e-02 -2.01661829e-02  1.05027683e-01
  1.23292813e-02  7.96345919e-02  6.23154305e-02 -1.24769211e-02
  1.34259835e-01 -9.83562972e-03 -6.81327730e-02  5.67992963e-02
 -7.34446794e-02 -4.31913212e-02  5.87811358e-02  3.65315601e-02
  4.74981591e-02  5.33228926e-02  3.09734773e-02  8.11943188e-02
  2.76869293e-02  1.15572311e-01  4.70494106e-02 -6.33747205e-02
 -9.89429001e-03  9.63454470e-02 -7.45773092e-02 -4.57101390e-02
  1.83896534e-02 -4.15329710e-02 -1.88106000e-01  9.23266485e-02
  6.71701357e-02  8.85899812e-02 -1.05982274e-02 -1.66449592e-01
  5.30164391e-02  1.21121313e-02 -6.35450929e-02  7.74925351e-02
 -7.37065077e-03  1.52470367e-02  1.28647298e-01 -9.77738481e-03
 -1.67341214e-02 -6.82461262e-02  5.10511324e-02 -7.39257932e-02
 -2.72673871e-02  8.34307447e-03  6.84369281e-02  4.26614434e-02
 -6.74988702e-02 -1.05765410e-01  1.39324337e-01  7.55282491e-02
  8.21497440e-02  1.79577749e-02  1.30603850e-01 -3.53292823e-02
  4.12994921e-02 -1.18791610e-02  6.63091289e-03  1.36038601e-01
 -4.27089073e-03 -8.10262002e-03  5.90337217e-02  5.55961207e-03
  1.51124150e-01  1.14146404e-01  1.08287051e-01 -5.12466580e-02
  1.32771423e-02  1.35231733e-01  9.47245657e-02 -9.95408893e-02
  8.02058056e-02 -2.25227652e-03  1.07779846e-01  1.43811494e-01
 -3.82658839e-02  3.20506697e-05 -2.50720177e-02  1.13532543e-01
  1.03902109e-01  3.80664393e-02  3.60907614e-02  6.84810802e-02
  6.27322719e-02 -7.61994272e-02 -9.48858485e-02 -2.29369514e-02
  5.09980433e-02  4.06403840e-02  1.14363976e-01 -2.31252927e-02
  5.94294909e-03  4.22153762e-03  4.40129600e-02  5.68558276e-02
  5.69992932e-03  1.48836464e-01  8.42442289e-02  7.27171302e-02
  4.96618673e-02  1.31984219e-01  4.35732566e-02  1.74062792e-02
  1.64936528e-01  9.56451073e-02  1.01622134e-01 -4.09160331e-02
  6.62202686e-02  3.01390607e-03  9.06152651e-02  4.26480994e-02]
[-1.09733060e-01 -1.19083084e-01 -3.33396405e-01 -3.74693088e-02
  1.09456675e-02 -2.48931199e-01 -7.97201470e-02 -1.96287274e-01
  1.96658224e-01 -5.37328005e-01 -2.42710896e-02  3.55912775e-01
  5.31475246e-01 -3.25838923e-01 -2.86850959e-01  7.15156913e-01
  5.37658017e-03  1.17929496e-01 -2.81457335e-01 -2.31995136e-01
 -6.73283339e-02 -8.02263543e-02 -2.03671828e-01 -1.88831210e-01
 -4.29936200e-01 -6.81147635e-01 -1.18845716e-01  1.73243269e-01
 -5.28509617e-01  3.35060388e-01  2.87166119e-01 -2.99305707e-01
 -2.99221069e-01 -6.75375983e-02 -1.12105265e-01 -7.06129381e-03
 -2.03674287e-01  1.08665243e-01 -2.87424177e-01  1.25823453e-01
 -3.61683033e-02 -1.00389935e-01 -2.13237524e-01  4.25188482e-01
 -5.56947529e-01 -2.05226004e-01  5.71339190e-01 -3.68419588e-01
 -2.72117883e-01  4.14612591e-02 -3.11679095e-01 -5.04788235e-02
 -1.47282436e-01  8.80361974e-01  2.66921129e-02 -4.66412932e-01
  1.02779947e-01  5.50125957e-01 -4.16762643e-02 -2.80972838e-01
 -3.55298698e-01 -2.39334539e-01  1.59804106e-01 -2.66539156e-01
 -3.06379884e-01  4.70417321e-01 -3.10001448e-02 -1.02295883e-01
  3.97925943e-01  7.21688449e-01 -2.27062434e-01 -5.30580357e-02
  3.93655121e-01  5.26108705e-02  9.42447260e-02  3.57316136e-01
  5.77752106e-02 -8.21748823e-02 -1.04619995e-01  7.45041728e-01
 -1.35550350e-01 -9.14609730e-02 -3.55215073e-02 -2.18891546e-01
 -1.01745665e-01  2.39484057e-01  2.46663973e-01 -2.38815591e-01
 -2.72935539e-01  6.21183217e-01  1.95563868e-01 -2.95482129e-01
  5.82728162e-02  4.97447997e-01 -1.83158532e-01 -2.94552147e-01
 -2.42176622e-01  6.96844935e-01 -1.66997612e-02 -1.84144691e-01
 -1.76024944e-01  6.46731317e-01 -2.20490381e-01 -8.60659927e-02
 -8.28051046e-02 -1.12899102e-01 -4.53349389e-02  7.24075213e-02
 -6.57680333e-02 -2.00671345e-01 -4.24457163e-01 -3.32145512e-01
  2.30883956e-01  1.61369085e-01 -2.96220511e-01  8.33698392e-01
  8.01961422e-01 -6.82216662e-04 -2.80604303e-01 -4.45795149e-01
  2.27089748e-01 -7.21739158e-02 -1.53963789e-01  3.79216708e-02
  2.05226988e-01  6.27129018e-01 -2.04696208e-01  7.24610031e-01
 -1.95457146e-01  6.39077500e-02  6.36829615e-01 -1.87300056e-01
  2.92937487e-01 -4.21884149e-01  2.01393701e-02  6.12179637e-02
 -2.03951329e-01 -3.37506980e-02 -4.11741398e-02  5.78095466e-02
 -5.52932262e-01 -1.32828042e-01 -7.91585520e-02 -1.04087681e-01
 -9.56626907e-02  1.08013406e-01 -2.84600891e-02 -1.33514419e-01
  5.56673586e-01 -2.14257911e-01  5.86169004e-01 -1.86166808e-01
  3.59819271e-04 -7.45565351e-03 -1.15275569e-03 -2.39574879e-01
 -2.29899496e-01 -1.39232486e-01 -4.64603007e-02 -1.03806458e-01
  4.60743112e-03  3.56471241e-01  8.32817733e-01 -2.34535664e-01
  4.93460149e-01 -1.60344139e-01 -3.28585118e-01 -4.13855404e-01
 -1.07698940e-01 -2.02364638e-01 -1.12973405e-02 -1.91231146e-01
 -3.21175456e-01  1.20916508e-01 -3.20369601e-01 -4.12655145e-01
  5.16975641e-01 -1.46122038e-01  4.83191431e-01 -7.52796605e-02
 -4.14707959e-01 -1.78219050e-01 -3.76710176e-01 -3.27321142e-01
 -1.50439158e-01 -3.22355568e-01  8.41648038e-03 -2.83028722e-01
 -3.22360516e-01  1.32214934e-01 -3.68620902e-02  4.57529090e-02
 -2.96206355e-01  6.32277504e-02  1.30498912e-02 -1.32184774e-01
  7.18384326e-01 -2.27273777e-01 -5.87000921e-02 -1.78543031e-01
 -1.75207958e-01 -1.01827681e-01 -5.81584834e-02 -9.27081630e-02
 -1.76302239e-01 -1.29404426e-01 -3.81814212e-01 -1.42739549e-01
  2.84558758e-02  2.52903521e-01 -1.20891333e-01 -1.40927330e-01
  7.73450285e-02 -1.56724572e-01  4.78477806e-01  1.58551753e-01
 -8.34139511e-02 -3.70603919e-01 -9.38294455e-02 -3.15600157e-01
  8.33112895e-01  1.00333162e-01 -3.29037048e-02  2.74866492e-01
 -1.94343343e-01 -1.51974499e-01 -2.05659002e-01  1.27460018e-01
 -1.30972475e-01 -6.44555464e-02 -4.34518941e-02 -1.71112299e-01
 -9.27598625e-02 -5.69854677e-01 -3.49055640e-02 -1.48401409e-01
 -2.87565500e-01 -7.44280517e-02  9.59792510e-02 -1.50319114e-02
 -4.28091511e-02  1.07459947e-01 -2.63971925e-01  1.50020733e-01
  5.42115211e-01  2.66177148e-01 -2.85524517e-01 -2.87275493e-01
  6.21137060e-02  2.16657907e-01 -2.10607737e-01 -1.27567917e-01
 -2.25584641e-01  5.83079934e-01  2.24024042e-01  9.70507413e-02]
[ 0.0023761   0.09077154 -0.11567867 -0.01863424 -0.02070657 -0.4914065
 -0.0463494   0.16158657 -0.12885968 -0.4328043  -0.19451259  0.28223297
  0.2762869   0.18667893  0.00581588  0.50124574  0.11369541  0.09307788
 -0.05358772 -0.09488948  0.65907025 -0.00598367  0.04215308 -0.06631837
 -0.159002   -0.73057806 -0.12330186  0.01025915  0.01595754  0.5805301
  0.453799   -0.11618123  0.04761029 -0.05313589 -0.7362883  -0.06211099
  0.04493456  0.01357904 -0.9908753  -0.23315066 -0.887132   -0.18680897
 -0.30664203  0.4585129   0.16395193 -0.05305335  0.25234523  0.09240794
 -0.00664712 -0.00677873  0.08887876  0.05733074  0.00521769  0.08280893
  0.1055705   0.09049434  0.05048113  0.29682344  0.01474992  0.0280143
 -0.05623483 -0.11208667  0.06610759 -0.16939685 -0.19642223  0.20335986
 -0.04630751 -0.32890686  0.2368794   0.80061984 -0.04961159 -0.51280236
  0.9870899  -0.05661993  0.30623847  0.20687509  0.11857549 -0.10312863
 -0.17090273  0.17011409 -0.30325258  0.03421063 -0.25369057  0.03524322
 -0.1511197  -0.06617945  0.51106805 -0.12946706 -0.7077738   0.54700637
  0.4040168  -0.02478502 -0.00152506  0.07884867 -0.24289902 -0.14040099
 -0.23483336  0.65208006 -0.14889233  0.02080662  0.14645147 -0.20558435
 -0.22147644 -0.06386363 -0.02501856 -0.10776666 -0.14411502 -0.12791117
 -0.12378097  0.04568156 -0.29953286  0.22430825  0.12584634  0.24978079
 -0.1977872   0.45262462  0.17367734 -0.19856188 -0.21604975 -0.70814466
  0.19165824 -0.11602201 -0.30055645 -0.02237429  0.05717929  0.1313118
  0.08739819  0.70081073  0.052938    0.5021048   0.3409188  -0.00702607
  0.0930808  -0.19243625  0.32895526 -0.08384156 -0.14181621 -0.20015045
 -0.14733526  0.03825688  0.0849576  -0.18639259 -0.04894886 -0.27148497
  0.01422737  0.14792873 -0.15013936 -0.07214519  0.26928762 -0.1266724
  0.340532   -0.04246639 -0.07266568 -0.06462207 -0.01881071 -0.21060619
 -0.16504692 -0.6956403  -0.18967381 -0.06402973  0.09099893  0.40501246
  0.08999032  0.00402781  1.0357741  -0.11529569 -0.3679032  -0.25516328
 -0.16246398  0.02104558 -0.22264807 -0.11882418  0.11083348 -0.5150555
 -0.34936523 -0.76418334  0.7971975  -0.07401527  0.18326627  0.02875917
 -0.3795133  -0.17668249 -0.21151279 -0.14161886  0.04942982 -0.08220831
  0.08463309 -0.05240682  0.19351079 -0.04512946  0.14840403 -0.08829502
 -0.60233974 -0.27932    -0.1513696   0.01425847  0.64141154 -0.17023602
 -0.12763023 -0.10547829 -0.0759891  -0.04240523 -0.01169869  0.02020068
 -0.19027644 -0.00398604 -0.57969373 -0.70244664 -0.142347   -0.18546396
 -0.1282334  -0.1671607  -0.6741838  -0.5296211   0.47411448  0.03289954
 -0.0184905  -0.14572641 -0.36870813 -0.03944398  1.094255   -0.32116473
 -0.11893825  0.38509414 -0.11341981  0.08202379 -0.0575055  -0.09431212
  0.04295956 -0.17247944 -0.06905159 -0.01543671  0.15296817 -0.1506027
 -0.22342505 -0.04877633 -0.7780683  -0.21583901 -0.06280329  0.00665256
  0.01689062 -0.3654417  -0.02121206 -0.41417053  0.6920956   0.02916592
 -0.28815997 -0.08155236  0.07076889  0.5363853  -0.5515038   0.04729397
 -0.13729756  0.13306136 -0.0119312   0.02216761]
[ 1.40956208e-01 -2.42367446e-01 -7.39233121e-02  8.88810977e-02
 -6.25147074e-02 -7.30236322e-02  9.16748494e-02  3.99080515e-02
  6.06002510e-02  1.21806927e-01 -5.38453497e-02 -1.00335054e-01
 -4.78533236e-03 -8.66892561e-02 -6.53674826e-02 -1.69891551e-01
  4.17473540e-02  9.60851088e-02 -1.70751125e-01 -8.48046876e-03
  6.48192083e-03  5.10668680e-02 -2.58686021e-02 -2.36744642e-01
  1.55816540e-01  3.27480644e-01 -2.00331584e-02 -1.80843181e-03
  1.20582089e-01  4.38348530e-03  3.32202092e-02  1.29140213e-01
  1.11356966e-01 -1.47786960e-01  2.06831008e-01 -6.44701868e-02
  7.35329762e-02  3.18083525e-01  2.30668291e-01 -2.00813003e-02
  4.07513380e-02 -7.85729364e-02 -4.82636504e-02  8.61242861e-02
 -2.98455134e-02 -1.21811748e-01 -1.63024873e-01  1.47116166e-02
 -5.96569963e-02  4.52459157e-02  1.13448687e-01 -1.28222123e-01
 -1.79190084e-01  3.82476375e-02  3.18270475e-02  1.41147047e-01
  4.73767594e-02 -8.25103000e-02  9.15062502e-02 -6.55316487e-02
  1.60453528e-01  1.18087940e-02 -5.67061640e-02  2.66393781e-01
  1.01433657e-01 -9.58085731e-02  7.08547384e-02  1.01028264e-01
 -1.35749713e-01  2.14659926e-02 -1.65489748e-01  2.35258392e-03
 -7.91272670e-02 -1.47620931e-01  8.83499384e-02  9.12429169e-02
  1.39093861e-01 -3.75264287e-02  2.76118815e-01  1.60732940e-01
  9.74458009e-02  1.99634239e-01  1.27480077e-02  2.10865363e-01
 -1.95646547e-02 -8.12463164e-02 -1.22325376e-01  2.71029621e-01
  1.10945158e-01 -4.76693064e-01  2.12037414e-01 -1.22522183e-01
  8.67046714e-02  2.54231513e-01 -1.16205513e-01  3.48293558e-02
  1.43490648e-02 -1.10434387e-02  9.71965119e-02 -2.71591228e-02
 -1.38935268e-01  2.81146079e-01  9.59702656e-02 -6.42665848e-02
 -1.32502958e-01  1.68079570e-01  1.46082282e-01 -1.47934616e-01
  2.65482157e-01  1.14304103e-01 -6.36658818e-03  2.35119529e-04
 -1.47927821e-01  1.67172238e-01  1.10408245e-02 -5.73741853e-01
  3.51321325e-02 -1.20671161e-01  9.52239148e-03  2.14412585e-01
  1.99279398e-01  1.29920274e-01  4.13562991e-02  1.52206078e-01
 -6.80456907e-02  1.42494766e-02  1.04420073e-01 -6.38906837e-01
  1.42109156e-01  1.75833404e-02 -1.29383683e-01 -5.39982133e-02
  3.10001755e-03  1.42835557e-01  4.47447859e-02  1.06603444e-01
  9.86277461e-02  1.97648302e-01 -1.23840966e-03  3.29151005e-01
  2.87593424e-01  6.77046999e-02  1.17349520e-01 -1.24219276e-01
 -6.71239123e-02  3.74220535e-02  1.05990373e-01  1.01905465e-02
  7.15939477e-02 -5.57099544e-02 -9.69763026e-02 -5.62074333e-02
  7.14056119e-02  9.00654271e-02  1.34790540e-01  5.85972592e-02
 -1.26326114e-01 -1.76853478e-01  6.66372105e-02  8.18159208e-02
 -1.20218284e-02  8.27144906e-02  7.07069859e-02 -9.42923725e-02
  8.59077498e-02  1.79447830e-02  4.95323241e-02 -6.71166694e-04
  1.17241191e-02 -1.51734322e-01 -2.92606950e-01  1.31979898e-01
 -9.68399867e-02  1.84961826e-01 -2.20592283e-02  1.28523603e-01
  7.83613101e-02 -7.36332163e-02  8.16181228e-02  1.91637546e-01
  1.03991091e-01 -2.26265881e-02 -2.31003284e-01  2.98848122e-01
 -1.14712231e-02 -2.78832093e-02  9.18864533e-02  7.90074989e-02
  5.59750982e-02  1.03855029e-01 -1.23961233e-01 -1.83956817e-01
  3.14582646e-01 -7.20731765e-02 -2.02402040e-01 -1.09934427e-01
  2.48338711e-02 -1.32385030e-01  3.90709527e-02  2.02783689e-01
 -3.26563120e-02  4.07479405e-02  4.41484191e-02  9.73422751e-02
 -1.20601758e-01  7.27198869e-02  7.75015131e-02  6.41939342e-02
 -9.94654447e-02  1.92216247e-01 -3.90286967e-02  3.02433316e-02
  2.01594919e-01 -1.06780708e-01 -1.00454211e-01 -4.26105745e-02
 -1.22258559e-01  1.48055285e-01  2.71422751e-02  1.54375300e-01
 -5.18821657e-01  1.95982262e-01 -8.12010691e-02 -1.36683375e-01
 -7.96805471e-02 -1.18118100e-01  8.01925734e-02  1.48593709e-01
  1.33152887e-01 -6.68262541e-02  1.69748608e-02  2.82874517e-02
  3.45488675e-02  1.52850688e-01  4.63403426e-02 -3.07359658e-02
 -5.51510938e-02 -5.35062477e-02  5.33992015e-02 -1.06310278e-01
  1.65440962e-01  2.31956527e-01 -6.86291456e-02 -6.82492107e-02
  2.43254788e-02 -1.42253295e-03  6.09711707e-02  1.38615608e-01
  1.40625104e-01 -2.95488145e-02  1.33883789e-01  1.50342941e-01
  6.57936484e-02 -4.41845320e-02  1.03945797e-03  1.27042294e-01]
[-2.05172077e-02  8.95140171e-02  6.00438043e-02  9.88100097e-02
 -1.33477464e-01 -1.21942550e-01  5.19924387e-02  1.92079231e-01
 -9.26653817e-02  2.71933600e-02  9.67866555e-02 -5.15054949e-02
  9.16128606e-03 -2.32313931e-01 -9.09577962e-03  1.63654909e-01
 -6.74498230e-02 -1.15490533e-01  5.25223650e-02  1.51929423e-01
 -3.32152285e-02 -1.02468468e-01  1.20968111e-01  6.54605553e-02
 -5.22464588e-02 -2.73093879e-01 -3.86159457e-02  4.00679894e-02
 -9.62929949e-02 -7.47614428e-02  1.83063686e-01 -1.23836227e-01
 -1.05304591e-01 -9.86804143e-02 -8.35912451e-02  2.95471437e-02
 -1.34345427e-01 -2.20925242e-01 -1.09319724e-01  5.23209758e-02
 -1.21217221e-01 -2.16075126e-02  8.43209624e-02  2.51275990e-02
 -2.91868709e-02 -4.78353389e-02 -1.25353843e-01 -1.11642890e-01
  5.18540330e-02 -7.94474327e-04  8.88393540e-03  4.91360575e-02
  6.99800178e-02  3.78123939e-01  1.47781760e-01  4.32501435e-02
 -7.31549412e-02 -1.18193306e-01 -1.51061090e-02 -1.76555254e-02
 -1.04261681e-01 -6.56091869e-02  1.66211739e-01 -8.22066590e-02
  5.23937074e-03 -2.77337104e-01 -9.66377440e-04  3.93610336e-02
  1.18441053e-01  1.89788252e-01  6.09767856e-03 -1.13399267e-01
  1.08065657e-01  2.29029655e-02  1.93835825e-01  3.00123513e-01
  2.85515577e-01 -2.20463827e-01 -1.78998664e-01  1.56690016e-01
 -6.54843152e-02 -1.06625728e-01 -2.43062451e-01  1.00261226e-01
 -2.45002165e-01 -1.40838206e-01  5.59222288e-02  6.48321062e-02
  6.52785972e-02 -3.84292193e-02  1.31826736e-02 -3.99994198e-04
 -4.99539077e-02  4.87119742e-02 -1.32103458e-01 -9.94535610e-02
  6.23603798e-02  2.18100846e-01  1.32160224e-02  3.20068114e-02
 -2.43301541e-02  6.52833283e-02  1.52840540e-01 -8.89188647e-02
  5.96347749e-02  1.08596064e-01 -2.11221680e-01 -3.74629870e-02
  6.25660047e-02  9.76781081e-03 -2.06580237e-01 -8.08767527e-02
  3.31290103e-02  3.21510106e-01 -2.85556763e-01  2.99404532e-01
  1.77351106e-02  2.02167645e-01  2.13316409e-03 -1.60315216e-01
  4.98871952e-02  8.53444934e-02 -8.24642777e-02 -4.50868569e-02
 -1.44725323e-01 -1.57089099e-01 -1.72992080e-01  4.01893258e-01
 -1.31070420e-01  4.02336299e-01 -1.51293412e-01  7.54984841e-02
  3.73555958e-01 -3.31479162e-02  9.95815471e-02 -2.10321680e-01
 -2.29143742e-02 -1.73738346e-01  6.39341027e-02 -3.88407484e-02
 -1.62791815e-02 -1.76475868e-01  3.99583727e-02 -7.25869760e-02
 -1.40885599e-02 -2.27791607e-01 -9.85619947e-02  3.10146809e-02
  3.57787222e-01  4.89790849e-02 -2.53551722e-01 -1.70473695e-01
 -3.17740701e-02 -7.65217766e-02  1.93333834e-01  4.58113588e-02
 -1.77016392e-01  2.64874171e-03 -4.54210304e-02  3.43831852e-02
 -8.17444250e-02  3.76160145e-01  9.03667435e-02 -3.11099142e-01
 -9.92264152e-02 -1.40422076e-01 -2.32697099e-01 -3.21909599e-02
 -5.79909571e-02  9.37764198e-02 -2.12525919e-01  2.60015894e-02
 -1.61282092e-01 -3.19978923e-01 -1.99317679e-01  3.99514176e-02
  2.31390089e-01 -1.02243647e-01  2.94973820e-01  2.07966827e-02
 -1.35849461e-01 -8.06808695e-02 -2.20040873e-01 -9.05960724e-02
 -1.19834632e-01  6.85908496e-02  3.20409209e-01 -1.07046820e-01
 -8.04491416e-02  1.17187046e-01  2.92348117e-02  2.12657731e-02
  1.41349167e-01 -2.56817415e-02 -3.71923596e-02  8.83430336e-03
  9.18394513e-03 -8.61264318e-02 -3.92313413e-02 -3.14314604e-01
  6.06629550e-02 -1.82015240e-01 -6.45204261e-02 -1.60302579e-01
  4.19917628e-02 -1.63522512e-02 -7.22221434e-02 -8.95531550e-02
  5.16047291e-02 -9.52086598e-02  5.59240393e-03 -9.48255137e-02
  2.52166212e-01 -1.30127132e-01  1.00539967e-01  1.39672741e-01
  1.09477006e-01 -8.06492865e-02 -1.34023517e-01 -7.97500014e-02
 -2.61519372e-01 -7.87523985e-02  3.17626484e-02  2.63258636e-01
  1.11763859e-02 -1.61350176e-01 -1.70082778e-01 -8.41800943e-02
  1.67922080e-02 -1.44278351e-02  1.36246696e-01 -1.53601900e-01
  1.08851992e-01 -1.08213201e-02 -1.23070538e-01 -1.10919498e-01
  2.60750558e-02 -2.54108042e-01  9.27611662e-04  8.46076459e-02
  2.06457358e-02 -2.83712745e-01  1.02161177e-01  5.47231734e-02
  1.71584234e-01  3.59581470e-01 -8.47528204e-02 -1.40662864e-02
 -7.76622221e-02  6.65763346e-03 -7.28658438e-02  6.23557568e-02
 -1.29889652e-01 -3.82688701e-01  2.19948351e-01 -1.20858625e-01]
[ 4.77243178e-02  1.06175996e-01 -2.12919891e-01 -3.19466501e-01
 -2.19333187e-01  2.43999377e-01 -1.64112195e-01  1.09359692e-03
  3.60586345e-02 -4.91082489e-01 -2.60893404e-01  3.83175015e-01
  6.48778915e-01 -3.45012397e-01 -3.42774808e-01  6.36737466e-01
 -2.67730713e-01 -3.97085965e-01 -5.84026992e-01 -4.42702115e-01
  3.33468288e-01  5.66067874e-01 -2.88539827e-01 -2.75289029e-01
 -4.53372329e-01 -2.28905320e-01 -2.85023063e-01  4.46879081e-02
 -2.53635019e-01  7.22235680e-01  4.63433415e-01 -1.37006879e-01
 -5.18335819e-01 -2.44277522e-01 -2.80608326e-01 -4.91240323e-02
 -2.55466670e-01 -3.61608952e-01 -4.04976368e-01  3.01247668e-02
 -1.55357540e-01 -3.47925782e-01 -5.07318713e-02  5.69084525e-01
 -3.64957452e-01 -2.31922910e-01  4.00831938e-01 -1.23642325e-01
 -6.14304319e-02 -1.67103603e-01 -7.54465699e-01 -4.02560264e-01
 -2.66193390e-01  4.52246726e-01 -1.99830443e-01 -2.31381208e-01
 -5.89768767e-01  3.64698797e-01 -3.45651001e-01 -2.51015186e-01
 -2.52055734e-01 -1.50492281e-01 -1.17113017e-01 -3.85492921e-01
 -3.23456287e-01  1.33914426e-01 -1.88361198e-01 -8.79944265e-02
  7.31802046e-01  4.07645613e-01 -1.49220511e-01 -2.36337289e-01
  6.39270246e-01 -3.88874173e-01  4.78559196e-01  4.26379114e-01
  4.89314109e-01 -2.84081638e-01 -5.51091731e-01  4.83725101e-01
 -4.77605253e-01 -4.10795897e-01 -3.99104893e-01 -1.90431729e-01
 -1.36956871e-01 -1.79152012e-01  3.60132396e-01 -3.22255105e-01
 -2.50450194e-01  9.75974739e-01  5.30520558e-01 -5.03491044e-01
 -1.13683775e-01  3.64468902e-01 -3.88452560e-01 -2.20786482e-01
 -1.88059181e-01  3.64932865e-01  3.81148815e-01 -3.85871440e-01
 -3.83374989e-01  2.88054109e-01 -3.67032260e-01 -2.60762870e-01
 -3.01068574e-01 -4.51241791e-01 -3.18569720e-01 -1.19207993e-01
 -5.71699560e-01 -4.11822945e-01 -1.62257552e-01 -1.84250087e-01
  2.29974970e-01  6.91492617e-01 -3.68142486e-01  1.24502659e+00
  5.64101338e-01 -1.60026893e-01 -8.97366256e-02 -6.17029548e-01
  3.35713118e-01 -1.67326912e-01 -2.54192427e-02 -4.79543418e-01
 -1.75717250e-01  3.73178869e-01 -5.13577282e-01  1.21553946e+00
 -3.23334187e-01  4.78828043e-01  5.15831888e-01 -6.66046143e-02
  4.41013753e-01 -3.06868255e-01 -2.31672381e-03 -7.00153857e-02
 -2.88152575e-01  2.16568798e-01 -1.86585590e-01 -2.72594869e-01
 -6.38880432e-01 -4.95560408e-01 -3.30546468e-01 -2.83351511e-01
 -2.16315210e-01 -4.91116345e-01 -3.84109437e-01  3.33169177e-02
  4.93654251e-01 -4.32774276e-01  7.15708315e-01 -9.43599045e-02
 -2.89554596e-01 -4.21466857e-01 -7.36178681e-02 -5.36518216e-01
 -7.32505843e-02 -1.21596597e-01 -4.05927986e-01 -3.92616749e-01
 -1.08318195e-01  4.31595594e-01  4.36509877e-01 -1.07043236e-01
  3.83084416e-01 -3.23683232e-01 -6.76268220e-01 -5.42375207e-01
 -4.12415743e-01 -3.47675383e-01 -5.71955979e-01 -6.22718811e-01
 -6.42949864e-02 -2.09218219e-01  1.84792280e-02 -3.67860019e-01
  4.62920278e-01 -3.86829913e-01  9.07627523e-01 -2.30447575e-01
 -1.76150233e-01 -2.72158802e-01 -3.67144406e-01 -1.15177229e-01
 -2.04186052e-01 -1.95493743e-01  4.86416698e-01 -5.99542558e-01
  1.87673911e-01  6.51515126e-01  1.25678163e-03 -3.23323965e-01
 -2.14905858e-01 -6.85618818e-02 -2.24532068e-01 -2.24446207e-01
  4.17492539e-01 -4.18539435e-01 -3.34852040e-01 -1.77667230e-01
 -6.12019412e-02 -3.37484956e-01 -3.71791124e-01 -2.20528483e-01
 -2.40843222e-02 -3.57407153e-01 -1.59016460e-01 -2.65564531e-01
 -3.39082778e-01  4.59787726e-01 -1.31528139e-01 -4.31967169e-01
 -4.29956079e-01 -3.06247205e-01  2.50606656e-01  9.37140509e-02
 -1.69408858e-01 -5.27592957e-01 -4.79769528e-01 -1.51997477e-01
  7.25242019e-01 -4.36525732e-01 -4.80802238e-01  5.28906822e-01
 -1.08475968e-01 -1.86572492e-01  1.41754910e-01 -4.94319201e-01
 -2.99501240e-01 -2.04116389e-01 -2.40613133e-01 -5.72231650e-01
 -3.63363743e-01 -3.04505646e-01 -2.05978885e-01 -1.54377997e-01
 -2.11992338e-01 -2.90747792e-01 -1.44539267e-01 -4.26911384e-01
 -4.42414641e-01  3.59760016e-01 -3.67928922e-01  1.07083470e-01
  4.99161184e-01  3.90750915e-01 -3.95157397e-01 -3.08545411e-01
 -9.55257788e-02  5.30527592e-01 -2.75017083e-01 -3.56787384e-01
  1.85773633e-02  4.28401232e-01  1.59947962e-01 -1.08414114e-01]
[ 8.37989897e-02  5.77820232e-04  1.52844131e-01 -4.82790060e-02
 -4.52455059e-02  1.22211836e-01  3.12100742e-02  1.19821103e-02
  2.29084417e-02 -1.18720680e-01  2.43920158e-03  2.50272512e-01
 -3.89964283e-02  7.52484947e-02  4.00783122e-02  2.68117040e-01
  1.48078604e-02  3.83111350e-02  2.79246587e-02 -2.49555744e-02
  4.35238659e-01  3.76082361e-02  1.14199512e-01  5.91091141e-02
  1.15650132e-01  7.49413157e-03 -5.04404493e-02 -8.44217371e-03
  4.21883017e-02  5.63456357e-01  2.72501856e-01 -5.78438379e-02
 -3.81769352e-02 -3.51534151e-02 -1.96135283e-01 -5.16474098e-02
  1.61734913e-02  1.96331739e-03 -3.73996764e-01 -9.52125490e-02
 -3.00037026e-01 -8.31001773e-02 -4.33000773e-02  4.71992642e-01
 -4.63116765e-02  9.01209265e-02 -1.65394604e-01 -2.41780877e-02
 -2.51972061e-02 -4.50874642e-02  2.47469544e-02 -7.42579401e-02
 -9.10925027e-03  1.78563714e-01 -5.54560982e-02  2.94754431e-02
 -1.90701208e-03  3.46808285e-01  5.22369333e-02 -3.88714741e-03
 -4.37028483e-02 -6.89916126e-03  2.45289728e-02 -1.67292189e-02
  1.52751058e-02  3.57700169e-01 -6.07968941e-02  1.22337297e-01
 -2.61498272e-01  4.12766129e-01  1.16803413e-02 -2.73823049e-02
  3.47387493e-02  1.04743674e-01  1.67034924e-01  1.64099351e-01
  3.50464731e-01 -7.28913471e-02 -5.03702126e-02  3.41125399e-01
  3.44492868e-02  4.96682599e-02 -1.81937531e-01  3.16607840e-02
  1.74619704e-02 -1.48298219e-01  6.40921295e-02 -9.31509212e-03
 -4.00192022e-01  1.62068099e-01  2.08512500e-01  5.85948378e-02
  3.69611122e-02  5.93557060e-01  3.68938372e-02  1.07404023e-01
  1.34547064e-02  1.87219888e-01  3.16051781e-01 -7.22579211e-02
  5.07239392e-03 -5.86852282e-02 -8.85396614e-04  1.16926596e-01
 -1.00587174e-01 -6.87132105e-02 -1.23980910e-01 -6.14928044e-02
 -1.33003727e-01 -1.17551293e-02 -3.29825461e-01  3.03687062e-02
 -1.06327562e-02  2.92989075e-01 -9.80896354e-02  1.31763756e-01
  4.52660412e-01 -2.35024374e-03 -9.46034789e-02 -6.13834746e-02
  4.53183129e-02 -5.95951192e-02 -6.95839971e-02 -5.67278042e-02
 -6.29117116e-02 -1.52226835e-01 -7.76166469e-02  3.54019046e-01
  8.26956704e-02  4.19976294e-01  7.23885000e-02  5.55877835e-02
  3.33639741e-01  6.93433732e-02  5.69187887e-02 -7.36302063e-02
  1.13449842e-01  1.04623884e-01 -6.40364587e-02  6.26287758e-02
 -3.97881866e-02  3.11571117e-02 -1.76085547e-01 -1.07620828e-01
  5.35432287e-02  8.38545784e-02  5.14547303e-02 -1.15550250e-01
  2.86282420e-01 -9.69872549e-02 -1.57827616e-01 -5.37482370e-03
  1.55581650e-03 -2.04309579e-02  1.00221500e-01  2.10585874e-02
  1.95200089e-02 -3.23498338e-01 -3.33077982e-02  4.16742638e-03
  1.13220867e-02  8.93909559e-02 -3.11159909e-01 -1.45510897e-01
  5.06488919e-01 -1.91658661e-01 -5.38856164e-02  5.54965064e-02
 -8.88764299e-03  1.22727817e-02 -3.70790184e-01  6.17134087e-02
  8.57957676e-02 -8.68234411e-02 -5.43422736e-02 -1.67194083e-01
  2.58269846e-01 -1.20639235e-01 -5.19135520e-02 -1.04762815e-01
 -1.68301925e-01 -5.87070175e-02 -4.35261056e-02  1.68808043e-01
  4.67265025e-02 -1.79152552e-03  1.39798284e-01 -6.54714033e-02
  1.91397548e-01  2.50270963e-01 -1.06131487e-01 -8.93367082e-02
 -7.10982084e-02 -2.40424156e-01  1.24187820e-01  1.10971220e-01
  3.25815082e-01 -8.13759565e-02  7.07760677e-02 -6.62276987e-04
 -1.78127848e-02 -2.38642618e-02 -6.69376878e-03  2.31441334e-02
 -5.65657690e-02  7.86876306e-02 -2.98920125e-01 -2.08695874e-01
 -2.37133401e-03 -2.01888621e-01 -8.29715356e-02  7.21028969e-02
 -4.22608018e-01 -3.05008441e-01  2.96589255e-01 -8.30902457e-02
 -6.96307346e-02  1.53862033e-02  1.01467289e-01  3.26009244e-02
  1.05588451e-01 -1.93541422e-01 -1.29602561e-02  8.33012909e-02
  4.84996755e-03 -1.69191092e-01 -8.36274326e-02  3.65615077e-02
  2.93301120e-02 -2.56005675e-01 -1.09292902e-02 -1.62761793e-01
 -3.35310511e-02  1.42733693e-01  5.60454614e-02 -7.86712840e-02
 -4.77172375e-01 -1.10873908e-01 -7.74318203e-02 -8.95464793e-02
 -8.50556269e-02  3.73084605e-01 -2.89219450e-02 -1.82880953e-01
  5.28973222e-01  1.26794577e-01 -1.75506398e-01  1.13442898e-01
 -1.05434172e-02  2.27963090e-01  7.71845784e-03  1.02271855e-01
  1.44578949e-01  4.22262140e-02  1.84885815e-01 -1.58519417e-01]
[-1.2794564  -0.72309947 -0.3171804  -0.82649726 -0.7820576  -1.3672957
 -0.990447   -0.88742787 -0.9929338   0.06205538 -1.0147947   0.7779478
  1.2370139  -0.8323606  -0.63415426  1.4992849  -0.4657722  -1.2976209
 -1.3323336  -1.2189572   0.9233646   0.7564069  -0.8412281  -0.94725764
 -1.2447249   0.07772768 -0.5869889  -0.7069185  -0.47376817  0.23061678
  0.86205965 -0.70493436 -1.4029603  -1.0147845  -0.9974059  -0.01819381
 -1.083229   -1.1598548  -0.02781675 -0.97676915 -0.45139897 -1.2495608
 -0.988819    0.36327514 -1.336065   -1.281848    0.9531286  -1.1878834
 -1.035388   -0.29349688 -1.176529   -1.1484443  -0.63849455  0.33805534
 -1.0281181  -1.2381777  -1.0191475   0.4237109  -0.8216556  -0.9217336
 -0.8407471  -1.2146684  -0.8074408  -1.1328748  -1.5452099   0.41928422
 -1.3503269  -1.0260639   0.992036    0.98581755 -1.244199   -1.3859159
  0.79784614 -0.8715498   0.71092224  0.6691053   0.8589585  -1.2630649
 -1.065487    0.5479097  -1.3524418  -0.2236288  -1.0887798  -1.0960108
 -1.1527314  -1.0909549   1.0315033  -0.7359486  -0.48308003  0.11868841
  0.4666571  -1.1501011  -1.3128587   0.31979144 -1.1128632  -1.1203688
 -0.48304525 -1.5705577   0.7010595  -1.2738034  -0.6539696  -0.33132136
 -1.0715784  -0.99558866 -0.98028076 -1.2419643  -0.34752148 -0.24042955
 -0.8808413  -0.91712326 -0.33474314 -0.82469404  0.75544006  0.8570151
 -1.1882519   0.15187068 -0.5222997  -0.85875666 -1.1597408   0.04143229
  0.5655033  -0.95241654 -1.135661   -1.3149548  -1.0741438   1.4582298
 -0.20579459  0.02864991 -0.97689474  0.71886414  0.50911176 -1.0138171
  0.56693876 -0.852551   -0.9109391  -0.81865674 -1.4087442  -1.3138244
 -0.7552048  -1.3605586  -0.1420325  -1.4843333  -1.0354738  -0.8744127
 -0.630186   -0.85050845 -1.2332548  -1.3690548   0.86878645 -1.3647472
  0.3057966  -1.2884543  -0.9693443  -0.906309   -1.4608725  -1.0751095
 -1.0152581  -0.66323763 -0.939145   -1.2077818  -1.1384869   1.1331189
  0.76830465 -1.3295796  -0.28101623 -0.6304835  -0.18957718 -0.97946835
 -0.79885197 -1.078712   -1.3168374  -1.0604604  -1.0790238  -0.5613619
 -0.403075   -0.225976    0.79275095 -1.0894829   1.0775886  -1.0269071
 -1.4809699  -1.3017092  -1.0025853  -0.10893591 -0.988213   -0.83540183
  0.27837574 -1.0903852  -0.6074789   0.5908296  -1.2448913  -1.2018756
 -0.04060578 -1.1891948  -0.7477435  -0.38853684  0.6282281  -0.77405065
 -1.0646255  -0.4844867  -1.4618708  -0.9226989  -0.7921222  -1.3784921
 -1.021692   -0.9141604  -0.06295547 -1.4681225  -0.64671874  0.45522997
 -1.1773621  -0.91530263 -0.2933089  -0.9802127   0.69688636 -0.7795426
 -0.9794055  -0.4990048  -1.0580136  -0.89533865  0.03808134 -1.0396035
 -1.3132555   0.40055603 -1.1431589  -0.9144408  -1.488022   -1.0327736
 -0.75567794 -0.7208508  -0.7625408  -1.169806   -0.84247965 -0.44316867
 -0.8842163  -1.171265   -0.5579771  -0.7463971  -1.2487807  -1.0093521
 -1.0942559   0.6620005  -0.6912552  -0.48468542  1.2302357   0.5592418
 -1.007419   -1.0129646  -0.6754818   0.67581093 -1.2996306  -0.78738964
 -0.9642497   1.3640136   0.9772033  -1.3599564 ]
[-0.5255293  -0.14218868 -0.2661349  -0.1188324  -0.3757531  -0.42505345
 -0.27693948  0.2769121   0.20078872 -0.1541234  -0.30944812  0.0631282
  0.1023733  -0.38024342 -0.30344605 -0.03655353 -0.16521126 -0.09851988
 -0.41088542 -0.45878342 -0.13042693 -0.22101064 -0.12312044 -0.33831003
 -0.29465723 -0.1105345  -0.01110838 -0.21037316  0.14011857  0.36078447
 -0.1466479   0.3753459  -0.39544818 -0.46381602 -0.12839037 -0.02714593
 -0.41773188 -0.12496063  0.38347313 -0.21118583  0.2602945  -0.39161736
 -0.30701292  0.04918061 -0.12834373 -0.47412425  0.17981902 -0.2570311
 -0.4661989  -0.07158127 -0.1852151   0.00526815 -0.11354201  0.27921802
 -0.27467003 -0.51555455 -0.3211224   0.16762096 -0.08804943 -0.33538887
 -0.24009658 -0.27855092 -0.5543396  -0.2950334   0.0454446   0.03095631
 -0.4464995  -0.1351393   0.31441924  0.2568326  -0.4305834   0.11860748
  0.20289965 -0.51640177 -0.11501785 -0.08021172 -0.14712007 -0.28720358
 -0.53467476 -0.19137375 -0.3700199   0.01550993  0.17069891 -0.10188115
 -0.24024744  0.20086749 -0.05426786 -0.33929983 -0.03944153 -0.09343321
  0.33892044 -0.28803867 -0.10860848  0.06128098 -0.08869869 -0.30696023
 -0.2306012  -0.08223805  0.12901601 -0.21815394 -0.17279196 -0.15740699
 -0.42792395 -0.15864122 -0.38634574 -0.06959352 -0.15201655 -0.00653461
 -0.45297033 -0.00260107 -0.08093012 -0.06823061  0.29399043  0.15905762
 -0.14655176  0.15859719  0.15713997 -0.05844655 -0.24971487  0.00475704
 -0.2151949  -0.5228328  -0.24428263 -0.47473326 -0.45604804  0.21740118
  0.11507292 -0.11469261 -0.3647045   0.04312206  0.09789563 -0.13617094
 -0.12559338 -0.3285584   0.02988363 -0.2984746  -0.5603863  -0.01616991
 -0.43528986 -0.33425477 -0.45416802 -0.66068614  0.3222362  -0.03882354
 -0.24776179  0.01468708 -0.3507858  -0.55117023 -0.11267487 -0.23521274
  0.05823195 -0.25926423 -0.27089554 -0.30708197 -0.45723268 -0.3253309
 -0.11083621 -0.1274039  -0.40142217 -0.5476221  -0.05250113  0.0952469
 -0.36237258  0.02278349  0.03836836 -0.00695614  0.1639969  -0.12228616
 -0.2549972  -0.44705576  0.04452709 -0.2731434  -0.55861586 -0.185529
 -0.25694793  0.06297693 -0.12262953 -0.20735675  0.54916424 -0.25153002
 -0.03094862 -0.20011565 -0.34751576 -0.32052672 -0.18371165 -0.16281405
  0.08173684 -0.28729427  0.11811501  0.33633715 -0.01080517 -0.4886976
  0.24305151 -0.3099745  -0.37479326 -0.14837521  0.14826636 -0.51985437
 -0.47828862 -0.28488004 -0.405742    0.00728376 -0.21757199 -0.28413746
 -0.36319086 -0.30173495 -0.00433489 -0.2056588  -0.2023634   0.00831615
 -0.11733263 -0.44380796  0.00507106 -0.05897656  0.24857253 -0.11164577
 -0.38891894 -0.21240878  0.21657449 -0.31311816 -0.3270568   0.21106052
 -0.38217303 -0.06076607 -0.4937538  -0.28866318  0.22301099 -0.17086932
 -0.31306195  0.14412926 -0.2709695  -0.29723418 -0.31503722 -0.18170032
 -0.48122057 -0.35546228 -0.06866947 -0.36601514 -0.11500239 -0.39991248
 -0.13094993  0.45098504 -0.3084659  -0.13175581 -0.07577914  0.5036951
 -0.10525961 -0.38331234 -0.14127004  0.00155375 -0.26309302 -0.17878805
 -0.3766068  -0.0125848   0.10647671  0.24432723]
[-5.05406447e-02 -1.58064663e-01 -2.48252861e-02 -2.74562567e-01
 -1.26861138e-02  2.99476266e-01 -2.79032886e-01  2.01277286e-01
 -4.14536558e-02 -2.70375341e-01 -1.12128668e-01  2.36380696e-01
 -1.59314811e-01  4.74191159e-02 -1.84432611e-01  3.10465842e-01
  5.03278784e-02 -4.41951841e-01  1.35339677e-01  1.33510455e-01
 -2.41623282e-01 -2.32090592e-01 -2.77433008e-01 -6.21517971e-02
 -1.08913153e-01  6.66857734e-02 -2.20186189e-02 -1.90110818e-01
 -7.46020302e-02  7.17782751e-02 -5.79176188e-01 -1.77638158e-01
  1.30299211e-01 -3.02600652e-01  1.30927816e-01  1.98857617e-02
 -4.35282886e-02 -3.97500992e-01  6.46663178e-03  1.70223191e-01
  2.49894544e-01 -3.95336188e-02  2.13554546e-01  5.91318645e-02
  1.53988197e-01  2.04361811e-01  1.29203007e-01 -1.03645608e-01
  1.78538889e-01  5.04886024e-02  1.17699869e-01 -1.71139330e-01
 -6.29495084e-02  3.94100636e-01  2.86390651e-02 -3.79839450e-01
 -2.57390309e-02  1.96560130e-01 -1.53597474e-01  3.96479934e-01
  1.30411044e-01  1.26792088e-01  1.75104722e-01  8.77806619e-02
  4.30450648e-01  5.87799847e-02 -1.79930255e-02 -1.01980027e-02
 -2.61896074e-01  3.30330223e-01  4.68890518e-02  2.91926384e-01
  1.06199794e-01 -1.00553863e-01 -6.80339098e-01 -1.30323544e-01
 -2.85156727e-01  2.65090406e-01  2.80580580e-01 -3.53501648e-01
  1.83775306e-01  1.54798582e-01  1.47053555e-01  6.87773526e-02
  1.66985571e-01  8.05649534e-02 -6.30221441e-02  3.20672579e-02
  1.07484981e-01 -2.40358710e-01 -1.33297175e-01  2.73836166e-01
  1.56388342e-01 -6.52277470e-02  2.97332823e-01 -4.09872532e-01
 -1.18008979e-01 -1.25047594e-01  2.08742514e-01  9.99539346e-02
 -4.51000370e-02 -5.89143813e-01 -2.39699736e-01  4.68682088e-02
 -1.91409901e-01 -1.29872471e-01 -9.38351750e-02  2.36143987e-03
  1.98927317e-02  2.05271855e-01 -2.41276845e-01  4.12022293e-01
  1.61208302e-01 -2.45158523e-01  4.20177393e-02 -7.86046565e-01
 -8.28206390e-02  5.87301515e-03  2.21433267e-01 -3.75861436e-01
 -3.92991871e-01 -6.59285262e-02 -1.04175106e-01  2.14003429e-01
  1.03315748e-01  5.96947549e-03 -1.37941226e-01 -1.05250323e+00
  3.18497140e-03 -3.38293254e-01  1.59534607e-02 -2.28089821e-02
 -1.11678712e-01  5.47856539e-02  1.57945260e-01  5.28749339e-02
  1.42768145e-01 -4.84322876e-01  4.12909910e-02  2.44991004e-01
  7.80045241e-02 -5.05879261e-02  1.90707929e-02 -5.24252839e-02
  3.27264704e-02  1.28055573e-01 -1.87556371e-02  1.01027749e-01
  4.83427383e-02 -1.11216754e-01 -2.58777171e-01  7.70901740e-02
 -4.44952311e-04  5.08676097e-02 -1.17924877e-01  1.50848906e-02
  3.10631990e-01  4.50596660e-01  9.65760350e-02 -3.43729779e-02
 -5.56306168e-02  3.26305568e-01 -6.12203240e-01 -8.03691447e-02
 -1.18726522e-01  1.02730453e-01 -6.43179268e-02  4.11788881e-01
 -1.08902477e-01  2.17069481e-02  2.69214720e-01  2.23013148e-01
  3.08659021e-02 -8.75200778e-02 -4.05955687e-02 -2.88030535e-01
 -3.19239348e-01 -1.06532082e-01  1.93052039e-01 -1.96419388e-01
  2.96700299e-01  4.11500502e-03 -2.49019161e-01 -1.72773466e-01
  7.63480291e-02  2.15885229e-02 -3.27329477e-03  2.02429622e-01
  3.02178681e-01  8.41162130e-02 -3.85530293e-02  1.11729376e-01
  1.04840264e-01 -6.57407492e-02 -1.25809520e-01 -6.23853318e-02
  2.56346852e-01  1.94079190e-01 -8.74848440e-02 -2.45258540e-01
  3.47213186e-02  4.14524078e-02  3.85009907e-02  8.97597373e-02
 -1.74572125e-01 -3.40579115e-02 -3.50894094e-01  4.14705008e-01
 -8.11243281e-02  2.40596230e-04 -2.61394799e-01  2.30166130e-02
 -1.06868222e-01  2.87578613e-01  1.19077869e-01  1.43051043e-01
  2.29155481e-01  2.26955153e-02 -1.17612414e-01 -3.29887003e-01
 -7.61601031e-01  2.22878028e-02  1.99122787e-01  5.10019027e-02
 -2.90027764e-02 -1.51298314e-01  4.43759635e-02  2.00450987e-01
 -1.54923394e-01  4.16001342e-02 -7.12846667e-02  1.25131950e-01
 -1.61630616e-01 -8.87112021e-02  9.62009057e-02 -3.67345423e-01
  1.65704638e-01  1.34688988e-02  1.49807841e-01 -2.35807866e-01
 -2.25602642e-01 -6.36181086e-02 -8.27458650e-02  3.49603504e-01
 -3.77109386e-02 -1.63526997e-01  1.43893510e-01  1.32958859e-01
 -4.87892516e-02 -1.56402588e-01  2.13041231e-01  2.20843703e-02
 -2.00430714e-02 -3.22679311e-01 -2.30536014e-01 -1.44282863e-01]
[-1.92644238e-01 -1.34279113e-02  7.29517953e-04  2.80974917e-02
 -1.50446624e-01 -2.45746318e-02 -6.22879453e-02 -1.07902475e-02
  5.77103272e-02  1.18397214e-01 -2.63718460e-02  2.61164960e-02
  1.36923879e-01 -2.92782988e-02  1.93664189e-02  1.26236454e-01
 -6.53469115e-02  4.75826114e-02  1.31624877e-01  1.36282295e-02
 -6.92027509e-02  1.48775026e-01 -5.27583696e-02  4.65388293e-04
  1.02672227e-01  3.63669656e-02 -2.45406646e-02 -8.86924267e-02
  1.04930378e-01 -1.16693139e-01  1.89367846e-01 -4.17332985e-02
  7.94552937e-02  8.60843360e-02  1.36760578e-01 -6.49942830e-02
  1.84687793e-01  2.48354729e-02  2.56094128e-01  2.59837937e-02
  4.40125316e-02  5.49690723e-02 -2.41954066e-02  3.23750451e-02
 -1.94187288e-03 -1.26822859e-01 -1.18683025e-01 -6.80304095e-02
  1.32854044e-01 -3.97254787e-02  1.39456436e-01 -2.41678730e-02
  1.79933384e-01 -2.00634673e-02 -3.40875983e-02 -1.48903728e-01
  4.34173308e-02 -2.12172553e-01 -4.70295213e-02  1.95546687e-01
  8.08213651e-02 -6.05608150e-02  1.44190401e-01  1.40316024e-01
 -1.09275289e-01 -8.63876566e-02 -5.26761189e-02  8.72157887e-03
 -9.17031914e-02 -1.70376986e-01 -9.12906453e-02  8.78481567e-02
 -9.08875540e-02 -1.38888806e-01  1.18330225e-01  1.41737416e-01
  1.20242953e-01 -1.25904918e-01 -2.75021549e-02  1.91403493e-01
 -8.16855207e-02  1.55978858e-01  3.95355783e-02  1.70132801e-01
 -2.75144150e-04 -1.12599768e-01 -5.58795109e-02 -9.59783271e-02
  5.88576309e-02 -2.42886111e-01  1.53760493e-01 -1.15899473e-01
 -1.35237589e-01  1.36048272e-01  6.01674914e-02  2.70419270e-01
  9.73274838e-03  4.74138781e-02  1.34410504e-02 -5.59871010e-02
 -4.43532094e-02  1.05324976e-01  7.43006915e-02 -1.01507023e-01
  4.21253480e-02 -7.17811435e-02 -4.64691955e-04  3.64476852e-02
 -4.07036580e-03  1.85766295e-01  7.58596063e-02 -2.43178615e-03
 -5.87309934e-02  4.56796400e-02  3.25750448e-02 -2.05796972e-01
 -2.29367558e-02  6.39856830e-02 -2.74756271e-02  1.55558109e-01
  7.74694383e-02 -1.54405963e-02  5.60132042e-02  1.84406452e-02
  2.42539048e-02 -8.72108191e-02  9.72423702e-02 -6.56629145e-01
 -4.64680232e-02  4.76246420e-03 -1.62194788e-01 -1.05654225e-01
  1.20665438e-01 -6.24561775e-03 -8.72620419e-02 -1.25538707e-01
 -1.08630983e-02  5.36972471e-02  2.63956636e-02 -2.73798201e-02
  7.97612146e-02 -1.16160199e-01 -2.17983052e-02  9.63027589e-03
  1.38687328e-01  4.42198031e-02 -1.10207899e-02  7.29874745e-02
  2.87081432e-02 -1.05052456e-01 -2.57250527e-03 -4.88942303e-02
  1.29998391e-02  3.70445028e-02 -2.94951405e-02 -2.06321478e-02
 -1.46218047e-01  1.09791961e-02 -1.15545884e-01 -8.72069523e-02
  5.79183511e-02  8.80555212e-02  2.20858023e-01 -1.00815538e-02
 -4.47362214e-02 -1.10228889e-01  3.39644141e-02  9.72587895e-03
  8.30901563e-02  7.98385590e-02  8.13729092e-02  1.09830610e-02
  3.50112952e-02  2.73413688e-01  6.16401769e-02  2.58643210e-01
  1.27934515e-01 -1.88468933e-01  1.07984796e-01 -5.75331338e-02
 -2.50508171e-02  1.25020713e-01  3.02422121e-02  1.30904630e-01
  1.00842014e-01 -9.14203282e-03  2.52074674e-02  5.73457107e-02
  5.98150231e-02 -3.81063819e-02 -4.80288826e-02 -1.27082458e-02
  1.19269185e-01  3.85251865e-02 -1.40111193e-01  1.70284938e-02
 -3.16723958e-02  5.81836514e-03  3.03015485e-02 -5.30951610e-03
 -1.01139657e-02 -8.98502693e-02 -2.59379819e-02 -1.55705039e-03
  4.07886766e-02  9.90569815e-02 -5.04324101e-02  7.49098286e-02
 -1.68571826e-02  1.43967301e-01  3.06301136e-02 -3.31689641e-02
  1.75839290e-01  4.48615700e-02 -7.18911737e-02  3.00394446e-02
 -5.75848594e-02  1.57806426e-01 -1.15035862e-01  3.88738774e-02
 -6.51142061e-01 -2.73641944e-03  9.17319134e-02 -6.43246621e-02
 -9.48415920e-02 -5.85856251e-02 -4.50524427e-02  8.24745744e-03
 -2.01009437e-02  6.52303323e-02 -1.80838272e-01  4.32683118e-02
 -3.55895213e-03  9.14049521e-02  2.00098846e-02 -6.15465902e-02
  1.79583997e-01 -8.50215480e-02 -1.26192763e-01 -2.11586490e-01
 -1.73226535e-01  8.24291930e-02 -1.63507640e-01  4.23265062e-02
 -1.68386430e-01  3.29464786e-02 -1.77703425e-01 -4.52704728e-02
 -3.39390524e-02  1.62234172e-01 -4.24300842e-02  5.00773825e-02
 -1.26512781e-01  2.04939377e-02  4.64375578e-02  6.65176734e-02]
[ 3.17171305e-01 -1.32918119e-01 -2.37298347e-02 -2.54348051e-02
 -2.99051125e-02 -5.39970025e-02 -1.39456522e-02  1.48913682e-01
 -6.13422804e-02  4.53147531e-01  1.12439796e-01  1.94055825e-01
 -5.56280650e-02 -1.06149390e-01  6.82089804e-03 -5.48046231e-02
 -7.37151429e-02  3.25913072e-01  2.47478560e-01  2.58410662e-01
  6.50478154e-02  1.49608701e-01  9.21526030e-02  7.42099583e-02
  1.11274272e-01  1.47303343e-01 -1.85161710e-01  8.64770438e-04
  2.94981360e-01 -9.30110514e-02 -2.30081659e-02  9.67840031e-02
  1.24972403e-01 -8.21919367e-02  7.84350485e-02  4.93938774e-02
  1.92017540e-01 -7.26323575e-02  3.42294388e-02  6.52718544e-02
  5.18708117e-02  2.28036463e-01  7.82433897e-02  1.25448763e-01
  2.18113586e-02  2.63412267e-01 -2.09016412e-01  4.17129248e-02
  2.84605205e-01  5.65206297e-02  3.58916223e-02  1.22390501e-01
  1.50763527e-01 -1.54857054e-01  2.66908526e-01  1.24687711e-02
 -1.99857783e-02  7.43088797e-02 -6.80145100e-02  1.12353727e-01
  2.09683821e-01  1.85573742e-01  1.45194471e-01  2.34144479e-01
  1.22430436e-01 -8.91768932e-01 -1.40896544e-01  1.06960364e-01
 -1.38550356e-01 -5.84923148e-01  3.13031703e-01  4.61054295e-02
 -2.91424483e-01  8.28314126e-02 -4.05315250e-01 -6.22295082e-01
  4.45681587e-02 -1.25623733e-01  1.44466907e-01 -4.70674485e-01
  2.92646945e-01  1.66368261e-01 -1.23090975e-01  4.30121506e-03
 -3.92820546e-03 -3.17756161e-02 -2.33856402e-02 -3.74269001e-02
  1.66929916e-01 -7.27748811e-01 -2.70975549e-02  3.34832489e-01
 -3.00830215e-01  6.62678629e-02  4.44701493e-01  7.84526542e-02
  2.77887434e-01 -1.30711854e-01  3.77200186e-01  5.65036573e-02
  2.43934840e-01  9.55096483e-02 -1.33023113e-01 -1.87424403e-02
 -1.05659701e-02  3.01342994e-01  2.71239787e-01 -8.61968622e-02
  6.01822473e-02 -1.63429938e-02  7.52462968e-02 -1.22812487e-01
 -5.08835971e-01  1.05680916e-02 -1.46441057e-01 -5.27826607e-01
 -2.37472691e-02 -1.49674322e-02  8.26789960e-02  2.46163234e-01
  1.46948874e-01  1.57064348e-01 -1.31197840e-01  1.60671622e-01
 -1.86311394e-01 -1.54936999e-01  1.43041059e-01 -1.05140470e-01
 -1.32801756e-02  9.97170731e-02 -2.83945724e-02  1.51779652e-01
  1.10758655e-01  1.88004747e-01 -3.96832824e-02 -2.27112263e-01
  1.12556972e-01  7.77312964e-02  1.53733045e-01 -2.00932503e-01
  2.35098690e-01 -7.77206421e-02  1.12294585e-01  1.94818780e-01
  1.27352551e-01  8.45911726e-02  8.74976069e-02  3.27835143e-01
 -1.51934937e-01 -1.64350271e-01 -2.50553638e-01  5.40931188e-02
  9.56135020e-02  2.48732045e-01  6.85230494e-02  1.82030618e-01
 -2.53210552e-02  3.14142317e-01  3.63767833e-01  2.52966762e-01
  1.22517340e-01  1.05360441e-01  5.01155928e-02  1.97964475e-01
  3.01411897e-02  4.14569080e-02 -3.62641141e-02  3.78530741e-01
  7.29853436e-02 -4.54889238e-02  1.29579097e-01  1.82055756e-01
  1.51647210e-01  4.27795678e-01  1.66800350e-01  1.27563134e-01
 -3.28752071e-01  1.73788980e-01  5.65173402e-02  3.18708837e-01
  6.88613951e-02  2.47322083e-01  2.13903084e-01 -1.55417267e-02
 -2.82745212e-01  2.02865377e-01 -1.82131957e-03  1.16987854e-01
  2.25255594e-01 -2.96025991e-01  2.02566415e-01  1.99148178e-01
  4.56665576e-01 -1.31470218e-01  1.48461536e-01 -3.34026366e-02
 -1.02065198e-01  2.92253345e-01  1.06507435e-01  1.53237926e-02
  7.00046346e-02  1.94549352e-01  1.67789087e-01  3.66100073e-02
  5.26482537e-02 -1.97050020e-01  1.57025680e-01  2.96260446e-01
  2.08476577e-02  1.42011166e-01  8.54218751e-02  2.38705784e-01
 -2.24607270e-02  1.33080572e-01 -6.23892367e-01  7.15244282e-03
  2.15905160e-01  9.06084627e-02 -1.20599180e-01  3.22946876e-01
 -6.00360036e-01  1.85876876e-01  2.70985812e-01  5.37878945e-02
  2.48338684e-01  3.37658048e-01  3.14350247e-01  2.41491392e-01
  1.48367405e-01 -1.86834455e-01  3.01770382e-02  2.37578899e-01
  4.78086889e-01 -4.53017764e-02  6.10949881e-02 -7.35241845e-02
  2.46155471e-01  6.77898303e-02  2.73084585e-02  2.32948065e-01
 -2.34893724e-01 -3.44748646e-02  3.42491791e-02 -1.70774966e-01
  4.22214605e-02  7.04956278e-02 -3.92336309e-01  2.20222160e-01
  2.63647344e-02  3.23922157e-01  5.15796915e-02 -1.05251089e-01
  4.50064093e-02 -1.11216381e-01  5.12571782e-02 -3.75039913e-02]
[ 1.92933127e-01 -3.68661761e-01  3.86426225e-02  1.05157979e-01
 -6.14498742e-02 -5.95817685e-01  4.26293537e-02  4.83228602e-02
 -2.15624616e-01 -1.86454788e-01 -6.90700579e-03  5.46254255e-02
  7.70945624e-02  6.61136284e-02 -7.58400594e-04  2.58382559e-01
 -2.68233828e-02  7.87552297e-02 -3.52279991e-01 -2.61426065e-02
  3.50648582e-01 -5.78402802e-02 -4.82551455e-02  3.96180004e-02
  2.24106550e-01 -5.33973396e-01  3.58585864e-02 -5.83853982e-02
 -1.47057474e-01  4.48498875e-01  7.31937438e-02 -1.32660016e-01
  1.04009770e-01  2.96756148e-01 -4.57848608e-01  1.97287183e-02
  1.20679066e-01  3.40692922e-02 -8.63478124e-01 -1.95477419e-02
 -4.97297376e-01 -7.06474483e-02 -4.88893650e-02  3.98092270e-01
 -1.56922117e-01 -6.45709038e-02  1.43561378e-01 -5.68367653e-02
 -2.43134424e-02  9.71830357e-03 -2.50763774e-01 -1.98394105e-01
  1.11700952e-01  9.63013247e-02  4.71960893e-03 -8.28861222e-02
 -1.87257119e-02  1.59135789e-01 -1.57323688e-01  1.54086009e-01
  2.13345010e-02  4.35023056e-03 -8.32371265e-02  1.92603599e-02
 -1.71900541e-02 -1.83960035e-01  5.86261861e-02 -4.90200520e-02
  2.19832197e-01  4.17710304e-01 -2.76396304e-01 -6.10217810e-01
  3.57083440e-01 -3.80654470e-04  6.94628134e-02 -1.05053887e-01
  1.70227423e-01  3.77395414e-02  6.27294276e-03  1.83264375e-01
  1.72554310e-02 -1.87319949e-01 -2.82575071e-01 -1.26671167e-02
 -8.21897089e-02 -3.83461416e-01  2.61778474e-01 -3.52182128e-02
 -1.11905508e-01  5.05011857e-01  6.89033642e-02 -3.67527217e-01
  1.21767931e-01 -3.15238982e-01  7.99239501e-02  7.84351490e-03
  1.03657432e-01  3.86916488e-01  9.74705294e-02 -1.78601835e-02
 -2.62553133e-02 -2.46276334e-02  6.18867949e-02  5.56461653e-03
  1.70935374e-02  1.26499400e-01 -4.23842609e-01 -1.65182933e-01
  5.66123500e-02  1.91344339e-02 -5.11481881e-01  1.37934238e-01
 -3.17244738e-01  1.09897852e-02 -2.32015103e-02  2.40684226e-01
  7.96934664e-02 -1.20253116e-02  1.05940811e-02 -7.07638919e-01
  7.56114870e-02 -2.38418758e-01 -1.93067685e-01  8.71388167e-02
 -1.24254171e-02  4.70040133e-04 -5.97206131e-02  1.78193301e-01
 -7.79198203e-03  2.21885219e-01  2.16423109e-01 -1.32923096e-01
  3.19563597e-02 -2.25027055e-01 -3.80273946e-02 -3.12943757e-01
 -5.92022501e-02 -9.28535312e-02 -2.90913414e-02  1.46036923e-01
 -1.59490481e-01 -2.48308796e-02 -4.07257140e-01 -1.18804678e-01
 -4.71267790e-01  2.29666665e-01  1.26397938e-01 -3.62225715e-03
  1.88344195e-01  2.37695780e-02  7.62098059e-02 -2.17684999e-01
 -9.35808849e-03 -2.58815773e-02 -2.36542508e-01 -1.34485394e-01
 -1.15805812e-01 -6.26709163e-01  7.84696639e-02  1.67898357e-01
 -4.92681786e-02  5.89130782e-02 -1.19238412e-02 -1.26245692e-01
  1.14936791e-01 -2.21992686e-01 -3.26364398e-01 -4.12149467e-02
 -1.70703202e-01  1.73936129e-01 -3.97187650e-01 -1.07129700e-02
 -7.21718222e-02 -7.88457692e-01 -3.30377191e-01 -3.93690497e-01
 -2.12956429e-01 -1.05959691e-01  1.58516347e-01  1.99664697e-01
 -3.22595537e-01 -6.89691165e-03 -8.01994726e-02 -3.32682170e-02
 -2.72658408e-01 -4.17807288e-02  6.70298794e-03  1.39118269e-01
  8.64921212e-02  1.76719010e-01  8.45784671e-04 -8.20341110e-02
 -3.84756505e-01 -3.54511321e-01  1.62795886e-01  1.17178157e-01
 -6.74562976e-02 -1.45763373e-02 -1.56429425e-01 -4.28036034e-01
  4.23948877e-02 -1.87926024e-01 -5.95945567e-02  1.10850558e-01
  6.08860888e-02  1.16298534e-01 -4.80824560e-01 -5.77284217e-01
 -5.11554303e-03 -2.74097193e-02  1.81014296e-02 -4.62363400e-02
 -2.81823993e-01 -5.18962927e-02  5.47729850e-01  2.31682789e-02
  6.78329617e-02 -1.73059076e-01 -1.93762124e-01 -1.01738116e-02
  6.08855963e-01 -3.98784518e-01 -1.57716841e-01  2.22980857e-01
  1.64960966e-01  8.79018568e-03 -3.45786124e-01  6.93723653e-03
  1.47938311e-01 -3.39395434e-01 -4.42919955e-02 -1.92958806e-02
 -8.99263844e-02 -3.03025782e-01 -4.55924459e-02 -1.51246460e-03
 -4.34022456e-01 -1.25310749e-01 -2.33737417e-02 -2.40524262e-02
  2.17771173e-01 -2.08154216e-01 -1.11474141e-01 -9.86746699e-02
  5.01180887e-01 -1.91375695e-03 -5.06579757e-01  2.61736177e-02
  2.59988178e-02  2.43741855e-01 -2.96569437e-01  1.28921792e-01
 -1.51350677e-01  3.78382742e-01  8.72759894e-02 -8.12796652e-02]
[-1.0781964  -0.82883584 -0.4634192  -1.0761813  -1.3308578  -1.0341617
 -0.93295985 -0.85586506 -0.8742751  -0.03358125 -1.0305676   0.9865971
  1.061317   -1.116426   -0.8361195   1.0139674  -0.6565008  -0.8152826
 -1.1444365  -1.0757029   1.0399041   0.80047375 -0.82357615 -0.7065486
 -0.98410416  0.00747971 -0.64353776 -1.0966136  -0.26240197  0.6012291
  0.64286923 -0.5669191  -0.5295251  -1.2855192  -0.5175859  -0.03399046
 -0.864935   -1.4869113  -0.05296144 -0.86077344 -0.5779887  -0.89320046
 -0.86588633  0.5705406  -0.5965828  -1.1700163   1.0111462  -0.5110579
 -0.6513661  -0.28673497 -1.0275017  -1.1715181  -0.6746291   0.26889575
 -1.5280659  -1.3054079  -1.4192309   1.0040773  -0.7941195  -0.27091458
 -0.7176091  -0.93504375 -1.0824455  -0.6110054  -0.98981404  0.79818213
 -1.119267   -0.98840976  1.1938422   0.79887867 -1.1381823  -1.3591701
  0.9820002  -1.1069046   0.97200626  0.9546742   1.2152768  -0.8020478
 -1.175707    0.9325647  -0.74337316 -0.24174795 -1.008749   -1.7701837
 -0.4626603  -1.0800914   1.372715   -0.7314365  -0.5149938  -0.33575734
  0.733783   -0.94969994 -0.92179435  0.5580028  -1.2494644  -0.801587
 -0.7255125  -0.42855194  0.85881674 -1.1996992  -0.9075172   0.80910593
 -1.1660229  -0.74388534 -0.9539536  -1.4464133  -0.45497757 -0.38518384
 -0.8452333  -1.0687127  -0.45571542 -0.89025587  0.3387024   0.46103445
 -1.0513296   0.4826643   0.71230495 -0.6991931  -0.7921468   0.03171455
  1.0239289  -1.0711755  -0.99698675 -1.1765369  -1.4247262   1.3244509
 -0.29611915  0.07006398 -1.1776558   0.70056206  0.63821685 -0.7875933
  1.194217   -0.7344245  -0.79656935 -0.85200274 -0.9619344  -1.0268987
 -1.0582619  -0.9081069  -0.12230822 -1.2018269  -0.78352594 -0.9116854
 -0.37522632 -0.8616457  -0.81304836 -1.2415967   0.65916497 -1.4305438
  0.8578435  -1.1710986  -1.003533   -1.2047013  -1.3290658  -0.8426974
 -0.66874427 -0.5837728  -0.82768136 -1.0857023  -1.3282094   0.81792104
  0.96331257 -1.1396002   1.0149213  -0.9499113  -0.16639899 -1.2783638
 -0.95731455 -1.3145196  -1.1293073  -1.3655597  -0.8789792  -0.64339465
 -0.24769558 -0.12293838  1.1180744  -1.3722124   1.1657884  -1.1191037
 -1.293231   -1.0339371  -0.7472143  -0.28062758 -1.0943844  -0.82527584
  0.5934483  -1.0824041  -0.7706215   1.0234696  -0.9578039  -1.0327456
 -0.09489933 -0.9842534  -1.1819155  -0.46296254  0.6242197  -0.6042953
 -1.0195225  -0.5368349  -1.103626   -1.2476383  -0.92420053 -0.857717
 -1.0721842  -1.140844   -0.01535494 -1.2355894  -0.64201427  0.8507756
 -0.8539914  -0.7371807  -0.50793135 -1.1803771   0.80356914 -0.92093974
 -1.0129762  -0.20075005 -1.0645273  -0.9599376   0.43683386 -0.8870595
 -1.3077271   0.38012323 -1.0244143  -1.2803285  -1.1161882  -1.1253463
 -0.95507723 -0.7098314  -0.9573453  -1.1615711  -0.94154906 -0.5537123
 -1.3986664  -0.7620047  -0.37089464 -0.8113991  -1.3198881  -1.1189573
 -0.67224073  1.0723184  -0.5890175  -0.79953307  1.0329918   0.8036208
 -0.91975915 -1.5346014  -0.9943379   1.0930213  -1.2688352  -1.0155762
 -0.7424241   1.2917339   0.9540683  -1.3320087 ]
[-1.56255141e-01 -3.92805815e-01 -3.77237588e-01  3.69762987e-01
 -6.33329377e-02  1.15091845e-01  4.40631628e-01  1.96075030e-02
  5.38862385e-02 -3.16809453e-02  5.55242300e-02  2.27480978e-01
 -2.09918812e-01  1.56428739e-01  1.15064815e-01  1.32963479e-01
 -5.64198941e-02  1.35897445e-02  3.91054720e-01  1.19223386e-01
  4.50205104e-03  2.55403891e-02 -1.95202470e-01 -6.83177486e-02
  2.28410624e-02  3.51605117e-01  3.82973939e-01 -3.75857830e-01
  2.52903104e-01  6.13400750e-02  1.50213286e-01  4.18155305e-02
  2.86175013e-01 -3.90725434e-02 -1.65600866e-01 -1.21557750e-01
  9.98348966e-02 -2.93357402e-01  2.46000830e-02  9.32254419e-02
  1.93824787e-02  4.33261469e-02 -3.78044039e-01  1.47285923e-01
  5.37555739e-02  4.38553281e-02 -2.82777101e-01  1.65552452e-01
  1.11731015e-01 -9.70628336e-02 -9.46894065e-02  1.59081534e-01
 -1.00293934e-01  3.87603827e-02  4.48283315e-01  4.22723442e-01
  1.66456252e-02  8.56637135e-02 -1.25352100e-01  3.03716302e-01
  2.28522435e-01 -3.74156296e-01  2.69734919e-01 -6.65701702e-02
  1.00131012e-01 -4.56421793e-01  1.77171212e-02 -2.16389164e-01
  2.38235623e-01 -1.69566095e-01  3.31772864e-01 -3.09885442e-01
  1.03973217e-01 -4.27093878e-02 -4.30690199e-01 -7.06127137e-02
 -3.28941792e-01  2.22558877e-03  3.67303610e-01 -3.85161668e-01
  2.48748794e-01  9.79158431e-02  3.75110567e-01 -1.09075688e-01
 -5.77454679e-02  7.65463933e-02  6.95854872e-02  1.03011332e-03
  3.38781267e-01 -8.91811430e-01 -3.27219591e-02  2.10895374e-01
  3.59228887e-02 -1.99564531e-01  1.87407345e-01  2.35846415e-01
  2.55988482e-02 -6.08735502e-01  9.36702192e-02 -5.68574928e-02
 -2.31704161e-01  1.76882222e-01 -1.51508480e-01  2.71808356e-01
 -1.09328069e-01  1.30397558e-01  2.67200649e-01 -8.67794827e-02
 -2.82620013e-01  2.59970035e-02  3.16804469e-01  1.65451884e-01
  2.18146369e-02 -2.30881929e-01  1.92381278e-01 -6.77452326e-01
 -9.63377394e-03 -1.32405132e-01  2.01776046e-02 -1.63655847e-01
  1.00532904e-01  2.36603200e-01 -4.29967083e-02  1.26361504e-01
  2.99782723e-01  6.41189665e-02 -4.37519979e-03 -8.05010974e-01
  3.02809536e-01 -1.31441370e-01 -1.64035708e-01  3.24059674e-03
 -1.68707278e-02  1.04233190e-01  9.02741700e-02 -1.81321606e-01
  2.87366152e-01  6.55024946e-02 -3.05841297e-01 -8.20144340e-02
  1.19208753e-01  1.93562552e-01  1.93254039e-01  3.18018675e-01
 -1.01268664e-01  1.02533631e-01  1.82836205e-01  3.30461204e-01
 -1.66144848e-01  3.59906644e-01 -4.86229450e-01  1.12659290e-01
 -7.34654581e-03  6.18582256e-02  1.85259834e-01  2.52120674e-01
  1.60143882e-01  2.51233369e-01  2.00883165e-01  3.63263562e-02
  1.47709817e-01  2.80356668e-02 -8.72792006e-02 -3.15839052e-02
 -1.46343857e-01  1.66449130e-01  1.92138448e-01 -1.60747662e-01
 -1.26630992e-01  3.98302466e-01  1.46538258e-01  3.14414084e-01
 -6.36331663e-02  5.61497271e-01  3.22094560e-01  1.97395995e-01
 -2.40954861e-01 -1.36957154e-01  3.21302935e-02  1.33200482e-01
  1.91333383e-01 -9.54923034e-02  1.66340455e-01 -6.94250688e-02
  4.03823927e-02  8.55846107e-02  1.16322152e-01  4.47089642e-01
 -4.96406555e-02  2.28107367e-02 -1.26617357e-01  2.23948449e-01
  4.87967908e-01  2.16359589e-02  1.09393835e-01 -3.37059833e-02
  3.36937904e-02  4.22086269e-02 -7.31975511e-02  1.20654680e-01
  4.83020321e-02 -1.60968080e-02  1.92991167e-01 -2.96511711e-03
 -2.70339102e-01  3.07991236e-01  3.73833627e-01  1.25889555e-01
  1.63701437e-02  1.33742824e-01 -2.00391963e-01  2.77447015e-01
  2.08297998e-01  1.41303480e-01 -3.55997533e-01  2.99742222e-01
  2.78832257e-01  1.75163373e-02  4.34586406e-02 -1.24845147e-01
 -1.07065845e+00  4.08277996e-02 -1.77626929e-03 -2.08619107e-02
  4.82439324e-02 -3.43199335e-02  7.50993490e-02  1.76988348e-01
 -2.22138688e-01 -5.58481179e-02 -1.53604764e-02  1.08226374e-01
 -3.64812762e-01 -1.71256647e-01  3.14665824e-01  8.67634937e-02
  3.28707308e-01 -2.80029085e-02  1.41122743e-01 -3.71919900e-01
  1.01007327e-01  1.32633597e-01  1.12148844e-01  2.53961653e-01
 -2.48528216e-02 -2.19606742e-01 -3.48577529e-01  2.66023755e-01
  1.85118258e-01 -6.90130144e-02  2.78953165e-01 -7.13630766e-02
 -2.15302303e-01  3.51101100e-01  5.18389009e-02  3.63533683e-02]
[-5.46294928e-01 -6.38633311e-01 -3.06057811e-01 -4.36559200e-01
 -2.32072607e-01 -2.69830376e-01 -6.04454756e-01  3.72219831e-02
 -8.30658600e-02 -7.61937071e-03 -2.33400971e-01  2.51464158e-01
  5.24710566e-02 -6.07559383e-01 -2.80160755e-01 -1.16661370e-01
 -1.44836098e-01 -3.15535426e-01 -3.32049906e-01 -4.97576296e-01
  8.10398906e-02  6.61891177e-02 -4.16337550e-02 -2.01444045e-01
 -2.50030875e-01 -1.17018461e-01  3.32329758e-02 -3.56450617e-01
 -2.02781364e-01  3.26642036e-01 -7.95962736e-02 -1.65027797e-01
 -4.39936787e-01 -4.47255820e-01 -1.12495258e-01 -1.17607921e-01
 -4.81402904e-01 -1.10170163e-01 -1.47884890e-01 -3.91266972e-01
 -7.43053481e-02 -3.42380226e-01 -3.62881273e-01  5.55133745e-02
 -7.22719252e-01 -5.14942288e-01 -4.64595377e-01 -4.28703308e-01
 -3.61933202e-01 -7.85630122e-02 -2.96447873e-01 -3.71030152e-01
 -3.13735157e-01  2.29393505e-03 -9.80975702e-02 -3.50836903e-01
 -6.75291479e-01 -1.14359178e-01 -1.93040445e-01 -4.66156632e-01
 -3.56412411e-01 -3.76857489e-01 -4.27965134e-01 -6.04536474e-01
 -5.67535281e-01 -2.74171382e-01 -3.19851100e-01 -3.60111237e-01
 -1.29548758e-01  2.54444808e-01 -2.03017786e-01 -2.64908671e-01
 -3.46264720e-01 -2.03951210e-01 -2.17755139e-02 -5.52803427e-02
  2.64119267e-01 -2.75320947e-01 -4.13267702e-01  7.72884712e-02
 -5.88951349e-01 -1.43099904e-01 -1.34248272e-01 -1.79996952e-01
 -5.22238791e-01 -1.78820848e-01 -4.25007284e-01 -3.52572501e-01
  4.55041938e-02  1.19923368e-01 -2.52457350e-01 -4.17902261e-01
 -3.17201018e-01 -1.24262907e-01 -5.38243532e-01 -2.23021805e-01
 -2.35232979e-01 -3.22425544e-01  3.33269089e-01 -3.22811306e-01
 -3.32483798e-01  2.40006879e-01 -4.23596770e-01 -3.48737508e-01
 -3.41613948e-01 -5.00805914e-01 -3.00709486e-01 -1.63960710e-01
 -4.98551220e-01 -3.78650814e-01 -3.12690049e-01  4.77660708e-02
 -5.98198950e-01  2.68262476e-01 -6.77949607e-01  1.54663756e-01
  1.18007228e-01 -1.94553137e-01 -8.35096538e-02 -5.60504794e-02
  3.70956510e-02 -4.06822234e-01 -3.24115813e-01 -3.72878820e-01
 -5.26734412e-01 -4.28617924e-01 -4.00589168e-01  1.34333326e-02
 -3.54161412e-01 -1.98531404e-01 -4.05659348e-01 -6.55536890e-01
  2.39740044e-01 -6.08334541e-01  1.38341412e-01 -6.81740701e-01
 -4.33191597e-01 -6.83157146e-01 -3.18816036e-01 -6.16784453e-01
 -5.59573591e-01 -5.14527678e-01 -2.32835546e-01 -3.07126135e-01
 -7.74323046e-01  1.14203407e-03 -3.10140457e-02 -4.91473913e-01
  1.75549641e-01 -4.14256036e-01 -5.07515781e-02 -6.01194561e-01
 -4.09478664e-01 -3.86477739e-01 -4.80177641e-01 -3.37599993e-01
 -1.51606902e-01 -3.08020294e-01 -5.15397608e-01 -3.11073214e-01
 -4.23044235e-01 -9.24908668e-02  1.99054658e-01 -9.93262902e-02
  1.25587508e-01 -1.78696975e-01 -1.24964220e-02 -8.39527965e-01
 -2.56064951e-01 -4.08122718e-01 -3.56893837e-01 -3.98172021e-01
 -5.65085471e-01 -2.92715490e-01 -8.80958736e-02 -6.66624354e-03
 -1.83426172e-01 -4.01806533e-01  3.37116748e-01 -2.92587161e-01
 -2.50934005e-01 -3.96896183e-01 -4.96529400e-01 -2.89555043e-01
 -3.49667743e-02 -6.46575540e-02 -1.02006476e-02 -5.80078661e-01
  6.21735305e-02  6.04837481e-03 -5.41952729e-01 -1.08601339e-01
 -3.65076184e-01 -6.56689629e-02 -4.72634375e-01 -6.46241605e-02
  1.26035944e-01 -4.84890908e-01 -5.22554994e-01 -8.56491830e-03
 -2.55520374e-01 -7.19144344e-01 -4.81168851e-02 -6.65695965e-01
 -2.93098867e-01 -8.30532759e-02  1.53957205e-02 -3.68182719e-01
 -3.41987312e-01 -4.08837199e-01 -3.97065431e-01 -4.92915541e-01
  9.64165032e-02 -6.63361996e-02 -1.21152073e-01 -1.14665637e-02
 -3.67969543e-01 -2.33219415e-01  1.56955682e-02 -6.83954239e-01
  1.03079222e-01 -2.92306066e-01 -5.87685585e-01 -1.92809217e-02
 -4.61571604e-01 -4.27979112e-01 -5.12114048e-01 -3.14908803e-01
 -3.12556297e-01 -1.04679197e-01 -2.09563747e-01 -1.46064460e-01
 -2.00205401e-01 -1.57946438e-01 -4.29943293e-01 -1.86921075e-01
 -3.87163338e-04 -4.82230335e-01 -7.14647889e-01 -4.28955525e-01
 -3.60147029e-01  1.21908560e-01 -8.05159137e-02  2.41925139e-02
  2.40445465e-01 -2.12789088e-01 -1.11011304e-01 -4.88837123e-01
 -3.97683412e-01  8.96335766e-02 -3.89198035e-01 -1.93858445e-01
 -6.99942410e-01  5.46891354e-02 -5.63324615e-02 -1.27607808e-01]
[-7.36435115e-01 -2.08746791e-01 -2.57494658e-01 -3.30175310e-01
 -2.14938313e-01 -2.77799019e-03 -5.37512481e-01  2.69425334e-03
 -1.18495725e-01 -2.85949349e-01 -4.41137671e-01 -4.33234535e-02
  1.84730962e-01 -7.80842677e-02 -3.55704010e-01 -1.90791979e-01
 -1.63983718e-01 -6.43731773e-01 -8.05781305e-01 -2.15576917e-01
  1.08202986e-01  1.33585230e-01 -3.25919837e-01 -3.00331265e-01
 -3.49816591e-01 -7.57495463e-02 -1.12255383e-02 -3.51818293e-01
 -1.92562744e-01 -1.71104804e-01 -5.68903424e-02 -3.14526111e-02
 -4.22788382e-01 -5.41331112e-01  1.31335240e-02 -9.03590471e-02
 -2.81665951e-01 -2.76251584e-01 -7.37714097e-02 -7.05791056e-01
 -1.71745986e-01 -5.61597645e-01 -2.65616864e-01 -5.23695536e-02
 -9.30219248e-04 -3.19753349e-01 -3.49862538e-02 -4.69299436e-01
 -2.78326482e-01 -2.29724795e-01 -3.93417217e-02 -5.89623809e-01
 -2.32026011e-01 -6.41485527e-02 -6.51154995e-01 -4.51671928e-01
 -2.08077505e-01 -3.42515707e-02 -7.37537593e-02 -1.14394866e-01
 -5.80614626e-01 -9.66649771e-01 -2.73976862e-01 -5.43519199e-01
 -2.26516053e-01 -1.43893719e-01 -5.58701694e-01 -1.35112241e-01
  5.67526370e-02 -4.83636297e-02 -2.75368899e-01  4.67532203e-02
  1.79160103e-01 -1.58313572e-01  1.00837462e-01 -8.61749500e-02
 -1.26959756e-01 -2.93931961e-01 -6.37719810e-01  6.81024790e-02
 -4.83682334e-01 -3.08165640e-01  2.65014824e-02 -4.95291054e-01
  3.54586057e-02  3.17528248e-02  1.30669802e-01 -3.89788970e-02
 -9.85602736e-02  3.99527280e-03 -2.23649349e-02 -4.87995893e-01
 -3.63242567e-01  1.39340356e-01 -7.84091949e-01 -3.57297152e-01
 -2.01912194e-01  3.14282142e-02 -8.47869292e-02 -1.23972321e+00
 -3.41114968e-01  1.08054169e-01 -4.85014945e-01 -5.49879432e-01
 -2.14503109e-01 -5.50842136e-02  5.42632863e-03 -2.07120270e-01
 -3.26929271e-01 -1.08700782e-01 -3.88574302e-02  1.81660168e-02
  5.41913733e-02  1.71668723e-01  1.32233202e-01  6.19857050e-02
  1.57614872e-01 -2.37371668e-01 -2.79751360e-01 -3.57154101e-01
 -2.82365400e-02 -5.77096760e-01 -2.10074157e-01 -4.08415347e-01
 -4.36252385e-01  2.69614905e-02 -9.86579508e-02 -1.03670806e-01
 -2.50531882e-01  2.65194830e-02  4.53689396e-02 -1.56782329e-01
 -1.64041817e-01 -6.69437766e-01  1.76956353e-04  7.76658207e-02
 -2.80794293e-01 -6.58747628e-02 -1.67269707e-01 -6.32608771e-01
 -5.13174593e-01 -2.10206091e-01  1.63814519e-02 -2.91442901e-01
 -5.42029254e-02  4.30123359e-02 -6.62243366e-01 -4.30286080e-01
  5.04337132e-01 -7.74324298e-01  7.00253528e-03 -4.59962040e-01
 -6.72541976e-01 -8.43741596e-01 -4.70169693e-01 -5.90413772e-02
 -4.41877753e-01 -9.97831952e-03 -4.09924716e-01 -6.74100041e-01
 -2.99089909e-01 -6.87456846e-01 -6.74226508e-03 -3.97625118e-01
  6.80615008e-02  7.39053190e-02 -3.88092399e-01 -2.91749775e-01
 -2.46778935e-01 -3.12000543e-01  8.35725069e-02 -7.34088659e-01
 -4.73281257e-02 -4.17884067e-02 -2.54077375e-01 -2.21291989e-01
  8.84712562e-02 -4.60707366e-01 -4.13841605e-01 -6.80205047e-01
  8.42194781e-02 -7.13482618e-01 -4.30712372e-01 -2.76268702e-02
 -1.79679140e-01 -7.99509585e-02 -1.34167656e-01 -1.88348949e-01
 -3.12258210e-02 -5.19129276e-01 -4.78959203e-01 -3.23124975e-01
 -6.29978776e-02  1.00263372e-01 -6.02461100e-01 -1.42028853e-01
 -4.44320679e-01 -3.64094615e-01 -4.57932740e-01 -1.68231264e-01
