layers 14
layer 0 Dense
5 128
[-0.04302173 -0.00450423 -0.06929126 -0.00852062 -0.01982113 -0.03314073
 -0.00279226  0.12096007  0.04172301  0.19035384  0.02681175  0.03601423
  0.0924145   0.00182874 -0.03671969 -0.00469664 -0.01161221 -0.00424751
 -0.10858508 -0.01965207  0.00493042 -0.06575194 -0.00217104 -0.01080232
 -0.01483701  0.00206008 -0.00659934 -0.00784681  0.00863599 -0.00189417
  0.02493599 -0.00072037  0.0037748   0.03500773  0.03978815 -0.03992131
  0.09755561 -0.02043968  0.01424954  0.03554537 -0.00281812 -0.00759956
 -0.1047724   0.01127756  0.03827588 -0.0124697  -0.09068444  0.11918317
 -0.07752667  0.01441852  0.00318458 -0.00937992  0.02075704  0.01405659
  0.00840295 -0.01619743  0.02927965  0.07735976  0.00764816 -0.03569711
  0.00981107 -0.15847899  0.05330333  0.00241748  0.03190944  0.04326532
  0.1577292   0.04887076  0.07893734 -0.05494864  0.03727075 -0.05304912
 -0.03157807  0.06063154  0.06007723  0.07390589 -0.00125629  0.01228012
 -0.00967026  0.00189254  0.06662332 -0.04785047  0.02755571  0.00098491
 -0.01939736 -0.00864386 -0.00603444  0.04589711  0.06146048  0.02800006
  0.1603647   0.13328579 -0.03552295 -0.00979097  0.00063747  0.01199016
 -0.01991781 -0.09552094 -0.00111354  0.11534451  0.04194325 -0.02156585
 -0.00851884  0.0053573  -0.07384739 -0.00144005  0.0398486  -0.08319301
  0.07743353 -0.018441   -0.01246299  0.12677413  0.00500352 -0.00219141
  0.00096821 -0.06152259 -0.01424924 -0.10850234  0.00207078 -0.03805817
  0.00192521 -0.0259163  -0.00633975 -0.00686172 -0.00169591  0.02550711
 -0.09592884 -0.02048396]
[ 1.19449772e-01 -5.04187047e-01 -5.05740158e-02  7.93070272e-02
 -5.41993499e-01 -1.42785028e-01 -2.31577978e-02  6.04675151e-02
  6.95460290e-02  7.41699412e-02  5.59117682e-02  1.02150805e-01
  1.24815486e-01 -2.68205511e-03  6.95343614e-02  2.96501443e-02
 -5.13870239e-01  2.78533180e-03 -3.86726297e-02 -3.92143317e-02
  2.30759587e-02  7.63102099e-02 -3.82085562e-01 -1.14625484e-01
 -1.62889466e-01 -1.58385485e-02  9.48789641e-02  2.05938183e-02
  5.32293180e-03  7.54238060e-03  9.05502960e-02 -2.98593775e-03
  5.06855128e-03  7.16942176e-02  1.19477339e-01 -2.27470368e-01
  1.11677513e-01 -7.55331442e-02  6.79254811e-03  7.61158317e-02
  1.97932171e-03 -4.78495349e-04  1.46537572e-01 -8.21925607e-03
  9.51529220e-02  7.46999905e-02 -9.09543633e-02  1.37183815e-01
  3.38122100e-02  4.71455278e-03 -4.88299727e-02 -1.52846267e-02
  7.21428171e-02 -2.99343348e-01  1.41935153e-02 -3.19681287e-01
  8.33621323e-02  9.65304226e-02 -1.61086638e-02 -6.11106157e-01
  9.78727564e-02  1.05233990e-01  7.68235028e-02 -5.77418983e-01
  2.40525901e-02  6.65695444e-02 -9.38759595e-02  7.95136839e-02
 -3.90935957e-01  1.02683008e-02  8.89943466e-02  9.38077122e-02
 -2.68640280e-01  9.58118960e-02  7.59868696e-02  5.08076213e-02
  6.80855010e-03  9.17184949e-02 -3.91429150e-03  3.37226409e-03
  7.23568872e-02 -5.73364317e-01  1.64394513e-01 -1.45776905e-02
 -6.19360246e-03  1.34616882e-01  1.03126019e-01  1.02255568e-01
  1.23722881e-01  1.00451797e-01  1.28811538e-01  1.70730174e-01
  8.34515542e-02 -4.99867797e-01 -1.07077183e-02  1.23592585e-01
 -2.64741909e-02 -3.38559151e-01 -1.21431760e-02  8.02164227e-02
  6.92188740e-02 -5.48014760e-01 -5.44671481e-03  9.39804316e-02
  6.47972897e-02  5.78248128e-03 -3.04126620e-01 -2.37320140e-01
 -3.41806859e-02  2.26041265e-02  5.10290312e-03  1.51893541e-01
  2.75928504e-03  8.39993358e-03  9.63440016e-02  1.15238704e-01
 -2.32507791e-02  1.03521563e-01 -3.02891117e-02 -2.67473221e-01
  7.87299126e-02  3.08566634e-02  7.86093548e-02  1.40600456e-02
 -2.00207997e-02  6.42834529e-02 -1.73135996e-01  6.94325045e-02]
[ 0.16919684  0.18563396 -0.18327434  0.304301   -0.05322073 -0.25103706
  0.47735667 -0.04262951  0.32281005  0.2254003   0.20400336 -0.06294546
  0.124294   -0.37617308 -0.08384038  0.22162564  0.04303592  0.43878955
 -0.17495514  0.42394358  0.4531302   0.19155109  0.1912289   0.23362872
 -0.16486777  0.39081615 -0.01599042  0.16401221 -0.03096635  0.13256991
 -0.00649566  0.40288898 -0.34780037  0.20886277  0.08330693  0.3484566
  0.12690592  0.3663764   0.523757    0.0453181  -0.30978578 -0.30120334
  0.22109796  0.45430928 -0.01138596 -0.03230821  0.17739333  0.14750287
  0.04420428 -0.36370888  0.45239735  0.38173223 -0.012065   -0.15916027
 -0.03290574 -0.20559977  0.1344195   0.05410363  0.4598644   0.12666725
  0.00494094  0.15196098  0.00576378  0.00688542  0.45108417 -0.01813779
  0.26366252 -0.01419225  0.10843167  0.44194126  0.09114303  0.185403
  0.38056907 -0.05603192  0.18545848  0.08881299 -0.29995942  0.06046383
 -0.3342513   0.41222626  0.01854659  0.01351954  0.17611209  0.40128055
  0.49688977  0.29334897  0.04388778  0.45417735  0.13786702  0.01362029
  0.18245405  0.15545854  0.03198918 -0.11609946 -0.29845417  0.12718791
  0.2874465   0.12631804 -0.37278295  0.12523907  0.02613618 -0.08220518
  0.38611582 -0.01484121 -0.00621345 -0.31081226 -0.0155474   0.20780663
  0.3858382   0.34232417  0.4564009   0.0496333   0.38147643  0.47136128
  0.01337586  0.4173587   0.42702785  0.19049487  0.41275942 -0.16445956
  0.49480188  0.09973899  0.07190946  0.44156638  0.26586646  0.35961184
  0.15764178  0.04527267]
[ 1.61727313e-02  1.40596349e-02  1.06464699e-02 -4.76122350e-02
  1.23824868e-02  1.46938786e-02 -1.05438856e-02  1.12460917e-02
 -5.32410182e-02  8.35811123e-02 -3.69746089e-02 -2.43393220e-02
  5.03313355e-02  3.35089536e-03 -4.20219302e-02  3.83540918e-03
 -3.99745964e-02  3.46972723e-03 -9.19989794e-02 -5.89240808e-04
  8.66641942e-03 -6.28120825e-02  1.84511151e-02  1.25364512e-02
  3.21733244e-02  6.19794661e-03  1.34321842e-02 -2.52695400e-02
 -1.42171588e-02 -1.63091086e-02  1.27654178e-02 -1.07889166e-02
 -1.09604589e-05 -5.26302755e-02 -2.73358542e-04  1.31873842e-02
  2.74979156e-02  1.94595437e-02 -1.34692562e-03 -1.49361137e-02
  1.77194532e-02 -3.35366931e-03 -1.10349096e-01  7.46098394e-03
  1.30228819e-02 -2.39892062e-02 -1.60252638e-02  3.23144123e-02
  5.22412499e-03  5.83956763e-03  2.10734690e-03  1.36684617e-02
  1.80125851e-02 -1.44689698e-02 -2.40413267e-02  1.01223318e-02
 -2.63234843e-02  9.16478317e-03 -1.44212022e-02  2.56495154e-03
  1.89632010e-02  1.36146666e-02 -1.23664765e-02 -3.73679698e-02
  3.50754452e-03 -3.86505648e-02 -6.15183190e-02 -1.25569003e-02
 -4.60892916e-02  4.12227325e-02 -1.46729220e-02 -4.14994135e-02
  2.98335939e-03 -3.38035524e-02 -1.07192127e-02 -5.03053702e-02
 -2.00688047e-03  1.19691826e-02  1.16248091e-03 -4.05965885e-03
 -1.27772419e-02  2.24103350e-02 -7.71701522e-03  6.59184414e-04
 -3.20031866e-02  3.57667357e-02  2.42505912e-02 -2.66155656e-02
  3.68123427e-02 -6.19783159e-03 -1.11887977e-01  8.90168697e-02
  1.22108748e-02 -3.83991078e-02 -3.33099789e-03 -8.06155521e-03
 -3.40212397e-02 -3.24035846e-02 -1.29287515e-03  8.10960308e-03
  1.77366380e-02 -3.08834817e-02 -1.23241479e-02  2.89197545e-02
 -4.70478535e-02 -9.29210073e-05 -7.68152252e-02 -7.58836232e-03
  5.82292676e-02 -3.76290679e-02 -1.72786992e-02 -6.23086616e-02
  2.05464568e-03  2.83261761e-03  1.85669307e-02 -2.09277924e-02
 -1.95950503e-03 -9.40391514e-03  5.68511151e-03  5.68658579e-03
 -1.24320369e-02  1.73520204e-02 -2.35897824e-02 -5.73355705e-03
  8.79816804e-03 -4.13512858e-03  1.39966048e-02  2.84037683e-02]
[ 5.95688857e-02  2.25857496e-02 -1.95853487e-01 -5.71669452e-02
 -4.39426228e-02 -5.45900539e-02 -1.57493576e-02  3.30690853e-02
  3.82161662e-02  9.78702866e-03  4.98497784e-02  3.47550325e-02
  8.05214942e-02 -1.64756458e-03  8.13696161e-03 -1.15496023e-02
 -5.97401373e-02 -2.54189828e-03 -1.77520245e-01 -2.03647539e-02
  6.73173601e-03  9.00079608e-02  8.03946853e-02 -3.36381756e-02
 -1.55835122e-01 -3.04272883e-02  4.29646373e-02 -2.14213151e-02
 -3.19928154e-02  5.93854813e-03  1.72347315e-02  6.73394278e-03
 -9.37701669e-03  6.04970455e-02  7.67078921e-02 -1.33829743e-01
  3.57512124e-02 -5.18003814e-02  4.68875356e-02  2.69827936e-02
 -1.54046854e-02 -2.80215289e-04  1.28652304e-01 -2.21199300e-02
  4.71101888e-02  3.41556594e-02 -2.75502175e-01  9.45577398e-02
  3.78109924e-02 -1.39990468e-02  3.27750668e-03 -1.76450325e-04
  4.83469628e-02  2.38209572e-02 -2.68661696e-02 -5.01801707e-02
  8.64205137e-02  3.93557027e-02  1.67097989e-02 -9.47475731e-02
  7.98001047e-03  1.05133533e-01  1.51382834e-02 -1.18424613e-02
 -7.37276580e-03  2.71376651e-02  5.07039241e-02  2.75223535e-02
  1.01674810e-01 -1.61446691e-01  3.98973301e-02  7.96302259e-02
 -5.14894072e-03  4.47759368e-02  3.87206115e-02  1.92745328e-02
  7.82275014e-03  2.79398747e-02  5.43682091e-03 -4.94761625e-03
  8.26839805e-02 -2.80516408e-02  1.49274021e-01  7.30622560e-03
  1.38487130e-01 -5.20272739e-02  5.66421263e-02 -1.31195739e-01
  2.26575509e-02  3.34285982e-02  1.04366444e-01  5.75097874e-02
  5.19261509e-02 -5.80169261e-02  6.28922950e-04  6.68861493e-02
 -6.88960031e-02 -2.32269913e-01 -2.16573756e-03 -1.60077363e-02
  4.16440852e-02 -8.12440179e-03 -2.22264417e-02  1.70817822e-02
 -3.47431958e-01 -1.56185720e-02  7.29763508e-02 -2.32760519e-01
  5.44722751e-02  1.18051574e-01 -1.70496460e-02  1.05310284e-01
  7.01779174e-03  1.63537916e-03  6.33035377e-02 -3.81485745e-02
 -2.02365965e-02 -2.18876116e-02  1.25896577e-02 -1.01978883e-01
 -5.28916456e-02 -8.13815370e-03  4.39952016e-02  1.07006577e-03
 -3.29848342e-02 -5.20030111e-02 -1.91898778e-01  5.67451678e-02]
[-0.16841018 -0.02938764 -0.11164685  0.01567416 -0.41960347 -0.24564642
  0.48398975 -0.12560278 -0.16971867 -0.15354766  0.1434579  -0.07259466
  0.03649436 -0.5009433  -0.1274817   0.07347657 -0.10226364  0.5130235
 -0.1799063   0.4149613   0.48435006 -0.21187277  0.16546077  0.18883336
 -0.18842705  0.45833674 -0.03165254  0.04647867 -0.12482219  0.06339717
 -0.04741006  0.46981654 -0.46129224  0.14953247 -0.01813203 -0.00139727
 -0.04442866  0.26584452  0.34898555  0.07804136 -0.42109424 -0.40736097
 -0.16762166  0.4563673  -0.03139466 -0.05525805  0.02309775 -0.2166122
 -0.09892087 -0.49617705  0.48238173  0.4329703  -0.02911414 -0.16671747
 -0.13552791 -0.21102673  0.14500123 -0.02554044  0.48103395 -0.21201554
  0.02036268 -0.21654463 -0.01946636 -0.2572254   0.46587506 -0.07159581
 -0.1539136  -0.03183027  0.02366767  0.05367316  0.07515086 -0.03856131
  0.23234639 -0.0617424   0.14480072 -0.2447261  -0.39733517  0.01113291
 -0.44160852  0.47991228 -0.06830762 -0.24851866 -0.1334663   0.48761863
  0.0908157  -0.03338246 -0.00350306  0.2831107   0.03646085  0.01127893
 -0.15001394 -0.26013502  0.02906731 -0.20749068 -0.39813128  0.09826784
  0.20616096 -0.00530184 -0.51205945  0.05198868 -0.01418142 -0.25043592
  0.43770322 -0.07040755  0.00637185 -0.41090593 -0.20640671  0.15785255
 -0.08461004 -0.18570964  0.5124749  -0.19604105  0.4509331   0.3862842
  0.05169186 -0.08782485  0.46858484 -0.22167324  0.4585432  -0.20336889
  0.21977459 -0.05389122  0.05006056  0.4068939   0.26803532 -0.11669986
  0.12655684 -0.03502411]
layer 1 Activation
relu
layer 2 Dropout
layer 3 Dense
128 256
[-3.57118947e-03 -4.76189069e-02 -2.99572144e-02  6.56636059e-02
 -4.08566557e-02  5.02936579e-02 -1.82212777e-02  6.11262359e-02
 -6.04731999e-02  8.23893696e-02 -1.14820428e-01  1.44412545e-02
  3.68252322e-02  7.69466534e-02  1.22680277e-01  2.13402566e-02
 -7.84038007e-03  2.22790688e-01  1.19100939e-02  6.23550043e-02
 -3.12354211e-02 -1.16688013e-01  1.36757670e-02 -1.23448372e-01
  4.11669314e-02  4.88707386e-02 -8.17399174e-02 -1.97310615e-02
 -1.01839818e-01 -5.31521477e-02  1.42921417e-04  3.95596139e-02
  7.98794255e-02 -1.41418055e-01 -8.01507235e-02  1.29457250e-01
  7.84083605e-02  1.86438411e-02 -6.92288950e-02  4.87483144e-02
  1.16410799e-01  2.55262032e-02  6.42913356e-02 -8.60200822e-02
  2.08986308e-02 -4.13467549e-02  1.15281865e-01 -6.05824254e-02
  4.07001898e-02 -2.94385981e-02  3.51934098e-02 -9.78234806e-04
  2.90147346e-02  7.62188211e-02  1.35000184e-01 -9.69976708e-02
 -9.89395976e-02  2.07113757e-04 -1.60971116e-02 -3.35073546e-02
 -1.03696078e-01  5.49542531e-02  5.81317730e-02  1.75305456e-01
  8.40971246e-02  7.55769983e-02  3.64737213e-02  1.09777734e-01
  4.91271690e-02 -5.27449418e-03  1.69818714e-01  1.04329191e-01
 -8.64270553e-02  6.62093908e-02 -6.10678941e-02 -9.97227430e-02
  7.44430572e-02 -2.11163107e-02  2.14998171e-01  7.10109770e-02
  2.77073290e-02  2.88259909e-02  1.98125258e-01 -1.22487448e-01
  9.64408834e-03  3.55395116e-02  5.28091826e-02 -4.03873809e-02
 -1.00370549e-01 -7.08693685e-03  2.43949056e-01 -1.33520454e-01
  5.50656132e-02  7.63229234e-03  2.37840519e-04 -1.83298141e-01
  9.28234160e-02  6.87037334e-02  5.54572046e-02  9.03469920e-02
  8.41342434e-02 -1.19508140e-01 -1.78416688e-02 -4.23504338e-02
  1.21480070e-01 -1.32053494e-01 -1.10303357e-01  7.60487746e-03
 -3.91964167e-02 -6.75687790e-02  5.62189287e-03  7.71087185e-02
 -2.42749937e-02 -6.04685745e-04 -3.36127914e-02  7.67589081e-03
 -1.25162909e-02  1.34817392e-01  3.91268916e-02 -1.97903961e-02
  7.12255016e-02  1.24157732e-02 -7.52328634e-02 -1.08113252e-01
  1.87680777e-02 -2.08659291e-01  8.66153017e-02  3.05949207e-02
 -5.24492934e-02 -1.10576563e-01  1.04803517e-02 -1.04287766e-01
 -9.47635695e-02 -6.71728030e-02 -6.49921894e-02 -9.01553333e-02
 -3.67770791e-02 -4.42422330e-02 -7.59794414e-02 -2.17266381e-02
  5.74707128e-02 -6.10883348e-03 -1.29513845e-01  9.09693316e-02
 -7.81818479e-02 -6.45114155e-03 -9.30302888e-02 -3.75378765e-02
  8.05667117e-02  8.43447521e-02  2.50536241e-02  1.43542811e-01
 -3.41317862e-01 -6.43577129e-02  8.85045007e-02 -2.45491900e-02
 -1.00194618e-01  1.20892217e-02 -1.40993565e-01  1.01358756e-01
 -1.58253424e-02 -1.95742279e-01 -4.13232036e-02 -1.32352069e-01
 -8.08479916e-03 -1.26338080e-01  1.20190635e-01 -8.54451135e-02
 -1.18247442e-01 -6.71617687e-02 -7.45919421e-02 -4.66570780e-02
  5.44399917e-02  4.26183939e-02  6.39777556e-02  5.33423247e-03
 -8.36700052e-02  1.56280071e-01  1.01231061e-01 -1.23017974e-01
 -1.10802483e-02 -1.27756130e-02 -1.37720138e-01 -9.68162790e-02
 -1.23666413e-02  6.96857646e-02  8.36045817e-02  7.49310525e-03
  9.50852185e-02 -2.03034952e-01 -8.31324458e-02  1.19428985e-01
 -8.82512555e-02 -1.52394585e-02  5.94064742e-02 -4.79537547e-02
 -2.17911098e-02 -4.14592773e-02  4.89199460e-02  5.69569618e-02
 -1.50127947e-01 -7.91133121e-02  1.28317073e-01  5.94747178e-02
 -1.12586290e-01 -2.82939933e-02  1.23765916e-01  6.11897856e-02
  1.19727468e-02 -3.34392674e-03 -1.74121693e-01 -4.38813604e-02
 -1.82702228e-01 -1.50754616e-01  2.48763785e-02 -6.41444921e-02
  4.41373736e-02 -1.44902781e-01 -5.28807156e-02  2.36960035e-02
 -1.93752602e-01 -3.46135311e-02  1.82624925e-02  1.51757207e-02
 -7.42711276e-02  5.87503016e-02  3.86730098e-04 -2.87726689e-02
 -6.14752769e-02  1.73450485e-02  7.68329799e-02  9.34493542e-02
 -1.37998387e-01  1.27604008e-01  1.43724144e-01  4.32544993e-03
 -5.77969886e-02 -2.99876910e-02 -3.48621607e-02  2.60615814e-03
 -4.04261388e-02  1.11934468e-01 -8.01119804e-02 -1.13651445e-02
  3.12596746e-02  1.66068673e-01  6.60135150e-02 -5.15081221e-03
  2.13002563e-02 -8.63317698e-02  4.56133969e-02 -2.94615119e-03
 -1.12417862e-01  2.05784105e-03 -8.36585611e-02 -8.57435688e-02]
[-0.07353722 -0.05826182 -0.3983243   0.01887282 -0.23477155 -0.22904328
 -0.01556263 -0.35069472 -0.17001471 -0.29685262 -0.03425232 -0.1451502
 -0.09687526 -0.30438787 -0.3507797   0.11924709 -0.0085565   0.05825257
 -0.07124991 -0.17628673 -0.09850428 -0.37881687 -0.44277215 -0.11649357
 -0.3121535  -0.6327532  -0.33937964 -0.24904902 -0.13440832 -0.09044976
 -0.08146061 -0.01946487 -0.05013295 -0.0135356  -0.01179464 -0.07942778
 -0.10140409 -0.26407406 -0.28883362 -0.24385227 -0.28984776 -0.30981296
 -0.06353988 -0.16353804 -0.24705026 -0.3871145  -0.3150012  -0.17949298
 -0.19787481 -0.13825125 -0.23825982 -0.12991898 -0.16271268 -0.57013136
 -0.13336672 -0.09215058 -0.14797789 -0.20600636 -0.20469433 -0.12488978
 -0.19243248  0.05914039 -0.13775936 -0.2689318   0.0424532  -0.25428054
 -0.28107786 -0.13448882 -0.23386204 -0.12804212 -0.00842132 -0.28094172
 -0.092757   -0.10067827 -0.39428997 -0.13705909 -0.32779926 -0.25825384
  0.0883299  -0.06361952  0.09303941 -0.40491772 -0.2160301  -0.2001576
 -0.0936989  -0.27604017 -0.23232758 -0.00962885  0.01240548 -0.03758304
 -0.08633782 -0.11971284 -0.27762896 -0.20798837 -0.1336081  -0.3006212
 -0.4001568  -0.351603   -0.03378241 -0.49355155 -0.13720718 -0.00856528
 -0.24559736 -0.1404385  -0.11938986 -0.28191572 -0.40637508 -0.21761243
 -0.05523266 -0.03436216 -0.4591518  -0.17801705 -0.19487998 -0.05989626
 -0.21581204 -0.23891534 -0.09430261 -0.05151265 -0.1722139   0.01807013
 -0.17878062 -0.13928446 -0.15525015 -0.10579919 -0.09158406  0.11782087
 -0.19996648 -0.1176989  -0.1547569  -0.36727244 -0.26510206 -0.15679531
 -0.01972367 -0.05034421 -0.3755225  -0.31122082 -0.32017276  0.0284754
 -0.42486906  0.10595177 -0.25296864 -0.25936043 -0.11901707 -0.13293613
 -0.5109548  -0.04847246  0.01613704 -0.26388815 -0.05680886 -0.3914147
 -0.21343887 -0.28813213 -0.03226405 -0.16403115 -0.03328904 -0.29708904
 -0.38472658 -0.1580397  -0.3243591  -0.32762915 -0.16468729  0.03296006
 -0.21868286 -0.1507877  -0.11499684 -0.26538607 -0.10692453 -0.10689525
 -0.11145875 -0.16318725 -0.14407454  0.01393771 -0.10304493 -0.32111016
 -0.26045644 -0.23620695 -0.27350637  0.19340758 -0.22948012 -0.24404722
 -0.03606509 -0.32493663 -0.15220478 -0.20137993 -0.3379743  -0.01054485
 -0.20633176 -0.31601092 -0.7695347  -0.02175    -0.10235869  0.02250374
  0.1235519  -0.29918113 -0.21058106 -0.19336545  0.1345633  -0.17211346
 -0.12795     0.10650783 -0.00257717  0.08023946 -0.16196086 -0.10901696
 -0.02487477 -0.0604285  -0.09991518 -0.4638798  -0.08839415 -0.3084881
 -0.04938346 -0.20684224 -0.5594556  -0.1242968   0.01520741  0.08631782
 -0.15282193 -0.0365724  -0.05582518 -0.23764369 -0.42647356  0.05336323
 -0.16343947 -0.17068316 -0.01522954 -0.20483148 -0.18934496 -0.16644093
 -0.24828541 -0.17165937  0.03195479 -0.2459415  -0.34946895  0.04864271
 -0.17167552 -0.12375787  0.0311774   0.01392401 -0.15357924  0.08953848
 -0.00226834 -0.04086342  0.05448652 -0.06641988 -0.2016943  -0.27761027
 -0.26980653 -0.03856729 -0.344033   -0.09994233 -0.16525394 -0.18645051
 -0.10708711 -0.08169539 -0.11102593 -0.1056106 ]
[ 2.65864003e-02 -1.78586900e-01  8.04182328e-03 -2.61422575e-01
 -1.88287850e-02 -8.78291428e-02 -1.27688209e-02  1.23018883e-01
 -6.10941760e-02 -4.18179519e-02 -1.89556703e-01  2.88305040e-02
 -5.18980622e-01 -4.01756400e-03 -1.70412466e-01 -3.15079279e-02
 -3.00044179e-01  4.79510576e-02 -1.35322601e-01 -1.06369242e-01
 -5.32509498e-02 -8.97553489e-02 -9.50820837e-03 -2.81734876e-02
  2.79849879e-02 -5.18509671e-02 -5.62103987e-02  6.18057176e-02
 -3.26654240e-02  1.07651884e-02 -1.55632734e-01 -1.21305101e-01
 -2.01521963e-02 -3.91852893e-02 -1.99836224e-01 -7.95089304e-02
 -3.74875069e-01  7.32540861e-02 -4.25420739e-02 -2.59756297e-01
 -7.21833408e-02  1.69779658e-02 -1.51120394e-01 -1.48092777e-01
 -4.38346148e-01 -6.52456209e-02 -9.25369840e-03 -3.66792232e-02
 -1.51698932e-01 -1.82384238e-01 -3.35666686e-01 -3.50826949e-01
  1.32138031e-02 -5.64429089e-02 -9.11600813e-02 -3.67976457e-01
 -6.45677745e-02  4.56601158e-02 -3.72950137e-01 -2.15308100e-01
 -6.22246563e-02  8.67807418e-02 -7.12621883e-02  9.89801511e-02
 -2.09531505e-02  3.64865214e-02 -9.48819611e-03 -4.84294534e-01
 -2.32827887e-01 -3.45992029e-01 -1.02339825e-02 -1.79102868e-02
 -3.66242826e-01 -1.94677532e-01 -1.69390664e-02 -3.93850148e-01
  2.69872490e-02  3.10344081e-02  2.38089524e-02 -3.10212038e-02
 -1.37981800e-02 -7.14540901e-03 -2.31564716e-01 -5.12703881e-02
 -2.53772140e-02 -1.83937028e-01  4.58764620e-02 -7.18875453e-02
 -4.43788141e-01 -3.54040086e-01  1.45670563e-01  1.95631497e-02
 -3.95761937e-01 -5.29768407e-01  2.23286767e-02  7.16634700e-03
 -3.05799507e-02 -5.52281663e-02  1.22877285e-02  3.66741605e-03
  5.15435115e-02 -3.14775333e-02  5.90704419e-02 -1.49560645e-01
 -6.22865297e-02  5.09460755e-02 -2.58680195e-01 -6.19595610e-02
 -8.52303728e-02  1.17030106e-02 -1.19635493e-01 -4.30324264e-02
 -3.04624617e-01 -9.03974324e-02 -2.02088282e-01 -8.36837068e-02
 -1.66878123e-02  1.66211855e-02 -4.13481802e-01 -1.54456958e-01
  3.10844071e-02  4.03365213e-03  5.65101672e-03  5.27648404e-02
 -2.81595439e-02  3.84513289e-02 -3.77998382e-01 -1.84902063e-04
 -1.69611305e-01 -9.16436836e-02  4.31167707e-02  7.87249804e-02
 -5.09565957e-02 -8.35927501e-02 -6.25469983e-02  5.08899353e-02
 -2.64111966e-01  2.64288224e-02 -8.34141374e-02 -2.49673143e-01
 -6.40678778e-02 -1.38249755e-01  9.95858479e-03 -2.34733745e-01
  9.80455503e-02 -9.85320844e-03 -2.05501050e-01 -6.79790378e-01
 -7.64279142e-02 -1.23378277e-01 -8.12366083e-02 -5.43102175e-02
  1.10795628e-02 -3.28175187e-01 -4.14818197e-01 -5.12199216e-02
 -9.31670237e-03 -3.52504589e-02  1.99617464e-02 -4.52173978e-01
 -7.72660598e-02  7.31132701e-02  1.28721505e-01 -4.09454852e-02
 -3.51263165e-01  5.43175414e-02 -2.23676965e-01 -3.18727493e-02
 -2.39261955e-01 -4.58022542e-02 -2.95697078e-02 -4.73786682e-01
 -2.07524747e-02  7.34250918e-02  7.85173476e-03  3.29417586e-02
 -6.71290457e-02  3.89231816e-02 -1.04360245e-01 -1.34516105e-01
 -4.95091528e-02 -3.83822881e-02 -2.36712456e-01 -6.40544817e-02
  5.56266634e-03  7.60762766e-02 -1.80272803e-01  1.27872955e-02
  3.04292385e-02  3.55433975e-03  1.28400680e-02 -2.49274313e-01
 -2.35184327e-01 -4.90059346e-01 -4.23613220e-01  3.32886376e-03
 -2.30519027e-01 -1.40844285e-01  2.23220955e-03 -2.54161023e-02
 -1.11099184e-01 -3.54093790e-01  4.93008131e-03 -2.13529080e-01
 -4.24270285e-03 -1.02865830e-01 -5.64807713e-01  1.25417963e-01
  6.02870323e-02 -2.14487404e-01  1.03774462e-02  1.41428448e-02
 -1.03959320e-02 -2.07348913e-02  4.25531007e-02 -2.35371247e-01
 -3.69019985e-01  1.02300756e-02 -1.52220473e-01 -1.59100845e-01
  2.50116102e-02 -1.05775073e-01 -3.00417364e-01  1.93846636e-02
 -2.63112895e-02  5.03620021e-02 -8.19807872e-02 -8.49016830e-02
 -1.28393993e-02 -2.24420637e-01 -1.50591165e-01  1.54318940e-02
  2.66072247e-02 -5.46841621e-02 -3.71798016e-02  1.08063497e-01
 -5.51578887e-02 -7.43269473e-02 -6.44586235e-02 -2.30064429e-02
 -1.38278827e-01 -7.12628067e-02  2.88433935e-02 -8.04048628e-02
  2.45381612e-02 -3.03457469e-01 -6.61567748e-02 -5.42736575e-02
 -3.40449005e-01 -2.31164053e-01 -5.47368526e-01 -3.92648518e-01
  8.85049179e-02 -2.35743627e-01 -4.79961708e-02 -4.13403809e-02]
[-8.80405530e-02 -1.72492459e-01 -1.01404697e-01  4.97029759e-02
  6.54249489e-02  9.24236402e-02 -1.07320368e-01  5.31305820e-02
  9.70370397e-02  7.24559873e-02 -2.56308496e-01 -2.20365375e-01
  6.35576546e-02  6.43969774e-02 -1.89303175e-01  1.15635581e-01
 -4.39316034e-02 -9.89872683e-03  2.47215517e-02  2.37293504e-02
  7.89137334e-02 -9.91347805e-03  8.90423544e-03  1.28945634e-01
 -2.05224678e-01 -2.58524448e-01 -2.82245725e-01 -6.95907772e-02
 -3.64919342e-02 -8.17478895e-02  7.08075389e-02 -4.81569320e-02
 -5.93743213e-02 -2.08743010e-02  3.61551568e-02 -1.99071504e-02
  1.39077961e-01  9.00704563e-02  4.95521389e-02  1.03537403e-01
  7.34731704e-02 -4.60170843e-02  1.15481675e-01  6.20587729e-02
  1.34723894e-02  3.13005899e-03  5.81130236e-02  9.11642984e-02
 -8.09163507e-03  4.03087325e-02  8.93116742e-02 -1.47804646e-02
  4.07901214e-04  5.19363098e-02 -8.95474479e-02  1.84934470e-03
  1.66099221e-02  1.22201420e-01 -6.14464171e-02  1.91197991e-01
  8.40847641e-02  1.10197313e-01 -1.03937380e-01  1.17347561e-01
  4.53784838e-02  6.81742802e-02  7.64016062e-02 -2.97024976e-02
  4.22243476e-02  1.57101363e-01 -2.71880776e-01  2.85764337e-02
  3.85901816e-02 -2.23891269e-02 -6.54828027e-02  4.80566099e-02
 -7.28839785e-02  8.80121216e-02  6.01100847e-02 -3.85570824e-01
  5.46481907e-02  3.76980342e-02 -1.28264287e-02  4.40564752e-02
 -2.64210254e-02  1.55038938e-01 -5.84811978e-02 -4.23168503e-02
 -6.52247518e-02  1.23382263e-01 -2.05291919e-02 -2.27762945e-02
  1.38217106e-01  6.44542128e-02 -5.04196435e-02 -2.77773231e-01
 -1.07191257e-01  7.88488016e-02  3.48455347e-02  1.43326163e-01
  3.13559957e-02 -3.29134375e-01 -4.18801382e-02 -5.66782132e-02
 -2.10928619e-02 -1.98720366e-01 -1.06668174e-02  2.23610625e-02
  6.15012250e-04 -1.12677030e-02 -1.98049229e-02 -1.60891686e-05
 -8.33236203e-02  5.95716089e-02  3.31260785e-02 -3.35356221e-02
 -1.14661247e-01 -3.53511907e-02  1.06671164e-02 -3.32420804e-02
  4.31396067e-02  1.35960523e-02 -1.37915770e-02  6.22167140e-02
  7.70096406e-02 -1.66992962e-01 -1.14913862e-02  2.89855599e-01
  8.57183784e-02  1.21767431e-01 -1.47560418e-01  6.42388174e-03
  8.02892670e-02  5.49346060e-02  3.52143385e-02  9.01743844e-02
 -1.05672225e-01 -1.81357414e-02 -1.22173550e-02  1.06826806e-02
  1.30015090e-01  6.84881806e-02  3.61361094e-02  2.19551548e-01
  7.46337473e-02 -1.07041420e-02 -7.47844726e-02 -3.90364751e-02
  4.38171290e-02 -6.92431554e-02 -4.12466861e-02 -8.50681141e-02
 -2.39809647e-01 -2.24720426e-02  5.00521772e-02 -1.64856955e-01
  3.37691903e-02  8.47880263e-03  1.20158888e-01  5.97484000e-02
 -4.88111190e-02  1.30389452e-01 -1.09573163e-01  1.11392345e-02
 -6.11607917e-02  7.75481239e-02 -1.15870692e-01  2.61882618e-02
 -2.50401124e-02 -3.26787233e-02 -7.24842846e-02  6.88023791e-02
  1.69539154e-01  2.79734675e-02  1.84778586e-01  9.97195318e-02
 -3.06774750e-02  8.20073038e-02 -8.03137794e-02  3.69466320e-02
 -2.43821330e-02  6.08118773e-02  1.18539505e-01 -5.61084365e-03
  2.02969126e-02 -4.55681756e-02  9.07851979e-02  5.36464249e-05
 -1.33246943e-01 -4.06179987e-02 -1.51601389e-01  2.46682707e-02
  2.60144826e-02 -9.11956504e-02 -1.62993968e-02  1.12594485e-01
  8.15933794e-02  7.16156587e-02  6.95333406e-02  6.51374981e-02
 -1.78776577e-01 -2.74029691e-02 -1.04327224e-01  3.86626422e-02
 -8.91263876e-03  4.35452349e-02 -1.07176088e-01  1.17417119e-01
  4.61116135e-02  3.31119709e-02 -1.51031703e-01  2.32226968e-01
 -1.40060127e-01 -1.10743307e-01 -1.69223443e-01  1.26367331e-01
  1.19493783e-01 -3.03028356e-02  1.55853564e-02 -1.11145563e-01
 -4.20715846e-02  9.41283181e-02 -3.05474047e-02 -6.94061965e-02
  3.94332260e-02 -8.55835900e-03  8.70679170e-02 -3.62734981e-02
  6.92145154e-03  9.92769971e-02  3.30806673e-02 -1.51187271e-01
  4.83901985e-02 -1.24298960e-01 -1.28121376e-01  1.23868480e-01
 -6.22533262e-02 -2.43839025e-01 -1.54805809e-01 -2.97495723e-02
  2.90276874e-02  2.80646831e-02 -9.28980112e-02  3.85503769e-02
 -6.89783916e-02 -1.63463764e-02  2.20707014e-01 -2.51550496e-01
  1.09956563e-01 -1.10552199e-01  5.44856563e-02  1.30861625e-02
 -5.61721288e-02 -5.38846552e-02 -1.85500562e-01 -1.16614312e-01]
[-0.26594234 -0.20910658 -0.87653995 -0.13486896 -0.2803802  -0.5007931
 -0.13632257 -0.7521352  -0.32102773 -0.38960886 -0.08594285 -0.33260086
 -0.33144778 -0.30970034 -0.19271295  0.1014042  -0.32091796 -0.0966837
 -0.09739202 -0.34792027 -0.2501018  -0.6020989  -0.34140107 -0.20421404
 -0.8631499  -0.74097556 -0.5087595  -0.37920034 -0.16590165 -0.365636
 -0.07541904 -0.02680011 -0.11513923 -0.17116408 -0.19714868 -0.07129159
 -0.31058705 -0.34119225 -0.22741632 -0.15106185 -0.18397129 -0.66976166
 -0.24091974 -0.23339862 -0.2935812  -0.32994112 -0.49633628 -0.20825008
 -0.24391517 -0.15444669 -0.3473443  -0.3287081  -0.14254476 -0.498231
 -0.21127655 -0.09930182  0.07369826 -0.3482664  -0.07013464 -0.4044435
 -0.5484856  -0.15179496 -0.302021   -0.35010633  0.04922596 -0.3316286
 -0.32460016 -0.12796074 -0.28826916 -0.28517133 -0.04749868 -0.43462548
 -0.41658744 -0.026072   -0.62956434 -0.3233793  -0.3002061  -0.2949547
 -0.04941683 -0.11411111  0.03254274 -0.36907753 -0.27131242 -0.14971675
 -0.3220566  -0.23068789 -0.2273231  -0.19969086 -0.13715293 -0.11539528
 -0.24970612 -0.09775909 -0.2784107  -0.20597386 -0.18623422 -0.7618662
 -0.8119534  -0.5233262  -0.30826676 -0.6623542  -0.24116747 -0.04440509
 -0.46319345 -0.3026374  -0.17927285 -0.6995477  -0.56758064 -0.2477109
 -0.31819862  0.03309523 -0.5996382  -0.33297566 -0.38092536 -0.07166097
 -0.24441944 -0.28476104 -0.17333356 -0.03827327 -0.28805268 -0.15122348
 -0.10684304 -0.348393   -0.29466704 -0.18030275 -0.3220677   0.03144779
 -0.37110376 -0.46738902 -0.30535963 -0.70297617 -0.4391374  -0.14272928
 -0.03502294  0.01627331 -0.5867721  -0.3431167  -0.23298095 -0.06501921
 -0.4715838  -0.02433793 -0.52415913 -0.23183098 -0.30154902 -0.33640048
 -0.36554065 -0.01457751 -0.32657608 -0.3007195  -0.12426688 -0.7359817
 -0.32231027 -0.21253724 -0.08379984 -0.24601603 -0.21848115 -0.62715995
 -0.88075453 -0.267656   -0.15149312 -0.31247658 -0.3050855   0.00366314
 -0.6841363  -0.25155136 -0.183759   -0.33213848 -0.14466801 -0.2557995
 -0.37550655 -0.06060162 -0.36190712 -0.03580632 -0.30954528 -0.25698578
 -0.6054148  -0.32334438 -0.6368877   0.09798179 -0.29276434 -0.0357462
  0.0176968  -0.27769753 -0.401662   -0.3404503  -0.45631504 -0.0939218
 -0.29519314 -0.43763885 -0.68130994 -0.06196895 -0.30444595 -0.00900644
 -0.05562398 -0.2635142  -0.34844777 -0.39543146 -0.05947432 -0.35994768
 -0.25331873  0.11034346 -0.06781324 -0.01741483 -0.16766804 -0.3295291
 -0.12714723 -0.18958823 -0.15887289 -0.5112909  -0.43385693 -0.11430235
  0.01168398 -0.17359832 -0.7424767  -0.21291664 -0.09840504  0.02755452
 -0.20759618 -0.03282503 -0.07688335 -0.15368275 -0.2584602  -0.1653953
 -0.14053151 -0.47843528 -0.20528637 -0.50496936 -0.30968598 -0.2491848
 -0.42578733 -0.3214904  -0.29751655 -0.4171037  -0.4349929  -0.09437495
 -0.43118107 -0.06512956 -0.19764997 -0.13003196 -0.37297592  0.04531246
 -0.035787   -0.13249737  0.00553395 -0.11195242 -0.322667   -0.24664038
 -0.6113765  -0.04943056 -0.21918344 -0.33931434 -0.11180253 -0.22455218
 -0.38156268 -0.2811808  -0.18575744 -0.42064255]
[ 2.84602821e-01  1.59158304e-01 -7.58088231e-02 -1.51958063e-01
 -1.35973364e-01 -1.93215936e-01  2.20663995e-01 -1.97460249e-01
 -2.30611324e-01  5.41481562e-02 -1.32511556e-02  3.86144146e-02
 -3.26498508e-01 -8.14113952e-03 -2.52350122e-01 -6.89796805e-01
 -2.58765221e-01 -2.03712150e-01  1.59999300e-02 -7.84203708e-02
 -1.91209078e-01 -1.40676066e-01 -3.48531634e-01 -1.38552934e-01
  8.71682074e-03 -2.67081205e-02 -1.32700726e-01 -5.70604727e-02
 -8.71546790e-02 -9.38373655e-02 -4.49289903e-02 -2.17330530e-01
  7.77836740e-02  7.19836541e-03 -1.96855739e-01 -1.48820996e-01
 -4.03037310e-01 -3.81587930e-02 -1.90415040e-01 -3.22559834e-01
 -3.47360104e-01 -1.81428075e-01 -1.69172108e-01  8.95177014e-03
 -3.03024143e-01 -2.49627277e-01 -1.89235374e-01 -1.21569313e-01
 -2.57175267e-01 -4.33830440e-01 -3.02733570e-01 -2.89970845e-01
  2.95053031e-02 -1.67654037e-01 -1.74395680e-01 -1.07065335e-01
 -1.87229350e-01 -3.52573954e-02 -2.26368442e-01 -3.01561862e-01
 -2.31033430e-01  1.43871817e-04 -2.19754577e-01 -8.05851370e-02
 -4.81047221e-02 -3.83743346e-01 -6.46769330e-02 -3.97701152e-02
 -2.20687881e-01 -3.00508529e-01  5.37756123e-02 -6.96877092e-02
 -2.26270795e-01 -2.35583819e-02 -3.38589877e-01 -3.40882987e-01
 -4.00475293e-01 -2.03141212e-01 -1.74819566e-02  6.74432367e-02
  1.51043888e-02 -2.16776550e-01 -3.10198665e-01  7.79233724e-02
 -9.88132656e-02 -2.39323631e-01 -2.07455769e-01 -1.50464967e-01
 -3.85064036e-02 -3.77736241e-01  4.17257659e-03 -1.31737247e-01
 -2.89195985e-01 -4.72455293e-01 -2.84933001e-02  1.01754300e-01
 -1.21428870e-01 -2.29691267e-01 -1.02392666e-01 -2.24068671e-01
 -9.82999131e-02 -1.08139604e-01  7.42357746e-02 -2.46331677e-01
 -1.16229057e-01  8.44560191e-02 -2.38417685e-01 -2.62677491e-01
 -1.59694120e-01  2.42864992e-03 -2.31222510e-01 -1.89951539e-01
 -3.46445560e-01 -2.17822656e-01 -4.33827072e-01 -1.36553675e-01
  1.30764768e-01 -7.11011514e-02 -1.63444310e-01 -1.25757724e-01
 -5.51734082e-02 -2.23313197e-01 -1.68760270e-01  9.09680128e-02
  9.78447348e-02 -1.19284563e-01 -2.71626443e-01 -2.15464324e-01
 -2.63425201e-01 -1.26096070e-01 -1.40925646e-01 -1.57308966e-01
  6.65730163e-02 -3.05175483e-02 -9.48166698e-02 -8.88028592e-02
 -3.04756552e-01 -4.91638407e-02 -9.47760493e-02 -1.53918127e-02
 -3.22875261e-01 -3.78245860e-01 -8.62129703e-02 -2.77601536e-02
 -3.62625211e-01 -1.02813691e-01 -2.12775528e-01 -4.00285661e-01
  6.61702231e-02 -2.64679402e-01  4.79656197e-02 -4.24702555e-01
 -1.01005241e-01 -3.41840595e-01 -4.69776571e-01 -1.72341261e-02
 -2.38106400e-01 -3.05925131e-01 -1.73428282e-01 -2.63285995e-01
 -1.33175910e-01 -4.56165634e-02 -2.42429644e-01 -5.53533509e-02
 -1.08067371e-01 -1.51393175e-01 -2.83362895e-01 -9.00868028e-02
 -1.67152569e-01 -1.34759009e-01 -1.54759765e-01 -1.96060047e-01
 -2.46365100e-01 -2.80000478e-01  8.06925893e-02 -2.99171451e-02
 -1.18698403e-01 -3.39393616e-01 -4.07043219e-01 -1.88632920e-01
 -2.29344820e-03 -1.22871861e-01 -2.62502015e-01 -1.32876292e-01
 -3.09408903e-01 -1.77607238e-02 -1.09636195e-01 -1.92184020e-02
 -1.69620454e-01 -5.44237867e-02  2.77141154e-01 -2.60401696e-01
 -1.11816294e-01 -2.64013678e-01 -2.48293549e-01 -1.79941803e-01
 -1.07808657e-01 -3.71565580e-01 -1.22998454e-01 -6.23203993e-01
 -5.30716702e-02 -1.54478848e-01 -4.13072884e-01 -3.35821480e-01
 -5.60788549e-02 -7.32453167e-02 -2.69121021e-01 -1.11186169e-01
 -2.17246100e-01 -1.80433184e-01  6.84219971e-02 -1.88546285e-01
 -1.50171652e-01  1.17143076e-02  5.35316840e-02 -1.13543898e-01
 -3.33382577e-01 -4.12601605e-02  4.45239991e-02 -3.87127936e-01
 -1.77730322e-01  1.85093582e-02 -2.61899203e-01 -2.08393022e-01
 -1.31177694e-01 -4.49463623e-05 -1.48582414e-01 -2.62507405e-02
 -1.33232608e-01 -2.95459002e-01 -2.34265387e-01 -1.64671853e-01
  3.79695520e-02 -1.90736815e-01 -1.56369060e-01  1.73141249e-02
  9.25390571e-02  1.05695449e-01 -2.63072819e-01  1.03721365e-01
 -5.75749576e-02  1.28816124e-02  1.95244811e-02 -2.71783047e-03
 -3.55447605e-02 -2.32977226e-01 -2.99938798e-01 -8.44547432e-03
 -3.04777175e-01 -1.99394360e-01 -4.34329480e-01 -6.50008395e-02
 -1.18962042e-01 -3.18209618e-01 -1.68670118e-02 -1.24535538e-01]
[-1.88776609e-02 -1.17574826e-01 -9.80070159e-02 -8.01618516e-01
 -5.10841489e-01 -3.89713526e-01 -2.61407793e-02 -4.82832402e-01
 -6.97002709e-01 -7.22225070e-01 -1.02229111e-01 -3.27937538e-03
 -5.40862918e-01 -5.92553020e-01 -3.95362705e-01  3.47844511e-02
 -6.99967682e-01 -4.51670349e-01 -4.08179343e-01 -6.09853089e-01
 -5.38624048e-01 -7.44530439e-01 -4.26366359e-01 -6.44692063e-01
  1.69090182e-03 -8.57210234e-02 -1.68805256e-01 -7.04283059e-01
 -5.09685218e-01 -5.69526434e-01 -5.62631011e-01 -2.81366765e-01
 -3.32288057e-01 -6.16183102e-01 -6.62399769e-01 -3.17435861e-01
 -7.58013844e-01 -4.05865163e-01 -2.35285714e-01 -5.59744239e-01
 -5.05795538e-01 -5.58582604e-01 -6.15691543e-01 -5.68739355e-01
 -4.60626721e-01 -3.25152546e-01 -5.21563113e-01 -6.48753762e-01
 -4.42415655e-01 -4.23695683e-01 -5.46309650e-01 -8.12478423e-01
 -6.26776040e-01 -4.74811107e-01 -5.05010843e-01 -4.32314724e-01
 -6.05736315e-01 -4.22678560e-01 -3.92003208e-01 -4.21246111e-01
 -5.48890173e-01 -7.65590668e-01 -5.68847716e-01 -4.04381335e-01
 -4.12070811e-01 -4.53494579e-01 -7.23464370e-01 -4.57653612e-01
 -5.06892025e-01 -4.54394251e-01 -3.22880514e-04 -7.10916460e-01
 -4.47348505e-01 -4.06652093e-01 -3.23699206e-01 -4.36894298e-01
 -4.98211145e-01 -3.31158310e-01 -4.12913024e-01 -7.85204843e-02
 -5.68668783e-01 -4.61463243e-01 -5.18513441e-01 -6.77938163e-01
 -5.54752231e-01 -3.74264032e-01 -5.50674736e-01 -2.08596006e-01
 -5.00647187e-01 -6.40590370e-01 -5.01052737e-01 -5.48360467e-01
 -6.16333842e-01 -6.16319239e-01 -5.43523610e-01 -2.65475293e-03
 -7.67702460e-01 -5.92767298e-01 -5.79977810e-01 -6.70874357e-01
 -3.96171480e-01 -6.47401392e-01 -6.03321612e-01 -5.54446638e-01
 -5.77379704e-01 -7.82953389e-03 -6.35231733e-01 -6.71986580e-01
 -4.95076120e-01 -7.44376779e-01 -5.20913661e-01 -2.67378569e-01
 -4.99383479e-01 -7.07023919e-01 -5.20186722e-01 -4.53676790e-01
 -2.86285002e-02 -6.35822356e-01 -4.16973174e-01 -8.18639934e-01
 -5.72658122e-01 -6.53524339e-01 -4.59019035e-01 -5.99028885e-01
 -8.05059195e-01 -4.24038440e-01 -4.79535639e-01 -4.91191208e-01
 -5.89390814e-01 -7.70876408e-01 -2.30221152e-01 -5.09769201e-01
 -5.77696741e-01 -2.70733804e-01 -4.58028167e-01 -5.99251747e-01
 -5.04812300e-01 -4.19933289e-01 -4.37897503e-01 -5.95725119e-01
 -3.99173647e-01 -3.78587186e-01 -3.23305398e-01 -4.60282534e-01
 -5.33568799e-01 -7.14227676e-01 -4.77141917e-01 -4.00600940e-01
 -5.58978260e-01 -5.41071057e-01 -5.27933002e-01 -5.83796382e-01
 -8.19779336e-02 -5.35758436e-01 -4.65402484e-01 -2.60710239e-01
 -6.15189910e-01 -6.69605494e-01 -5.30647755e-01 -5.04563212e-01
 -5.43890297e-01 -5.10429502e-01 -7.66420305e-01 -4.68158603e-01
 -4.93473142e-01 -4.34239447e-01 -7.28864431e-01 -6.24765277e-01
 -4.46623445e-01 -6.00055873e-01 -4.18262511e-01 -8.23084652e-01
 -6.06261611e-01 -5.94840467e-01 -4.92700577e-01 -4.62717354e-01
 -5.24690211e-01  2.71011740e-02 -6.65080965e-01 -3.78631830e-01
 -5.79897583e-01 -5.61722636e-01 -5.22137523e-01 -6.08855605e-01
 -5.65634251e-01 -2.12884068e-01 -3.54132056e-01 -6.04883194e-01
 -7.04210028e-02 -6.69729233e-01 -2.78359745e-02 -6.07604563e-01
 -6.59954667e-01 -3.65966946e-01 -5.14946818e-01 -4.58026141e-01
 -4.12322998e-01 -5.17972350e-01 -4.81019676e-01  3.94145921e-02
 -6.72279179e-01 -5.89173198e-01 -7.74724126e-01 -4.74388272e-01
 -9.10611689e-01 -3.06659847e-01 -5.27468681e-01 -5.46183646e-01
 -4.40877348e-01 -3.91507506e-01 -6.12188995e-01 -4.49497521e-01
 -6.05147853e-02 -6.60277784e-01 -6.01748638e-02 -5.32222271e-01
 -5.52562714e-01 -7.65028298e-01 -1.98288217e-01 -5.44043183e-01
 -4.58139062e-01 -3.56468052e-01 -2.96023190e-01 -4.65659380e-01
 -7.81884372e-01 -6.59669757e-01 -5.50764084e-01 -5.13027608e-01
 -3.33304167e-01 -5.50061345e-01 -4.07304764e-01 -4.55535710e-01
 -8.36930335e-01 -6.17506444e-01 -6.65661931e-01 -5.43596447e-01
 -1.63193252e-02 -2.61390842e-02 -6.31241798e-01 -4.24422920e-01
 -5.33377588e-01 -1.75873458e-01 -6.80656493e-01 -6.30968094e-01
 -5.47071517e-01 -4.92059320e-01 -3.30361158e-01 -2.00093433e-01
 -4.41957355e-01 -5.30552328e-01 -5.41601419e-01 -3.89840961e-01
 -3.89701217e-01 -7.05090165e-01 -7.37636685e-01 -3.60420108e-01]
[ 2.83899486e-01  1.69619039e-01  1.14326566e-01  4.31107208e-02
  1.26774423e-02 -2.01964155e-02  2.51798213e-01  1.59644127e-01
 -7.65095651e-02 -1.64824966e-02  1.27164260e-01  2.59807199e-01
  5.22844978e-02  5.68031669e-02  2.60389075e-02 -5.45103014e-01
  9.38758999e-03 -8.13039951e-03  4.50507412e-03  2.98082769e-01
  3.49585228e-02  2.25072205e-02  1.65233240e-01  4.48011756e-02
  1.93644464e-01  1.26870990e-01 -6.67546270e-03  1.26784751e-02
  1.04087338e-01 -2.84495614e-02 -9.23734996e-03 -5.58558591e-02
  1.81534901e-01  6.77183121e-02 -3.91589329e-02  6.36635870e-02
  2.72618495e-02 -4.48861346e-03 -1.02863144e-02  4.84428881e-03
  1.44232422e-01  1.72506738e-02  1.77644417e-02  1.36175007e-01
  4.89129983e-02  7.98871368e-02 -1.02770165e-01 -1.10083111e-01
 -1.02819070e-01 -7.27155507e-02  5.96850887e-02 -5.82304075e-02
  6.35833293e-02 -4.54339571e-03  1.00569554e-01 -1.48061097e-01
 -4.32682224e-02  1.87912043e-02  9.37562063e-02 -3.99177857e-02
 -2.14833468e-01  1.72260433e-01 -6.91838115e-02  7.87896663e-02
  7.05181956e-02 -6.61399728e-03 -6.25779256e-02  7.68006593e-02
 -1.29224151e-01 -1.13039255e-01  9.03249606e-02 -6.48835301e-02
 -6.66807145e-02  4.37530130e-02 -1.88936833e-02  7.22268820e-02
 -1.49595202e-03 -4.12030320e-04  3.71810868e-02  2.78738201e-01
  1.08451597e-01  1.96323022e-01  2.34082211e-02  7.59189576e-02
  2.20420118e-02  2.63170842e-02 -1.44434227e-02  2.35346099e-03
 -1.18301488e-01  2.70034492e-01 -4.59494889e-02 -9.28447098e-02
  1.70981035e-01  4.10484225e-02 -2.00574622e-02  2.55023450e-01
  1.19960364e-02  6.72231168e-02 -2.98013017e-02  1.10970467e-01
  5.84972166e-02  1.10348530e-01 -2.62972508e-02 -1.08929940e-01
 -3.48399356e-02  8.33737999e-02  1.16547793e-02  1.14914834e-01
  6.35654852e-03  5.53420968e-02  1.24264039e-01 -4.84757647e-02
 -3.09413392e-02 -2.91380007e-02 -2.36207973e-02  2.72595018e-01
  3.29585075e-01  6.28098845e-02 -2.75860578e-02  1.71927549e-02
 -1.15459606e-01  4.62540053e-02 -1.56203605e-04  1.73477948e-01
  3.49510759e-02  1.10334391e-02  6.02122881e-02  2.34230280e-01
  1.15799354e-02  6.47064298e-02  1.40182242e-01  9.18686613e-02
  5.64040206e-02  5.28779067e-03  8.89810175e-02 -7.80150667e-02
  4.45946306e-03 -1.27606913e-02  3.37185003e-02 -3.84182134e-03
  4.75592352e-02  1.59847200e-01  9.16332975e-02 -2.39054058e-02
 -3.23502012e-02 -2.66610049e-02 -1.53800035e-02  1.26089171e-01
  1.50876403e-01 -1.69640463e-02  8.70104060e-02  2.05944404e-01
  1.02746554e-01 -5.60671538e-02  1.18263185e-01 -9.05466676e-02
 -2.69187707e-02  1.39124662e-01  1.48054525e-01 -2.50316318e-03
  1.96436010e-02  7.68685266e-02 -4.63476889e-02  3.60006690e-02
  8.48294888e-03 -1.51704624e-01 -1.03334337e-01  1.13833718e-01
 -1.05939247e-01  4.06916328e-02 -4.89151105e-02  6.35028780e-02
  1.50674835e-01  3.55493883e-03  1.23981247e-02  1.58164836e-02
  3.08159477e-04 -4.54066366e-01 -6.95767701e-02 -1.40401736e-01
 -1.74004614e-01 -8.77953991e-02  1.97206382e-02 -8.32348317e-03
 -1.99059714e-02  7.52244964e-02 -8.97845626e-02  1.33680627e-01
  2.32083961e-01 -4.06037681e-02  4.92620468e-01 -6.77404925e-02
 -7.15090930e-02  6.03028908e-02 -2.05729567e-02  5.08635454e-02
  7.13167936e-02  3.96689661e-02 -6.52934983e-02 -6.10860646e-01
  1.61506101e-01 -1.63075328e-02  1.10925928e-01  4.60650250e-02
 -1.23740353e-01  2.40265131e-01 -2.32302383e-01  2.18304638e-02
 -2.15538908e-02 -1.08262748e-01 -3.10133398e-02  4.88777235e-02
  2.71117929e-02  1.69351399e-02  5.78964725e-02 -1.05983563e-01
  1.50394261e-01  4.89815660e-02  1.68071955e-01 -8.57889503e-02
  9.95792300e-02 -1.11493699e-01 -7.26755857e-02  1.06576174e-01
  1.23051435e-01  1.58296525e-02  1.23505294e-01  1.85876995e-01
 -7.01230988e-02  6.57881349e-02  5.04324920e-02  2.22721621e-02
  2.32663881e-02 -1.15496747e-01  1.83576401e-02 -8.74651298e-02
  9.26133990e-02  3.40137571e-01  6.80548400e-02  7.49310330e-02
  1.76346272e-01  3.72416452e-02 -1.89303130e-01 -1.02273874e-01
 -7.31398314e-02  2.30260387e-01 -1.69143695e-02  1.54788136e-01
  1.67011637e-02 -9.67803895e-02 -3.37505303e-02 -1.15686752e-01
  8.66190940e-02 -2.56888084e-02 -4.65298556e-02  3.31728160e-02]
[-1.11143902e-01 -1.64307222e-01 -1.78849459e-01  7.96134844e-02
  1.18219174e-01 -5.48743010e-02 -2.11777791e-01  1.20551199e-01
  1.18894070e-01  8.49313810e-02 -1.65341385e-02 -1.31085590e-01
 -1.68857332e-02  9.73471627e-02  1.26493797e-01  3.48115444e-01
  8.02811384e-02  5.98098524e-02 -6.38572127e-02  7.57995173e-02
  2.03064993e-01 -2.23988704e-02  1.61418140e-01  3.70382369e-02
 -3.00301701e-01 -2.43842632e-01 -1.92570627e-01 -4.19467501e-02
 -1.96498007e-01  2.59277280e-02  2.55830474e-02 -1.31242648e-01
  5.15058413e-02 -1.04559943e-01  5.09949215e-02  2.95575950e-02
  1.51473358e-01  3.50347757e-02 -9.31486674e-03  2.34799739e-02
  1.48694769e-01  8.40005279e-02  1.45080492e-01 -7.42350742e-02
 -4.95977551e-02  1.20374545e-01  1.11145906e-01 -5.28405979e-02
  1.30293474e-01  1.53946489e-01 -2.54929252e-02  1.24015726e-01
  4.53303270e-02  2.13725287e-02 -3.63772013e-03  9.44547728e-02
 -1.35198504e-01 -6.53907955e-02  1.52398273e-03 -6.51278347e-03
  6.14369996e-02 -1.21376872e-01  2.43941881e-02  2.73278616e-02
  3.38938124e-02  1.01889119e-01  2.27151602e-03  1.26315458e-02
 -2.79207882e-02  3.64797488e-02 -2.30822548e-01 -6.94432482e-02
 -1.05105303e-01  8.20681825e-02 -4.83314991e-02  2.63273418e-02
  6.23732340e-03  3.13502662e-02  1.59462273e-01 -2.03067645e-01
 -3.59556377e-02 -6.46950901e-02  1.00973867e-01  5.28687760e-02
  6.46939725e-02 -5.18867597e-02  7.95609653e-02 -2.08796754e-01
 -4.18453813e-02  3.06152068e-02 -2.37754993e-02  8.07670951e-02
  6.86180219e-03  1.31239817e-01 -1.09352171e-01 -1.57547668e-01
 -5.12006208e-02 -2.60019321e-02  1.22106977e-01  1.37091413e-01
  1.08649589e-01 -8.02868679e-02  1.75531842e-02 -5.33405021e-02
  1.54798135e-01 -1.88139573e-01  7.81637952e-02  5.54624163e-02
  1.27228811e-01 -1.59018219e-03 -1.05500780e-01 -8.55665430e-02
  1.22003563e-01 -1.67887107e-01  2.56424639e-02 -8.09260383e-02
 -1.35745257e-01  8.46586525e-02  8.28902498e-02  1.46879163e-02
  5.87860346e-02  1.67357981e-01  1.10768199e-01  4.91580330e-02
  1.07949171e-02 -1.99455380e-01  2.12078425e-03  9.07886773e-02
  1.68088332e-01 -1.55348569e-01 -1.51938424e-01  7.40610287e-02
 -6.13074154e-02 -1.73395157e-01 -1.13715224e-01  3.35892523e-03
  2.22867709e-02  1.67760905e-02  7.48286322e-02  2.61962086e-01
  8.40068534e-02  3.89275104e-02  1.04942003e-04 -5.49353939e-03
 -3.49732785e-04  4.66148593e-02  4.66714762e-02  3.96922529e-02
  9.26391929e-02 -1.39742434e-01  5.01232641e-03 -1.41277749e-04
 -1.63649544e-01  2.74993703e-02  9.51512605e-02 -9.89513621e-02
 -2.85421479e-02  1.58712342e-01 -4.09455262e-02  7.19764829e-02
  7.68856704e-02 -6.17778935e-02  1.77507810e-02 -4.66577634e-02
 -3.90692204e-02 -5.72122224e-02 -8.59549120e-02  1.54553413e-01
 -5.34957536e-02 -4.28812355e-02  8.25672448e-02  1.06060810e-01
  3.52590084e-02  1.21322364e-01  7.08385706e-02  1.41893834e-01
 -8.51038992e-02  1.67730868e-01  7.54293799e-02  7.58357123e-02
 -6.75408691e-02  1.08604170e-01 -6.35508150e-02 -7.23093748e-02
  1.11337803e-01 -4.13431115e-02 -5.86188920e-02  3.68984416e-02
 -3.46188098e-01 -1.12280041e-01 -1.96527615e-01  7.11415038e-02
  2.22021908e-01 -1.58154428e-01  1.11570030e-01  6.22006729e-02
  9.48698297e-02  1.23533994e-01  6.34359419e-02  2.70395577e-01
 -1.11412248e-02 -1.42216375e-02  8.42597038e-02  4.97454405e-03
 -3.08456272e-01  2.51807142e-02  1.98830180e-02 -1.85961612e-02
  3.64290625e-02  7.37420097e-02  7.67932683e-02  1.18561707e-01
 -1.61569729e-01  7.38751590e-02  4.66546267e-02  3.81212197e-02
  5.62615618e-02 -5.95618524e-02 -1.92634061e-01 -3.92280780e-02
  3.32571119e-02  1.50531590e-01  5.09215109e-02 -5.79242148e-02
 -6.44613802e-02 -4.23190817e-02 -1.54185453e-02  6.51835427e-02
  1.45440223e-02  1.13503024e-01  8.22973475e-02  2.32333973e-01
  1.76026821e-02 -6.17908686e-02 -2.39890674e-03  5.61252721e-02
 -9.08072218e-02 -1.51860401e-01 -6.90652132e-02  1.29301697e-01
 -1.31558385e-02 -9.41213295e-02  3.99706364e-02 -4.24107276e-02
  2.13678218e-02  1.33453563e-01  9.80445296e-02 -2.84722030e-01
  1.54062390e-01  1.12834126e-01  1.33821666e-01  7.46100023e-02
  7.42872208e-02 -4.16543742e-04 -1.36622116e-01 -1.17641315e-01]
[ 1.26571143e-02  2.45199930e-02  3.64852622e-02  3.67619880e-02
  9.31980312e-02  3.12697031e-02 -2.89385207e-02  3.01788729e-02
 -1.43390587e-02  1.32202625e-01 -2.13046074e-02 -4.06097770e-02
 -8.86741281e-02  2.23904744e-01  1.09426744e-01  1.16002515e-01
 -4.50765667e-03 -1.43258169e-01  9.27013233e-02  5.76046035e-02
  1.14489861e-01  2.48053521e-01  3.01121682e-01 -8.15432966e-02
  6.80158287e-03 -9.10621434e-02 -7.45759113e-03  6.94806203e-02
  9.79869515e-02  1.13027997e-01  1.60873070e-01  1.02237381e-01
  1.08932480e-01 -4.46788035e-02  2.09563710e-02  4.45641465e-02
  4.28656675e-03  7.77258426e-02 -1.78038348e-02  1.92529023e-01
  1.80300370e-01 -2.43333019e-02 -6.26067966e-02  2.06933152e-02
 -3.87004204e-02 -4.90675420e-02  6.75662458e-02 -1.19656742e-01
  1.11378245e-01 -1.68160703e-02 -4.27296385e-03  5.90586103e-02
  1.56918332e-01 -6.65440410e-02  8.90275389e-02  4.53290343e-02
 -8.44937712e-02 -5.63401356e-02 -6.56636506e-02  4.77476083e-02
 -4.89062024e-03  1.45369858e-01  4.76922654e-02  1.46827012e-01
  1.01889715e-01  1.28096476e-01 -7.94571787e-02  1.92903787e-01
  1.70596484e-02 -3.77487615e-02 -1.04312047e-01 -4.86813448e-02
  1.07429579e-01  1.19939093e-02  1.87903747e-01  2.42994800e-01
 -5.49845211e-02  6.99839965e-02 -1.55432492e-01  1.03650510e-01
 -9.81340855e-02  1.71031460e-01 -4.22640927e-02  6.34720474e-02
  1.97723165e-01  1.89062357e-01  1.28772318e-01  1.55165032e-01
  3.40169184e-02 -1.55136645e-01  8.62793773e-02  3.32874544e-02
  2.43548751e-02  6.51792511e-02  2.72615135e-01 -6.24159537e-03
  1.70352861e-01  1.52182490e-01 -1.05411358e-01 -2.09671125e-01
  1.64634436e-02  5.50337695e-02  6.42540827e-02  8.37010294e-02
  1.47672549e-01  1.01589255e-01  5.37637528e-03  1.28555611e-01
 -8.90790764e-03  2.72192180e-01 -1.06349610e-01 -1.27582904e-03
  1.91829801e-02 -4.86102886e-02 -3.50470617e-02  2.07125381e-01
 -2.53820010e-02 -2.15814654e-02  2.15834305e-01  7.69721568e-02
 -1.03263436e-02  8.11135173e-02 -8.15076083e-02  1.94546089e-01
  1.30071446e-01  1.89780101e-01 -1.27507314e-01  4.58869413e-02
  2.05891905e-03  6.07935973e-02 -4.30347621e-02 -1.35206789e-01
  5.41792363e-02  8.20172429e-02  5.51616400e-02  6.36949763e-03
  1.87000319e-01 -2.20321137e-02  3.11651051e-01  2.92270444e-02
  1.91025168e-01  2.31523007e-01  1.91339910e-01  1.28785567e-02
 -3.13800909e-02  8.52455478e-03  1.15804471e-01 -6.46251515e-02
  2.35048980e-01 -1.55558020e-01  1.04999185e-01  6.93779811e-02
 -1.30614890e-02 -1.05286203e-01  1.24308780e-01  7.68414587e-02
  7.80526400e-02 -1.03576533e-01  1.29210472e-01  3.54699455e-02
  1.51127487e-01  1.95843484e-02 -4.60934918e-03 -8.74244496e-02
 -2.03433428e-02 -9.87617597e-02  6.23608269e-02  3.97470072e-02
 -5.47601283e-02 -2.28177086e-02 -6.43257573e-02 -7.29867667e-02
 -1.51098773e-01  2.12493256e-01  3.35828327e-02 -2.70850178e-05
 -8.20488706e-02  3.61197628e-03  8.16199481e-02 -1.71462879e-01
  1.25907734e-01  1.10505737e-01 -3.41479219e-02 -1.03777371e-01
  6.74440190e-02 -8.19704756e-02  5.50687276e-02 -2.21685171e-02
  5.89724071e-02 -1.37898311e-01 -5.11919707e-02 -3.79794165e-02
  6.49110302e-02  6.65488541e-02 -1.60946157e-02  1.94078997e-01
  3.78100686e-02 -2.85030622e-02 -7.61153996e-02  1.76440865e-01
 -3.04797124e-02  3.34633440e-02  4.16112840e-02 -3.11352517e-02
 -2.35750973e-01 -2.05492422e-01 -2.08004694e-02  2.39507318e-01
  1.31955277e-02 -9.44410264e-02  3.24424878e-02 -2.09510345e-02
  7.53451362e-02  1.13616131e-01 -4.50601317e-02 -2.38922760e-02
 -1.05448894e-01 -5.39022088e-02 -3.04875672e-02  1.68319345e-02
  1.68864578e-01 -3.06145730e-03  5.49501926e-02  1.48336053e-01
  7.61753619e-02  1.24520175e-01  6.22737296e-02  7.12085515e-02
 -6.92130849e-02 -9.09867957e-02 -4.91718808e-03  1.26431808e-01
  3.03857952e-01  1.31574139e-01  1.08139068e-01  1.84841417e-02
  9.84088928e-02  4.37351502e-02  1.14255659e-01  9.61053371e-02
 -9.32360813e-02 -2.00822912e-02 -8.20992664e-02 -7.54545331e-02
  1.20917723e-01  1.50703430e-01 -3.24700214e-02 -6.90101311e-02
  1.80182397e-01  7.30321091e-03  2.37898715e-02  2.39440426e-01
  3.15702766e-01  2.76094854e-01 -8.14862084e-03  1.41770050e-01]
[-1.96436793e-02  5.61634563e-02 -3.49109173e-02  5.86825088e-02
  6.45925254e-02 -1.15500614e-01 -2.27232110e-02  1.19321287e-01
  1.22944675e-01  1.78253934e-01  3.46826836e-02  2.87234485e-02
  2.80796140e-02  3.79732717e-03  1.26307398e-01  4.49148705e-03
  8.74350891e-02  1.95481822e-01  1.74944192e-01  8.16170573e-02
  4.93383259e-02 -2.08611041e-02 -1.18234210e-01  1.18652485e-01
 -4.78078984e-02 -3.46114151e-02  7.83973634e-02  1.01742223e-01
  1.31870374e-01 -1.76833123e-02  6.84474707e-02  9.08036977e-02
 -9.68930870e-02  9.97191072e-02  1.19141199e-01  1.49592776e-02
 -1.73902139e-02 -1.07055055e-02  6.91524819e-02  6.81541394e-03
 -6.04589470e-02 -8.21881928e-03  3.58045697e-02  1.69284549e-03
  2.64176447e-02  1.38076230e-05  9.30642709e-02 -1.11001678e-01
 -9.14800540e-02  8.15507695e-02  2.75117382e-02  4.27873395e-02
  5.84343150e-02  8.74751061e-03  3.14142294e-02  3.34263630e-02
 -4.99116965e-02  9.58388075e-02 -2.01566182e-02  1.18762299e-01
 -9.98991504e-02  2.16670637e-03 -2.41037691e-04  9.85210761e-02
  1.32236898e-01 -7.30679333e-02 -3.97510342e-02 -1.13516517e-01
  1.07899897e-01 -1.66967809e-02 -4.29717824e-02 -1.52274594e-02
  1.33565208e-02 -9.58987605e-03 -2.40343977e-02 -7.95844123e-02
  1.77983820e-01  5.31613640e-02 -2.45343950e-02  1.79794487e-02
  8.30912367e-02  1.66470662e-01 -1.04909845e-01  1.81405619e-01
  7.94236213e-02  6.71926932e-03  2.58346833e-02  7.81806037e-02
  1.84317417e-02  7.15184063e-02 -5.66070005e-02  2.18439307e-02
 -7.54185840e-02  8.64551067e-02  2.49847285e-02 -6.74405843e-02
  1.72439381e-01  2.77387127e-02  6.05813740e-03  9.86512750e-02
  1.90174177e-01  3.69194224e-02  3.19141671e-02 -3.94786336e-02
 -3.74566540e-02 -2.65864320e-02  1.26773894e-01 -6.78824410e-02
  2.14410182e-02  9.89240855e-02  1.10221021e-01  3.26114222e-02
 -6.10342855e-03 -4.52655926e-02  4.52255756e-02 -1.84266433e-01
 -1.30437156e-02  1.24998704e-01 -1.76943064e-01 -1.17806286e-01
 -1.69747826e-02  6.25572866e-04 -7.48436376e-02  2.61068046e-02
 -1.31248057e-01 -2.69531254e-02 -2.96165589e-02 -7.43897557e-02
  2.73490287e-02 -2.12220415e-01 -4.47084680e-02  7.93686658e-02
  1.70989186e-02 -1.35056227e-01  4.49802987e-02  1.23921230e-01
  4.71467748e-02  3.73039804e-02  9.48033780e-02 -1.32650854e-02
  5.15460297e-02 -8.81161764e-02 -1.49702668e-01 -1.20188504e-01
 -2.45789699e-02  8.95417556e-02 -2.26060506e-02  5.54090366e-02
  8.67997259e-02  1.08631171e-01 -1.14112766e-02 -4.24011163e-02
 -1.56884551e-01  2.52925009e-01  1.00080699e-01 -6.91541433e-02
  1.15012370e-01  9.88662839e-02 -1.51275814e-01 -1.15011702e-03
 -7.30382875e-02 -7.08291903e-02 -4.78698593e-03  7.76578337e-02
  1.66862771e-01 -8.54314938e-02  1.22509047e-01 -4.90257554e-02
  8.84786341e-03  1.42707288e-01  4.65626977e-02  8.19146633e-02
  5.84692508e-02  1.49001271e-01  9.48067158e-02  3.35535966e-02
  1.14079462e-02  3.00844945e-02 -5.82042299e-02  1.24493018e-01
  6.20724931e-02 -3.38730924e-02  7.71165788e-02 -4.40537035e-02
  4.23392057e-02  1.77024573e-01 -6.37738183e-02  8.52064937e-02
  3.45502719e-02  1.61677543e-02  2.06492525e-02  6.10230379e-02
 -5.36372028e-02  8.98392200e-02  4.47124690e-02  1.59103777e-02
 -1.54240690e-02  6.58632219e-02  6.31250218e-02  5.07941768e-02
 -5.72143234e-02  1.01471528e-01  3.30107175e-02  1.73471123e-02
 -1.40736714e-01 -1.02037631e-01  4.39102575e-02  4.34613181e-03
  8.25871304e-02  6.31354153e-02 -4.05712548e-04  5.69134578e-02
 -5.26316017e-02  5.31602912e-02  1.29222795e-01  5.22771515e-02
  4.95135412e-02  1.31507471e-01 -1.85429201e-01  3.27894539e-02
  1.35692358e-02  7.79038072e-02 -8.20437744e-02  1.03303321e-01
  3.15150917e-02  4.03890871e-02  1.16027258e-02  1.82329029e-01
 -6.73789382e-02  1.37280613e-01  1.17881261e-01 -3.23326215e-02
  1.93373099e-01  2.68136933e-02  3.78943607e-02  3.87434401e-02
 -1.63465917e-01 -8.39048345e-03 -4.26633880e-02 -4.60665300e-02
 -4.15745862e-02 -9.95256286e-03 -5.70488274e-02 -4.99520544e-03
 -8.62582028e-02  8.29736665e-02 -6.64025843e-02 -1.20954685e-01
  3.85114290e-02  1.31140977e-01  4.34638187e-02 -1.48571907e-02
  1.07839167e-01 -1.34764001e-01 -2.68078167e-02 -2.70919316e-03]
[ 4.19572949e-01  9.00256389e-04  1.63274959e-01  8.07305723e-02
  1.39912546e-01 -8.93168822e-02  3.17026764e-01  2.57243484e-01
  5.50274178e-02  1.24475747e-01  7.81279579e-02  2.59272635e-01
  1.31106272e-01  1.48539841e-02  1.60593748e-01 -4.63712215e-01
 -5.91861419e-02 -1.76260933e-01  1.89559869e-02  1.82000846e-01
 -3.51570472e-02 -3.95556428e-02  2.09337175e-01 -3.69830951e-02
  2.01005742e-01  8.58138204e-02 -7.22629353e-02 -9.93817230e-04
 -9.38331429e-03  9.01053026e-02  3.61717418e-02 -5.65594174e-02
  4.80037890e-02  4.88209128e-02 -1.05294473e-01  1.16964273e-01
  5.08668087e-02 -5.75720295e-02 -1.56307593e-02  7.37707242e-02
  1.38520539e-01 -4.19514775e-02 -1.74314395e-01  4.40284722e-02
 -1.10657714e-01  1.00307897e-01  1.40621215e-01 -4.79880422e-02
  4.46836762e-02 -7.55211711e-02  3.91219184e-03 -1.25255167e-01
  1.42356157e-01 -1.55209094e-01  2.17992783e-01  4.93849143e-02
  1.76560119e-01  1.10086560e-01  7.53201246e-02 -5.12303337e-02
  7.40246475e-02  2.10720841e-02  2.29761433e-02  1.49791494e-01
  4.62351143e-02 -5.24489358e-02  1.57196179e-01 -8.96059792e-04
 -3.96705382e-02  5.02351485e-02  3.32523316e-01  6.35395274e-02
  1.96222663e-02  5.04313176e-03 -1.40263557e-01  1.37817366e-02
  5.69773130e-02 -3.31254234e-03  5.46734557e-02  1.65110394e-01
  7.08232746e-02 -2.70930342e-02  1.06425807e-01  2.03041360e-03
  2.41695583e-04  7.79605508e-02 -1.18333645e-01  2.04964802e-01
 -1.50805609e-02 -1.14305086e-01  1.28825381e-01  1.62245005e-01
  2.54979491e-01  2.04497459e-03 -1.30839810e-01  5.19763790e-02
  1.13194957e-02  1.12894163e-01  7.20366165e-02 -9.66583714e-02
  7.74631575e-02 -2.69990675e-02 -9.38606635e-02 -1.77980930e-01
  4.34403233e-02  4.45486099e-01  2.52087545e-02  1.12091511e-01
  2.79583223e-02 -7.37482533e-02  1.73275620e-01  1.54627100e-01
  6.40046671e-02  2.51734443e-02  5.79708666e-02  1.36307254e-01
  4.08079743e-01  1.23776749e-01 -3.07784900e-02 -7.51869846e-03
  4.89892513e-02 -5.19412868e-02 -3.53433862e-02 -4.30054814e-02
  2.09622160e-02  7.66226798e-02  7.95508549e-02  8.46661478e-02
 -6.10730127e-02 -6.74626157e-02 -7.84974843e-02 -3.56300920e-02
  4.82287183e-02  2.49379799e-01  8.21025111e-03  1.15107276e-01
 -1.44907599e-02  1.57568511e-02  1.45760983e-01  1.51143268e-01
 -5.05148061e-02  5.75271086e-04  1.86085656e-01 -6.55557737e-02
  6.45697489e-02 -1.48935802e-02 -4.20442186e-02  1.81502655e-01
  7.13903233e-02 -9.44128707e-02 -8.57107458e-04  1.12136133e-01
  2.46841624e-01 -2.82266289e-02  6.69942945e-02  1.65649682e-01
  9.63031407e-03 -1.17810415e-02  7.16497004e-02  1.41614854e-01
 -1.94448277e-01  7.33542666e-02  3.35608274e-02 -4.26956527e-02
 -1.11969039e-01  8.80602002e-02  3.06099909e-03 -4.97844592e-02
 -1.33593276e-01  1.01657920e-02 -1.19978540e-01 -1.39156617e-02
  4.53639813e-02 -3.07035819e-02  1.03521664e-02 -9.31659248e-03
 -2.42933747e-03 -7.17051983e-01  1.03534944e-02  8.01378787e-02
  5.41348457e-02  1.13725759e-01 -2.36455239e-02  3.16590164e-03
 -7.78102875e-02  1.17272817e-01 -1.61720179e-02 -1.12390183e-01
  1.94982722e-01  2.40301862e-01  4.15127873e-01 -2.86967009e-02
  3.97745557e-02  6.12220466e-02  7.96967745e-02 -6.30002394e-02
  5.40462211e-02 -1.96051206e-02  1.00319587e-01 -7.46143579e-01
 -4.96751517e-02  1.99001282e-02  2.05186959e-02 -3.98621894e-03
  9.64521617e-02  2.28868544e-01  3.92910466e-02  5.61276898e-02
 -4.41354699e-02 -8.36893171e-02  3.39951292e-02  7.65559599e-02
  1.37481555e-01 -2.51870658e-02  1.11082636e-01 -6.97567686e-02
  3.17013897e-02  5.63264079e-02  2.64685690e-01 -4.03452069e-02
  8.04711431e-02 -6.61143707e-03 -3.51749547e-02 -3.34333107e-02
  3.82202379e-02 -1.35129923e-02 -3.74059863e-02 -9.48475301e-02
 -6.21461198e-02  6.85785711e-02  1.40180681e-02  1.29819110e-01
 -3.80352996e-02 -1.51636586e-01  1.99368298e-02 -2.02629864e-02
  2.27952480e-01  2.28132114e-01  3.43359672e-02  7.17929285e-03
 -2.40836311e-02  4.40649018e-02  3.08941230e-02 -6.08051270e-02
  1.28059834e-01  4.92216460e-02 -2.22395454e-02  8.92378017e-02
  8.94463435e-02 -1.66468322e-01  8.97153988e-02  1.39240071e-01
  9.74625871e-02  3.39330174e-02 -1.16869211e-01  1.35666886e-02]
[ 3.08653936e-02  8.46629143e-02 -1.36616379e-01  3.68537474e-03
 -1.21157162e-01  8.35631266e-02 -4.20350619e-02 -2.93250382e-02
  2.50566006e-02  1.86325848e-01 -1.48814160e-03 -4.58006673e-02
  9.46297944e-02  2.29093973e-02  1.46735609e-01 -1.16485059e-02
  1.70904204e-01 -1.94571298e-02  5.15919439e-02  5.31875305e-02
  2.91624125e-02 -7.43309408e-02  1.70710012e-01  7.62158558e-02
  1.91831980e-02 -8.18769485e-02 -9.85591486e-02  8.10049027e-02
  8.33852813e-02 -1.02217190e-01  5.46478666e-03  7.11999089e-02
  6.66451752e-02  8.90039839e-03  1.65259108e-01  1.13108069e-01
  9.09676179e-02 -1.30962908e-01  9.82187390e-02 -1.24328332e-02
  1.27714396e-01 -1.01310804e-01  1.59741983e-01  1.96027607e-01
 -1.15728498e-01  7.87171423e-02  5.35320193e-02  3.00091002e-02
  6.18387945e-03  2.51138993e-02  1.67697415e-01  1.28432557e-01
 -4.73258644e-02  1.61782913e-02  1.59041479e-01  1.19487859e-01
 -1.59276694e-01 -3.17468047e-02  5.65551445e-02  2.45967358e-01
  1.18748866e-01  5.29472344e-02  3.84338945e-02  8.80255327e-02
  2.74047442e-02 -6.53971583e-02  1.03098430e-01  1.39880747e-01
  2.42027231e-02 -8.94128382e-02  1.21234022e-01 -1.47993788e-01
  4.38540913e-02  1.05071709e-01  8.38305652e-02  1.77628975e-02
  3.42118144e-02 -8.94847810e-02  8.44812579e-03  7.58848265e-02
  1.61742046e-01 -1.37289658e-01  1.96893543e-01 -9.59669277e-02
 -1.36670209e-02  7.34341443e-02 -1.54231563e-02  1.34069130e-01
  1.24247760e-01  1.49255529e-01  2.06925571e-02  1.11421160e-01
  3.17858726e-01  8.28423053e-02  1.58838063e-01 -3.38156931e-02
  2.77293399e-02 -7.33669922e-02 -2.12738235e-02  1.18769512e-01
  1.00452758e-01 -1.83215253e-02 -1.26422197e-01 -1.97511329e-03
  6.72658579e-03  1.19898945e-01 -6.52583176e-03  1.63581282e-01
  1.20510302e-01  1.12112381e-01  1.67639721e-02  1.12601742e-01
 -5.13870828e-02 -9.82196704e-02  1.66111905e-02  2.37109333e-01
  2.83865444e-02 -1.41307130e-01  1.56978562e-01  1.73120201e-01
 -2.34267581e-02  1.82919607e-01  1.38483375e-01 -1.38664097e-01
 -3.42772193e-02  7.74900988e-02  2.81545613e-02  4.12547290e-01
  1.72844175e-02  1.64780784e-02  7.60544538e-02  5.54877743e-02
  4.58017513e-02 -3.45133841e-02 -3.57451290e-02  3.59637998e-02
  3.99372280e-02  3.54578905e-02  4.97150756e-02  8.98825973e-02
  7.80674890e-02  9.93643552e-02  5.63701019e-02 -1.54139712e-01
 -2.00745519e-02  1.09047629e-02  1.23018101e-01  1.89052254e-01
  1.27861142e-01  1.40016288e-01  6.48521557e-02  4.67905961e-02
 -1.61142483e-01  7.72184953e-02  1.07347719e-01 -5.03489189e-02
  1.65859386e-01  5.32238279e-03  5.39717637e-02  6.61540851e-02
 -5.76523393e-02  1.12072088e-01  2.81261265e-01  6.70949444e-02
  2.14130096e-02  1.03339501e-01  2.02871468e-02  8.23466480e-02
  2.30597109e-01 -1.57763273e-01 -1.17771607e-02  1.10358194e-01
 -2.69375481e-02  1.67512298e-01  1.28461078e-01  9.38308090e-02
 -1.23288687e-02  3.24944332e-02  4.29746062e-02 -4.94049676e-02
  5.50036132e-02  1.09483048e-01  5.61325923e-02 -1.44353613e-01
  4.80489023e-02  5.26146963e-02  1.37478247e-01 -2.03807261e-02
 -1.19198471e-01 -3.60079226e-03  5.27006872e-02  5.70626482e-02
  3.55123989e-02  4.37095985e-02  2.07268074e-01 -1.18149973e-01
  1.70647115e-01  1.84016436e-01  7.06787854e-02 -7.96223432e-02
 -1.10637955e-01  5.68047911e-02  1.58679467e-02  1.47368219e-02
  3.53358081e-03  1.41177952e-01  5.31193279e-02  9.46124177e-03
 -6.41592368e-02  1.14022363e-02 -1.12833958e-02  4.91102263e-02
 -2.98245829e-02  1.15003325e-02  8.60428810e-02 -3.61170955e-02
  7.42342398e-02 -8.06192234e-02 -6.90192357e-02 -2.90960409e-02
  1.83521718e-01 -6.48750886e-02 -1.38356417e-01  3.31974357e-01
  2.06288379e-02  1.18184328e-01 -2.74099633e-02  2.44519748e-02
  9.39156413e-02  9.21645314e-02  1.51051760e-01  1.34339854e-01
  7.16261193e-02 -1.12745576e-02 -7.35743120e-02  1.61343932e-01
 -5.79718761e-02  4.35311683e-02  3.21231484e-02 -6.19692020e-02
  9.14281085e-02  1.70150250e-02 -1.94467589e-01  1.44120101e-02
  2.14982051e-02  1.42346293e-01  1.58544511e-01 -2.12001830e-01
  2.12249141e-02  2.46278681e-02  1.59014180e-01  2.02019196e-02
  1.97480783e-01  2.53216887e-04  7.47468248e-02  6.53260723e-02]
[ 0.05182425 -0.05225363  0.02471397 -0.84119594 -0.57434964 -0.6504594
  0.02967534 -0.29007843 -0.6709968  -0.83936167 -0.23681544 -0.18284726
 -0.91856015 -0.8350684  -0.71214163  0.04199264 -0.8299587  -0.88106436
 -0.72313786 -0.79616934 -0.4390056  -0.03125179 -0.7497088  -0.8361938
 -0.03255438  0.07814836 -0.34635127 -0.9086933  -0.39822832 -0.19503644
 -0.66708577 -0.21082065 -0.12077482 -0.3462486  -0.66927767 -0.08480199
 -0.7672412  -0.56547636 -0.70377666 -1.0716645  -0.7619508  -0.04129515
 -0.767922   -0.45520034 -0.78868884 -0.6845312  -0.8833762  -0.6698938
 -0.51778316 -0.5956373  -0.7400764  -0.5563276  -0.7423912  -0.00668774
 -0.874366   -0.90722495  0.12625554 -0.8930367  -1.0967685  -0.6918741
 -0.69337696 -0.7338117  -0.35857415 -0.64263016 -0.8330501  -0.60990214
 -0.5365573  -0.7708191  -1.0227882  -0.6998241  -0.08015399 -0.6190473
 -0.81534547 -0.87044775 -0.21400124 -0.88784593 -0.6538407  -0.76898384
 -0.8273668  -0.22411895 -0.32566994 -0.46634707 -0.9020888  -0.423592
 -0.77661616 -0.8415188  -0.67230874 -0.08824722 -0.6762428  -0.5768517
 -0.9401669  -0.82463    -0.7197149  -0.63863057 -0.93351716  0.00547383
 -0.24015918 -0.77486724 -1.008263   -0.17517136 -1.006953   -0.31324157
 -0.8528893  -0.5794009  -0.7690366   0.04287001 -0.13227934 -0.9163311
 -0.61751217 -1.0235108  -0.07964344 -0.9557439  -0.71256673 -0.0762472
 -0.45266727 -0.7924328   0.1492504  -0.6831541  -0.8871782  -0.30706748
 -0.8381385  -0.81434864 -0.84753406 -0.81008875 -0.56549823 -0.16617227
 -1.0238291  -0.7747533  -0.92141753 -0.23437418 -0.0903198  -0.83095527
 -0.82899576 -0.30107933 -0.14636865 -0.73116994 -0.8843988  -0.7413866
 -0.8701394  -0.8341823  -0.7944589  -1.039573   -0.9051488  -0.9041792
 -0.6629518  -0.5967005  -0.6754966  -0.85692    -0.8621829   0.01365661
 -0.64368105 -1.0362009  -0.271004   -0.817709   -0.70297545 -0.13181227
 -0.49656975 -0.7822542  -0.44989824 -0.9117265  -0.5413074  -0.3290768
 -0.17156903 -0.5078986  -0.5709898  -0.54301906 -0.6672994  -0.61566657
 -0.7723474  -0.4671093  -0.7859559  -0.77455586 -0.57440645 -0.9785546
 -0.71153015 -0.6838403  -0.20725164 -0.05586844 -0.95218277 -0.6776278
 -0.4055131  -0.7645225  -0.68555623 -0.12571046 -0.5926385  -0.29256848
 -0.40541732 -0.6338356   0.00382923 -0.5851078  -0.1337237  -0.75539505
 -0.8434968  -0.94876003 -0.7517924  -0.7513023  -0.5742935  -0.8836074
 -0.63628405 -0.3610489  -0.3382404  -0.8180529  -0.84051824 -0.6839424
 -0.17863336 -0.09468661 -0.7683546  -0.6140037  -0.79782397 -0.38364947
 -0.52361906 -0.6462779  -0.072221   -0.49279648  0.05597411 -0.8424787
 -1.0044131  -0.4676327  -0.19364105 -0.7692928  -0.8376187  -0.9990521
 -0.38067025 -0.48947832 -0.6505259  -0.43814164 -0.6430203  -0.15885611
 -0.89668095 -0.82668483 -0.75749695 -0.75455225 -0.6692302  -0.2322688
 -0.24299194 -0.8240918  -0.12727576 -0.05440057 -0.21541078 -0.86902124
 -0.66416585  0.00515484 -0.7206154  -0.11573905 -0.76482666 -0.933541
 -0.6789362  -0.1685483  -0.8548498  -0.9213074  -0.8068084  -0.7046387
 -0.7533483  -0.8935145  -0.34010848 -0.1309    ]
[ 3.36803615e-01  2.36452326e-01  1.09217584e-01 -9.16492119e-02
 -1.01299388e-02 -1.90055549e-01  2.20745742e-01  3.75913866e-02
  9.80666056e-02 -4.46917415e-02  1.65428162e-01  2.08902240e-01
  6.68982938e-02 -4.33828533e-02 -7.15073571e-02 -3.12616706e-01
 -7.87477195e-02 -1.50844648e-01  1.97009593e-02  1.29186809e-02
  5.30479895e-03  1.59789741e-01  3.49032693e-02 -1.28373682e-01
  3.32205802e-01  1.76885709e-01 -1.34190798e-01 -6.50896728e-02
 -1.66284621e-01  4.51626703e-02  1.41625879e-02 -8.84198174e-02
  1.46594867e-01  7.42271617e-02  2.38080770e-02  1.15804210e-01
 -1.57552153e-01  3.61350141e-02 -2.47770865e-02 -3.54522690e-02
 -1.35783136e-01  7.15788379e-02 -2.81033851e-02  3.89293171e-02
  4.02788520e-02  1.25319615e-01  1.17264375e-01 -3.03890221e-02
 -1.22888625e-01  1.08330756e-01  5.36652729e-02 -3.00444160e-02
 -1.39236096e-02  6.01091571e-02  2.33255923e-02 -5.66243604e-02
 -1.82582542e-01 -4.83368058e-03 -9.77760460e-03  1.03593484e-01
  9.56954900e-03 -3.04125785e-03 -1.03155680e-01 -1.86338555e-03
 -8.96203741e-02  1.06746942e-01 -6.95424527e-02 -1.74205184e-01
 -1.13463746e-02  3.08210198e-02  1.57701388e-01  3.86330970e-02
 -9.26623642e-02 -4.13067304e-02 -1.13049619e-01  3.57955135e-02
 -1.43432438e-01 -1.86127778e-02 -1.60368122e-02  2.10437119e-01
  1.04334034e-01  1.28140807e-01 -1.53721711e-02 -1.66330442e-01
 -1.85908005e-02  1.95761770e-01 -1.18181810e-01  3.72272125e-03
 -4.50768881e-03 -3.05035058e-02 -4.50886972e-02 -2.05407441e-02
 -1.38250485e-01 -1.56519651e-01  1.10247442e-02  1.32312939e-01
 -1.05576329e-01  1.73590913e-01 -8.15885291e-02  1.14275336e-01
  6.45433972e-03  1.30945742e-01 -1.67208686e-01 -1.41572729e-01
 -1.22551508e-01  8.46593976e-02 -3.96507885e-03  3.83831486e-02
 -5.09277396e-02  2.35049166e-02  2.76830699e-02  8.80427733e-02
 -1.37645029e-03 -5.60618304e-02 -3.84007432e-02  1.53635502e-01
  2.98930913e-01 -1.29916504e-01 -1.66986853e-01 -2.65556071e-02
 -4.22743857e-02 -4.11822535e-02  1.34948000e-01  1.23358347e-01
  4.41162512e-02 -1.44928440e-01  4.82163802e-02  1.17575102e-01
  3.49160358e-02 -9.99476835e-02  3.04769203e-02 -7.73628131e-02
 -6.62744567e-02  8.44313204e-02  1.99098722e-03 -8.74269530e-02
  1.06023587e-01 -7.80853629e-02 -1.25745067e-03 -7.72009930e-03
  2.48733714e-01 -2.67665964e-02  1.03066891e-01 -6.49044439e-02
  2.57822443e-02  7.10784132e-03 -2.02464708e-03 -4.65874523e-02
  8.40543509e-02  5.09906374e-02  1.86048076e-01  9.76140127e-02
  1.56809568e-01  6.59121126e-02 -2.69136913e-02 -9.95313283e-03
  1.23828501e-01 -2.67603397e-02  8.71396735e-02  6.59139156e-02
 -6.70855641e-02  7.84260705e-02  1.13586612e-01 -1.21250868e-01
 -8.30795094e-02  3.11812371e-01 -1.73314601e-01 -3.90776172e-02
 -1.81655169e-01 -2.68026382e-01  1.00081012e-01 -1.30563155e-01
  4.06910069e-02 -3.55277327e-03  2.64164433e-02 -2.02963632e-02
  7.62047023e-02 -5.11362791e-01  3.47774699e-02 -9.15729031e-02
 -3.49836163e-02 -1.45506812e-02 -1.22457054e-02 -5.97028848e-05
 -8.38364102e-03  1.48796886e-01  4.11408916e-02 -9.70905572e-02
  1.32664725e-01 -6.99037388e-02  4.56214011e-01  3.78959328e-02
 -7.00553134e-02  2.70223077e-02  2.06993036e-02 -2.04528421e-02
 -1.49696514e-01  4.93832491e-02  1.63614407e-01 -3.91513586e-01
 -4.97593805e-02  5.00472672e-02 -5.30539230e-02  1.80658586e-02
 -1.76849868e-02  4.53803353e-02 -2.41382513e-02  1.03452131e-02
  1.25234313e-02 -6.18517920e-02  1.00752078e-01 -3.80015858e-02
  1.11876942e-01 -8.67817327e-02  1.69016168e-01 -8.76110271e-02
  1.10034667e-01 -2.33673882e-02  1.80868819e-01  9.43356603e-02
  5.75997913e-03 -6.59354255e-02 -9.91062745e-02 -4.88694012e-03
 -1.61746129e-01  3.30213383e-02  7.16100819e-03 -1.74024105e-01
 -4.60938364e-02 -3.80667448e-02 -3.19409966e-02  9.03820619e-02
  1.75245285e-01 -8.78382996e-02  3.53676975e-02 -1.13774695e-01
  1.08350538e-01  3.00001562e-01 -2.54791919e-02 -5.59188128e-02
 -6.14388473e-02 -3.89815904e-02  7.12825805e-02  4.77416348e-03
 -3.86108644e-02  1.10571302e-01  1.31908819e-01  1.35471951e-02
  1.22773916e-01 -1.60982423e-02 -6.54413253e-02 -1.87629070e-02
  1.41709968e-01  6.67093182e-03  8.20662975e-02 -6.66173249e-02]
[-1.38942063e-01 -1.53232008e-01 -5.11742346e-02 -3.12615815e-03
  2.07096010e-01  3.68610537e-03 -1.55873209e-01 -1.46649122e-01
  6.35281280e-02 -2.72603389e-02 -1.33936211e-01 -1.48066998e-01
  9.55780372e-02 -1.16993323e-01  1.19948104e-01  1.18898042e-01
 -5.27227558e-02  3.78992185e-02 -2.19920337e-01 -1.60187557e-01
  6.67648297e-03 -1.83063269e-01  2.23070800e-01  1.14146203e-01
 -1.89975083e-01 -1.92999259e-01 -2.43730028e-03  1.39214560e-01
  6.60092244e-03  3.82286906e-02  1.05236560e-01 -2.78456658e-01
 -2.37867702e-02  8.32900479e-02 -1.63058862e-02  2.15306189e-02
 -8.65795463e-02 -9.87553317e-03  9.34653506e-02 -7.77046978e-02
  1.01553626e-01  4.28741984e-02  9.55250636e-02 -4.23915125e-02
 -8.31724424e-03 -8.90526474e-02 -8.05045292e-02  1.23956807e-01
 -1.22814653e-02 -3.04703489e-02 -7.87714496e-02  4.62853238e-02
  1.14007249e-01  2.87106577e-02 -1.82137173e-02 -4.36354801e-02
 -1.49550289e-02  7.04210699e-02 -2.99570411e-02 -1.97227933e-02
  6.66173100e-02  1.55783266e-01  6.42589554e-02 -5.90386204e-02
 -9.52526331e-02  8.57598111e-02  5.80871813e-02  6.70481566e-03
  3.69663052e-02 -5.85161820e-02 -1.61946058e-01  8.03447068e-02
  3.22682671e-02 -2.47458257e-02 -9.64623317e-03  5.98077998e-02
  1.32039487e-01  2.86722600e-01  1.81756794e-01 -1.63287774e-01
  8.50024894e-02  4.22523730e-02 -4.23751213e-02  2.41597489e-01
  1.06587470e-01 -7.37427846e-02  3.24066654e-02 -7.32028708e-02
 -1.95801649e-02 -2.87185274e-02 -1.62315592e-02  7.64669180e-02
 -1.81818053e-01  1.11297511e-01 -2.01466773e-03 -2.16963783e-01
  2.94274241e-02  1.14968173e-01  5.15617151e-03  8.96084458e-02
  2.35676765e-02 -1.49093702e-01  2.16581523e-02 -1.73727691e-01
  2.55226111e-03 -1.65100619e-01 -4.87795584e-02  3.57150093e-05
  1.25203077e-02 -5.70191443e-02  1.18379205e-01  5.06354868e-03
 -6.17200099e-02  4.43249978e-02  5.87667078e-02  8.43824670e-02
 -1.50056839e-01  7.08110854e-02 -1.61135066e-02  1.07059054e-01
  6.38166144e-02 -1.27368465e-01 -1.01895137e-02  1.93480730e-01
 -2.16364842e-02  1.57822505e-01 -3.65392468e-03 -5.19130677e-02
 -5.16140508e-03  2.19510123e-02 -5.28358370e-02  5.06847762e-02
  2.90947020e-01 -1.30394716e-02  4.91600530e-03 -1.07820511e-01
  1.92742914e-01  1.46034017e-01  1.96725950e-01 -5.77814237e-04
 -1.31325869e-04  4.42243963e-02  9.09319371e-02 -5.04624359e-02
  2.52506137e-03  6.74950108e-02  6.88122166e-03  2.38135792e-02
  5.43449596e-02  9.69737619e-02 -5.42119928e-02 -7.60868415e-02
 -3.47879261e-01 -3.86019684e-02 -3.27112861e-02 -2.30589807e-02
 -1.18012689e-01 -1.79987941e-02  2.01139525e-02  5.40351905e-02
 -8.98974910e-02 -1.04960255e-01 -6.03374317e-02 -1.80685930e-02
  3.15017439e-02  7.01433644e-02  9.87923890e-02  8.05744678e-02
 -1.10615835e-01  1.09146042e-02  4.29365933e-02  1.19177572e-01
  1.58659950e-01  7.78452819e-03 -5.58153465e-02  7.15576112e-02
 -6.97364509e-02  1.17817938e-01  4.96003851e-02  1.93351108e-04
 -6.57657236e-02 -5.41514950e-03  4.42005554e-03 -4.03751656e-02
  4.59772199e-02 -7.53140152e-02 -1.69010565e-01  2.63285101e-03
 -6.08304441e-02  8.20806324e-02 -1.02932751e-01 -1.04015835e-01
 -1.99536905e-02  6.23429790e-02  4.77811396e-02 -8.16470012e-02
  9.55150127e-02 -1.09066600e-02  4.31027822e-02  1.50993064e-01
  1.11884205e-02  6.29899129e-02  9.79626477e-02  1.97116673e-01
 -2.60821823e-02 -2.21317261e-01 -5.52533865e-02  8.92127398e-03
  2.60358937e-02 -1.93085372e-01  2.97698472e-02  8.72404277e-02
 -1.29954502e-01 -3.27218994e-02 -1.57993406e-01  4.36102934e-02
 -3.71814929e-02 -3.79067170e-03 -1.46470755e-01  2.88142171e-02
 -2.79333144e-02  6.03149422e-02  2.31632628e-02  8.88248459e-02
  1.83028847e-01  4.51991782e-02 -5.95700480e-02  6.20989427e-02
  8.54955167e-02  3.24408635e-02 -3.45348530e-02  1.12120315e-01
  6.78898534e-03  7.36801550e-02 -1.21038936e-01 -3.71918757e-03
 -4.82153036e-02 -2.44785532e-01  6.15455136e-02  4.06165197e-02
  1.15112893e-01 -3.21651131e-01  1.06968455e-01  3.22630033e-02
  4.11630496e-02  2.72661597e-02  5.45851979e-03  1.07760079e-01
  5.58541976e-02  1.13334872e-01 -2.94839125e-02 -9.82580855e-02
 -4.05003950e-02  9.45033059e-02  8.13994408e-02  8.14976618e-02]
[-1.26654789e-01 -5.69582582e-02 -1.68124139e-01 -7.68541470e-02
 -1.22721598e-01 -5.46480775e-01 -3.16825807e-02 -2.50913501e-01
 -3.25017542e-01 -1.75872131e-03 -1.11276703e-02 -9.05629918e-02
 -3.52508724e-01 -2.88123280e-01 -1.98204055e-01  1.22112513e-01
 -3.22109789e-01  2.22859289e-02 -1.01712517e-01 -1.27251878e-01
 -1.02163762e-01 -4.89196509e-01 -3.10019314e-01 -1.70074537e-01
 -1.71031624e-01 -4.64885324e-01 -4.56398487e-01 -4.36888374e-02
  3.35178673e-02 -5.95318824e-02 -6.85280636e-02  1.37185678e-04
 -3.86215672e-02 -3.01846042e-02 -1.17961727e-01  3.25227738e-03
 -5.25635183e-01 -5.84210515e-01 -2.37385675e-01 -4.54702407e-01
 -4.02146101e-01 -1.02580599e-01 -3.20514679e-01  1.44079598e-02
 -4.88696694e-01 -5.71679592e-01 -5.24259925e-01 -5.22779405e-01
 -2.80663490e-01 -8.20954368e-02 -3.47315282e-01 -2.14970738e-01
  3.29812840e-02 -6.27661705e-01 -4.58008736e-01 -1.40513033e-01
 -5.05337454e-02 -8.41533318e-02 -4.72961426e-01 -5.25481582e-01
 -3.45783561e-01 -2.56945305e-02 -1.96974158e-01 -5.88551819e-01
  3.63895670e-02 -3.44260484e-01 -5.02610743e-01 -3.25143784e-01
 -3.70186955e-01 -4.21880722e-01 -7.84270242e-02 -9.84317362e-02
 -2.91815281e-01  4.12417091e-02 -2.44707361e-01 -2.27547556e-01
 -4.55686778e-01 -5.32528043e-01 -2.06610598e-02 -3.60549390e-02
  3.29193845e-02 -4.83313143e-01 -3.39367449e-01 -3.18180621e-02
 -1.88994959e-01 -3.50389212e-01 -1.46038204e-01 -1.35582844e-02
 -2.99333572e-01 -1.09389789e-01 -2.98937351e-01 -6.44626170e-02
 -2.75419116e-01 -2.47779414e-01 -1.36057734e-01 -1.83920205e-01
 -2.86052257e-01 -1.12300463e-01 -4.03237104e-01 -2.12435484e-01
 -3.20673943e-01 -1.08809501e-01 -5.58061711e-03 -4.06230778e-01
 -1.43143296e-01 -1.31261960e-01 -4.73579824e-01 -2.71674901e-01
 -2.72687316e-01  3.26167257e-03 -4.71073717e-01 -2.83449888e-01
 -4.14022416e-01  2.84886658e-02 -3.05427611e-01 -3.69014442e-01
 -1.10849813e-01  1.03510015e-01 -3.79049748e-01 -8.43594521e-02
 -1.51330251e-02 -3.05516481e-01 -4.82605994e-01 -4.50871550e-02
  1.92080520e-03  8.13842937e-03 -4.82323617e-01 -2.65086174e-01
 -4.12168056e-01 -3.78157884e-01  6.34601153e-03 -5.52383214e-02
 -1.92499440e-02  9.26376134e-03 -2.12228492e-01 -4.29656237e-01
 -2.77006567e-01  1.13008553e-02 -2.66394317e-01  2.94462033e-02
 -4.29839790e-01 -4.58990395e-01 -4.63634908e-01 -2.29524657e-01
 -4.11916703e-01  4.41115275e-02 -4.73047584e-01 -3.63605618e-01
 -5.63471857e-03 -2.85119176e-01 -2.98583657e-02 -3.06471139e-01
  1.10202460e-02 -1.08443089e-01 -4.13978845e-01 -1.60100281e-01
 -3.64872575e-01 -3.60194355e-01 -3.99050176e-01 -3.43274653e-01
 -1.37281716e-01  5.08099794e-02 -4.15294021e-01 -1.02393590e-01
 -8.48164037e-02 -4.59046125e-01 -2.29744345e-01 -1.06132150e-01
 -2.72098035e-01  2.21794248e-02 -5.55954158e-01 -9.88809317e-02
 -3.54665130e-01 -5.71206808e-01 -7.91985169e-02 -4.52415973e-01
 -1.09562933e-01  1.26351133e-01 -5.25153458e-01 -2.66008645e-01
 -4.24294558e-04 -5.00557482e-01 -3.65223765e-01 -1.53389752e-01
 -5.17348647e-01 -5.76329194e-02 -1.90523461e-01 -6.03005886e-01
 -5.59124470e-01 -5.24909422e-02 -1.40661180e-01  1.46542001e-03
 -5.47949970e-02 -3.68298471e-01 -3.57531935e-01 -3.16569805e-01
 -5.67246489e-02 -2.43792370e-01 -4.27222967e-01  1.56805456e-01
  1.00547271e-02 -1.05076291e-01 -1.13460392e-01 -3.14405352e-01
  5.05638728e-03 -2.54023336e-02 -1.92511618e-01 -6.12537086e-01
 -4.50399369e-01 -1.82185844e-01  7.29792342e-02 -9.62826833e-02
 -5.78114808e-01 -1.23551033e-01  6.77020103e-02  3.40755694e-02
 -1.47216976e-01  3.98151837e-02 -8.17403104e-03 -1.83057472e-01
 -4.83045667e-01 -5.44429570e-02 -2.56185412e-01 -5.92226565e-01
 -5.67252375e-02 -7.48340935e-02 -2.65359610e-01 -1.08293548e-01
 -3.69882792e-01 -5.23688138e-01 -4.78010893e-01 -3.60332012e-01
 -7.24045709e-02 -1.09256908e-01 -5.16790710e-02  2.92850435e-02
 -2.90766265e-02 -9.85205360e-03 -1.86993062e-01  8.97902623e-03
 -2.24345885e-02  8.25138204e-03  3.11774015e-02 -1.91561673e-02
 -4.53049809e-01 -4.30299133e-01 -7.03308508e-02  1.22535164e-02
 -3.61551493e-01 -4.75514740e-01 -4.41181898e-01 -1.48683518e-01
 -7.07100570e-01 -5.01748383e-01 -1.02367923e-01 -2.28957720e-02]
[-4.14797701e-02 -4.61796345e-03 -1.01876743e-01 -1.06309617e+00
 -7.60007858e-01 -1.16427445e+00 -1.17246406e-02 -5.36556125e-01
 -8.74378085e-01 -1.07172370e+00 -1.04454540e-01 -1.18988988e-04
 -1.00918221e+00 -9.89584506e-01 -9.56253707e-01  6.82141678e-03
 -1.31367934e+00 -4.26570296e-01 -2.25692585e-01 -1.14385664e+00
 -5.89728475e-01 -5.45125663e-01 -5.40446818e-01 -1.12638319e+00
 -7.01497367e-04 -7.65752941e-02 -9.43934843e-02 -9.54261839e-01
 -4.71373573e-02 -5.33173859e-01 -1.13136435e+00 -8.95084888e-02
 -8.39660391e-02 -1.71117604e-01 -1.04320037e+00 -8.73435810e-02
 -1.10777056e+00 -9.87902343e-01 -9.04730916e-01 -8.41069520e-01
 -7.94842482e-01 -8.30596313e-02 -1.16716480e+00 -4.99706939e-02
 -4.64320779e-01 -7.96422780e-01 -7.26780057e-01 -1.19477773e+00
 -5.63334525e-01 -1.23298955e+00 -1.09503150e+00 -7.50962675e-01
 -9.54168141e-01 -6.58719540e-01 -8.41006219e-01 -9.97132838e-01
 -1.12753414e-01 -8.08216512e-01 -9.41047370e-01 -9.37081814e-01
 -2.64729619e-01 -1.23087294e-01 -6.92833006e-01 -1.10452437e+00
 -1.06955564e+00 -8.33819628e-01 -8.40880632e-01 -7.13463306e-01
 -1.01554108e+00 -1.06770611e+00 -3.37418430e-02 -3.42844486e-01
 -1.10030508e+00 -9.90989745e-01 -2.51042873e-01 -6.96787000e-01
 -7.89911211e-01 -1.15550923e+00 -6.59583628e-01 -1.12049477e-02
 -1.06139198e-01 -6.12744451e-01 -1.08016014e+00 -4.14785802e-01
 -8.65002453e-01 -7.17989743e-01 -7.25552619e-01 -3.60544957e-02
 -9.80927348e-01 -1.03365278e+00 -1.11811650e+00 -6.91001832e-01
 -1.02661645e+00 -1.02617860e+00 -1.35868415e-01 -5.81909157e-02
 -1.69067785e-01 -2.80827582e-01 -1.03648531e+00 -4.09973860e-01
 -1.04986620e+00 -1.14472926e-01 -9.20887053e-01 -1.04927790e+00
 -1.14860988e+00 -2.10595485e-02 -6.80131674e-01 -1.14280891e+00
 -1.07542706e+00 -9.14556086e-01 -3.37463617e-01 -7.61215031e-01
 -1.17248797e+00 -1.11324146e-01 -1.03590989e+00 -4.97920007e-01
 -1.63727291e-02 -3.46278667e-01 -9.38077211e-01 -5.35333492e-02
 -8.82851243e-01 -1.08124173e+00 -1.25405669e+00 -9.45609748e-01
 -1.41340598e-01 -9.19112638e-02 -1.20725381e+00 -8.01982045e-01
 -1.22970796e+00 -2.31741786e-01 -7.06813931e-02 -6.01819575e-01
 -5.55093288e-01 -1.82074949e-01 -5.36798537e-01 -9.95343685e-01
 -1.40113056e+00 -8.58524859e-01 -3.84678006e-01 -1.24000037e+00
 -9.31555867e-01 -5.80674112e-01 -7.90462554e-01 -7.55233347e-01
 -8.83198261e-01 -5.96602082e-01 -1.08706784e+00 -7.74560750e-01
 -8.90605032e-01 -6.91482604e-01 -5.79313457e-01 -7.30670154e-01
 -1.00808581e-02 -1.06062353e+00 -8.07268381e-01 -3.91852222e-02
 -1.05822563e-01 -1.36102414e+00 -5.30342102e-01 -1.13139772e+00
 -9.42154825e-01 -1.31626502e-01 -1.38492852e-01 -1.05617046e+00
 -6.04977727e-01 -7.01465607e-01 -9.35521245e-01 -8.31274331e-01
 -1.08976829e+00 -6.66909516e-01 -9.85325158e-01 -7.63613224e-01
 -1.08592463e+00 -1.16762626e+00 -1.03981197e+00 -1.14635730e+00
 -1.11805134e-01  2.68422365e-02 -1.00275290e+00 -1.12281322e+00
 -7.44571149e-01 -1.14940536e+00 -1.03288639e+00 -7.85530359e-02
 -2.94158578e-01 -1.81678101e-01 -6.28975570e-01 -1.00478363e+00
 -7.56442770e-02 -1.10877946e-01 -1.91328004e-02 -1.16074550e+00
 -1.07114363e+00 -8.15225303e-01 -1.05171144e+00 -7.65249789e-01
 -9.18958306e-01 -1.04599261e+00 -9.52732921e-01  2.14598905e-02
 -5.89296408e-02 -1.21634829e+00 -1.39180005e+00 -1.33547866e+00
 -5.46864755e-02 -1.53957829e-01 -8.32569659e-01 -3.39501143e-01
 -9.86401021e-01 -6.62058830e-01 -7.01899469e-01 -1.29825532e+00
  8.11833329e-03 -5.26416600e-01 -1.44996624e-02 -9.51779246e-01
 -1.15652001e+00 -9.54803079e-02 -7.77966902e-02 -1.18983948e+00
 -8.48521590e-01 -1.03631413e+00 -5.60893595e-01 -6.59607649e-01
 -1.85168862e-01 -4.96465147e-01 -1.10746765e+00 -1.44272134e-01
 -9.10895705e-01 -1.22279298e+00 -1.00548792e+00 -1.12367690e+00
 -4.18452382e-01 -1.95241109e-01 -1.30118966e-01 -1.32177734e+00
 -5.90899959e-02 -7.06081241e-02 -9.41736400e-02 -1.08901620e+00
 -1.18281949e+00 -6.07704148e-02 -2.91926652e-01 -1.32259792e-02
 -1.06313658e+00 -9.93727267e-01 -3.95034760e-01 -4.27941456e-02
 -9.48402286e-01 -1.22068417e+00 -7.63124645e-01 -6.45505428e-01
 -3.43616575e-01 -8.99874747e-01 -7.87237845e-03 -1.04038939e-01]
[-0.06404535  0.02383254 -0.02466271 -0.1364593   0.07772577 -0.17615636
  0.0292037  -0.05652306 -0.13839073  0.05624525 -0.02675533 -0.06841025
 -0.3569915  -0.02055812 -0.15175165 -0.21671057 -0.13587518 -0.05142153
 -0.09667824 -0.07994924 -0.02078693 -0.11293557 -0.06828558 -0.19260927
  0.07258403 -0.06934151 -0.27441102 -0.02385593 -0.07370617  0.03289101
 -0.16291301 -0.1345679  -0.05778183  0.04412561 -0.2347958  -0.11831956
 -0.34947225  0.10481711 -0.11057064 -0.11684337 -0.12301658 -0.02195048
 -0.1809911   0.0807007  -0.1448009   0.021249   -0.01000024  0.01995796
  0.07931574 -0.40433598 -0.41368204 -0.2599085   0.02249267  0.00686977
 -0.1223891  -0.34297186 -0.18255548  0.02093506 -0.30870986 -0.2566857
 -0.03043221  0.0613076  -0.08770759  0.21116655  0.05773148  0.00090951
 -0.058344   -0.22408244 -0.16716172 -0.06190335  0.06322919 -0.04968057
 -0.40242797 -0.17806128 -0.04047477 -0.23155877 -0.09475276  0.11212413
  0.00215946 -0.09967574 -0.08964957 -0.01021243 -0.22752427  0.14685482
  0.12152435 -0.11450308  0.07933062  0.09387565 -0.22676063 -0.5042934
  0.0331747  -0.04749415 -0.17518541 -0.4602648  -0.04502319  0.08612823
 -0.03465357 -0.07103669  0.07623459  0.08905051  0.07377059 -0.03561618
  0.00875206 -0.15771206 -0.07677634  0.0113228  -0.00194318 -0.11699726
  0.00259065 -0.1604234  -0.10510278 -0.05277035 -0.20062451 -0.13902637
 -0.31987345  0.04029892 -0.03175464  0.02910885 -0.01932782 -0.1640398
  0.05532216 -0.14957523 -0.21800727  0.01779579 -0.09483521  0.00095651
 -0.1850287  -0.04983267 -0.23414446  0.04627826 -0.00326834  0.00236641
  0.07343167  0.01507102 -0.00344482 -0.0309545  -0.2986449  -0.08888013
 -0.02433755 -0.4153138  -0.0089263  -0.02463418  0.05329664 -0.00396257
 -0.10456171 -0.01498826 -0.12605427 -0.25433317 -0.10228346 -0.21759632
 -0.05346493 -0.05994571  0.01685881 -0.35687542 -0.2895861  -0.1843452
  0.03594111 -0.14946131 -0.03738314 -0.0704324   0.01828039  0.10015559
 -0.08668134 -0.0659283  -0.40175396  0.09856807 -0.15489198 -0.06328941
 -0.19534555 -0.05867405 -0.03235151 -0.22566448  0.01175802 -0.02330733
  0.02131804  0.09304509 -0.00118465 -0.12661104 -0.1373991  -0.23289876
 -0.05012158  0.20108141 -0.37059134 -0.17263493 -0.11030797  0.04092454
 -0.00431038  0.01810366  0.09011166 -0.00598036  0.0775907  -0.34485868
 -0.2161968  -0.23033947 -0.27999547  0.0600792  -0.26042324 -0.18867001
 -0.02047114 -0.16603084 -0.1304508  -0.27683738  0.06763253 -0.20916376
 -0.1296388  -0.05082571 -0.02426498 -0.04725007  0.19724369 -0.09509891
 -0.06315931  0.10749865 -0.11931575  0.0176993  -0.01854712 -0.29117522
 -0.09289819 -0.09509984 -0.02275565 -0.21827564  0.09701896 -0.04000909
  0.02521481  0.011466   -0.14552046  0.01236653 -0.16029604 -0.08106676
 -0.17656037 -0.29935586 -0.08358149  0.07904234  0.06989478 -0.02189958
 -0.04211417  0.06207855 -0.00553409 -0.07696916 -0.14647764  0.05912136
 -0.10086484 -0.09988315  0.05323228 -0.00975803 -0.04165625 -0.01646157
 -0.07228014 -0.08815644 -0.15599886 -0.13544483 -0.2103897  -0.13686745
 -0.00612729 -0.21110067 -0.00056696  0.07241179]
[-0.0183486  -0.10671273 -0.11971734 -0.2879661  -0.28584155 -0.39314866
 -0.03500497 -0.44331047 -0.266916   -0.362391   -0.18195799 -0.01843148
 -0.26218534 -0.37893057 -0.3361875   0.04349183 -0.27933067 -0.5808212
 -0.3828199  -0.37177154 -0.29848856 -0.4857018  -0.44463214 -0.2534682
 -0.0361321  -0.0564038  -0.55720156 -0.44469997 -0.58124983 -0.5228814
 -0.2299743  -0.18524371 -0.3545695  -0.5223301  -0.31753144 -0.2677704
 -0.39261088 -0.13405481 -0.46748248 -0.45817634 -0.0406013  -0.5672391
 -0.2611183  -0.7298292  -0.3456014  -0.23499711 -0.381149   -0.28727147
 -0.12598668 -0.35562375 -0.3314471  -0.27922416 -0.30704093 -0.5178753
 -0.19973959 -0.30026188 -0.8637299  -0.1911511  -0.29855362 -0.48808014
 -0.56501746 -0.92656165 -0.4514181  -0.37547466 -0.48112702 -0.36078227
 -0.24839813 -0.30839196 -0.21452716 -0.21655414 -0.09838162 -0.39876884
 -0.36298174 -0.23560639 -0.6321641  -0.26162118 -0.18377723 -0.24797699
 -0.31427035 -0.07163578 -0.6694203  -0.46588615 -0.21866582 -0.46406868
 -0.20514484 -0.23530568 -0.35179538 -0.31453982 -0.23068365 -0.37969995
 -0.34747267 -0.42270648 -0.31686783 -0.3473753  -0.35071865 -0.08209404
 -0.793949   -0.50040054 -0.28428075 -0.61716336 -0.30964407 -0.5206356
 -0.4394974  -0.22300403 -0.32810822 -0.0187223  -0.428606   -0.2952694
 -0.36384538 -0.42962244 -0.4421042  -0.24898373 -0.35040784 -0.7555158
 -0.2367116  -0.28647184 -0.03914448 -0.4763949  -0.30224827 -0.88278544
 -0.34701028 -0.44671354 -0.43896618 -0.37261096 -0.6014556  -0.5845629
 -0.27830747 -0.30296084 -0.32457525 -0.7153342  -0.67509013 -0.5316522
 -0.47611746 -0.1680805  -0.35849324 -0.36389095 -0.49303553 -0.337927
 -0.35550746 -0.18249105 -0.27454937 -0.22920433 -0.29724106 -0.34806317
 -0.4570628  -0.42344716 -0.2678833  -0.29281026 -0.16504058 -0.30248317
 -0.46875387 -0.2616124  -0.12536341 -0.2720939  -0.24115932 -0.37795353
 -0.70232224 -0.4253913  -0.13562633 -0.3421492  -0.33211038 -0.34404117
 -0.62516814 -0.4106991  -0.3542183  -0.28554758 -0.31449288 -0.49851418
 -0.24147353 -0.5092169  -0.24833146 -0.39894664 -0.28719833 -0.26524428
 -0.3655192  -0.31883952 -0.58341444  0.03656118 -0.3561808  -0.17184247
 -0.38515666 -0.28261778 -0.22671834 -0.8207625  -0.5173855  -0.4447129
 -0.20790853 -0.5974158  -0.12699112 -0.7812052  -0.0471274  -0.2836763
 -0.23407555 -0.32303974 -0.36812177 -0.5446527  -0.2606097  -0.2513908
 -0.40726388  0.03991276 -0.8182035  -0.46133777 -0.3737723  -0.39522234
 -0.77197474 -0.4263075  -0.17354748 -0.63140875 -0.53192216 -0.21643344
 -0.4686813  -0.18925713 -0.22913067 -0.5792967  -0.08900035 -0.27999064
 -0.30316326 -0.70555073 -0.13900198 -0.29894012 -0.33098865 -0.54069084
 -0.19313097 -0.33532295 -0.7092444  -0.3824003  -0.21573065 -0.7416581
 -0.2996531  -0.39053452 -0.36863703 -0.22358374 -0.46614772 -0.6343998
 -0.7057352  -0.41579568 -0.07131343 -0.03620617 -0.9072527  -0.18407136
 -0.3096751  -0.18122937 -0.3393212  -0.8903193  -0.33874696 -0.4265742
 -0.48780325 -0.26075232 -0.27001128 -0.39501354 -0.236151   -0.16510849
 -0.3662463  -0.283005   -0.81913704 -0.7961645 ]
[-1.03555620e-02 -7.61178955e-02 -7.74704292e-02 -5.93929529e-01
 -5.27225912e-01 -5.75962961e-01 -1.42345224e-02 -7.53611684e-01
 -7.31686890e-01 -4.34456795e-01 -1.43543527e-01 -5.88686252e-03
 -5.53351581e-01 -6.79644108e-01 -4.38647658e-01  3.51689011e-02
 -5.89197516e-01 -7.47305334e-01 -6.10594273e-01 -5.17512262e-01
 -7.78345346e-01 -5.43348491e-01 -5.15080810e-01 -7.26421773e-01
 -1.07922629e-02  1.62923876e-02 -6.16577752e-02 -4.79921550e-01
 -3.18986386e-01 -4.11390841e-01 -7.84949660e-01 -1.87281743e-01
 -1.93846881e-01 -4.84784007e-01 -8.17307413e-01 -2.24955902e-01
 -7.02307284e-01 -5.34379244e-01 -5.81284583e-01 -6.50001228e-01
 -4.90821451e-01 -2.82963872e-01 -6.59241617e-01 -5.00407219e-01
 -3.97080034e-01 -3.87135565e-01 -8.04912031e-01 -6.40079141e-01
 -5.33561468e-01 -6.86753631e-01 -9.77490783e-01 -5.96345425e-01
 -5.40344238e-01 -6.62102520e-01 -5.40069878e-01 -7.76325583e-01
 -3.57999057e-01 -5.49343467e-01 -5.99954426e-01 -6.75219953e-01
 -5.37642777e-01 -6.30751252e-01 -6.82439089e-01 -5.50600469e-01
 -7.86581278e-01 -5.95974863e-01 -7.19170094e-01 -5.62272906e-01
 -5.33871889e-01 -4.75659668e-01 -6.08034432e-02 -7.29580879e-01
 -5.10978758e-01 -5.98937869e-01 -4.83461469e-01 -7.15285122e-01
 -7.50342846e-01 -6.74816191e-01 -6.75557733e-01 -9.61140096e-02
 -3.42148423e-01 -7.01134622e-01 -8.13069463e-01 -4.72968340e-01
 -7.89798498e-01 -6.13468349e-01 -5.48921466e-01 -1.76851496e-01
 -6.36405468e-01 -5.91300488e-01 -4.35361147e-01 -7.38096654e-01
 -3.85253251e-01 -7.35792220e-01 -7.22862124e-01 -3.23923230e-02
 -4.92250353e-01 -6.41826391e-01 -6.94268167e-01 -7.44718254e-01
 -5.29047608e-01 -2.93020278e-01 -6.20437801e-01 -5.64228296e-01
 -8.08719873e-01  1.90717708e-02 -7.47655749e-01 -6.38474882e-01
 -7.72121251e-01 -7.35289097e-01 -6.09689713e-01 -6.03149891e-01
 -5.32828629e-01 -2.74888933e-01 -6.36917412e-01 -4.99196321e-01
  4.13170637e-04 -7.87246227e-01 -6.07986748e-01 -4.83855128e-01
 -6.75182164e-01 -6.00091875e-01 -6.61644816e-01 -8.08452308e-01
 -3.24758857e-01 -3.92400205e-01 -5.36685348e-01 -6.16120636e-01
 -6.84563696e-01 -4.31341201e-01 -2.07053944e-01 -4.49497104e-01
 -8.40822279e-01 -1.35121197e-01 -8.23869407e-01 -5.50625384e-01
 -7.00884700e-01 -6.12880230e-01 -6.97455823e-01 -7.01207817e-01
 -7.17697799e-01 -4.35797095e-01 -4.74431992e-01 -6.87395990e-01
 -8.42196524e-01 -6.46389663e-01 -6.53772652e-01 -5.46391308e-01
 -7.01711118e-01 -7.88237929e-01 -8.26302588e-01 -4.11272764e-01
 -1.17547005e-01 -7.80215979e-01 -4.43328291e-01 -1.78366452e-01
 -3.75461370e-01 -5.41393816e-01 -5.05954802e-01 -8.47882986e-01
 -5.86922586e-01 -1.96853295e-01 -4.64405298e-01 -6.83250785e-01
 -7.25842834e-01 -5.89899778e-01 -6.97398186e-01 -6.44472420e-01
 -4.41015452e-01 -6.80811107e-01 -5.45084059e-01 -8.08010221e-01
 -6.16468251e-01 -6.34968579e-01 -6.01914108e-01 -5.76640189e-01
 -3.94032240e-01  1.65418256e-04 -7.51876473e-01 -5.50518453e-01
 -7.06192315e-01 -7.70131350e-01 -5.17499745e-01 -2.65231371e-01
 -6.84787273e-01 -2.52893865e-01 -5.37692368e-01 -7.63264000e-01
 -1.53938010e-02 -4.59956974e-01 -7.53822271e-04 -7.12766111e-01
 -7.19763577e-01 -3.10551047e-01 -7.33093619e-01 -6.55272543e-01
 -8.84156644e-01 -6.25433564e-01 -7.13670135e-01  3.00099552e-02
 -7.17940986e-01 -7.44200587e-01 -6.28187656e-01 -6.23843372e-01
 -4.32633787e-01 -1.34071127e-01 -4.80011761e-01 -6.96826994e-01
 -6.91332519e-01 -4.10412401e-01 -6.68609321e-01 -5.20816088e-01
  6.49988372e-03 -4.52678591e-01 -3.38147841e-02 -6.08579695e-01
 -6.96467340e-01 -3.75973344e-01 -9.86779183e-02 -6.78573966e-01
 -7.10213780e-01 -6.93063617e-01 -3.53858680e-01 -6.65551186e-01
 -6.31014764e-01 -8.98198545e-01 -6.29226565e-01 -4.39861298e-01
 -5.10894954e-01 -7.86630094e-01 -5.20324051e-01 -3.89706433e-01
 -5.53571343e-01 -3.73196155e-01 -3.82604241e-01 -7.71003366e-01
 -8.56552795e-02 -4.39676829e-02 -2.88612217e-01 -7.05075204e-01
 -7.53236055e-01 -3.76856476e-02 -3.48699659e-01 -6.19452894e-01
 -7.36748040e-01 -6.63950443e-01 -7.14086533e-01 -1.72665358e-01
 -7.22682655e-01 -5.48549950e-01 -6.02416754e-01 -3.59164864e-01
 -2.63812602e-01 -6.02858901e-01 -3.71017545e-01 -3.36007237e-01]
[-1.17058670e-02 -1.35086447e-01 -7.10887602e-04  6.84059784e-02
  2.26455584e-01 -1.49770424e-01 -1.01865165e-01 -1.08478636e-01
  1.16057638e-02 -4.03791331e-02 -3.68207693e-02  8.92763026e-04
 -8.58646706e-02 -1.00824036e-01  5.75041659e-02  1.52199402e-01
 -1.10307440e-01  3.87498289e-02  1.96623039e-02  2.89946925e-02
  3.36112222e-03  1.74117740e-02  7.49192834e-02  5.17539307e-02
 -1.18560567e-01 -8.29851404e-02 -1.25863597e-01 -4.15647701e-05
  6.01440743e-02 -1.07345730e-01  1.02473609e-01 -1.81284562e-01
  1.75506949e-01 -7.19903782e-02 -3.87574472e-02 -5.55592552e-02
  9.91133004e-02 -1.10249817e-02  5.46791516e-02  5.19337244e-02
 -2.42102668e-02  8.66201241e-03  8.03434327e-02 -9.82259884e-02
  1.61794946e-01 -1.44042909e-01  1.20570011e-01  1.09066024e-01
  3.37101170e-03 -6.30149320e-02  4.04551290e-02 -2.22088262e-01
 -1.30759597e-01  1.74527541e-01  1.96518600e-02 -5.32181859e-02
 -1.70203343e-01 -2.89608538e-02 -6.63864836e-02  6.13426641e-02
 -8.88379812e-02 -4.26901914e-02 -3.67871970e-02 -3.08347084e-02
 -1.19765006e-01  1.45702122e-03 -1.17889568e-02  1.32038757e-01
  6.57259300e-02  2.46175140e-01 -1.18403822e-01  6.45875186e-02
 -2.22196151e-02 -7.82205537e-02  1.44144730e-03  1.41935572e-01
  3.41400616e-02  1.87685192e-01  2.13989630e-01 -2.07241327e-01
  2.81678513e-02 -9.21100378e-02  1.87911928e-01  3.00563723e-02
  2.26844084e-02  5.32329977e-02 -2.65591983e-02 -3.81825082e-02
  6.61588609e-02  3.28607596e-02  6.10345826e-02 -1.22098386e-01
 -3.80476639e-02 -4.72649969e-02 -9.38103795e-02  4.28568497e-02
 -5.76881841e-02 -1.72897831e-01  1.39209911e-01  1.83787778e-01
 -9.96470004e-02 -1.29467696e-01  1.38843348e-02 -1.44330278e-01
  4.56906483e-02 -9.65149924e-02 -1.16539717e-01 -1.15015320e-01
 -2.25684315e-01 -7.62249902e-02 -1.18976451e-01 -1.89299025e-02
 -7.66323041e-03 -2.66805112e-01 -8.13493622e-04  1.00076392e-01
 -1.07294761e-01 -5.83435781e-02 -9.35989097e-02 -5.77827962e-03
  7.70477653e-02 -4.69499528e-02 -9.78415599e-04  1.46567479e-01
 -3.09354030e-02 -1.58794880e-01 -1.57359969e-02  5.62219992e-02
 -9.63615999e-02  2.57982928e-02 -2.66267229e-02  4.63827215e-02
  1.69832662e-01 -1.23571448e-01  9.72800106e-02 -1.11912666e-02
 -1.76630571e-01 -2.38669720e-02 -8.67671743e-02  1.23466350e-01
  1.86141238e-01 -5.82431592e-02 -1.27774194e-01  1.82189159e-02
  4.58758557e-03 -5.03898188e-02  6.03829734e-02 -1.38256505e-01
  1.29068062e-01 -2.17214022e-02  7.12648332e-02 -9.39666256e-02
 -1.78933382e-01  1.77590802e-01 -9.08224955e-02 -2.52295017e-01
 -1.95189938e-01 -3.68131250e-02 -3.00714821e-02  2.11036533e-01
 -5.62320240e-02  3.32124308e-02  4.06697802e-02 -4.05832864e-02
  1.71201024e-02  1.11043558e-01  2.22887948e-01  1.62501410e-02
 -9.89299826e-03  1.20232023e-01  2.53860980e-01  7.93892145e-02
  2.15302035e-02 -1.16450369e-01  3.82708497e-02 -2.80011464e-02
 -4.94112112e-02  1.39897108e-01  8.44248980e-02 -9.40960646e-02
 -8.45919326e-02 -1.41178340e-01  1.82783425e-01 -1.88587561e-01
  2.17101593e-02  1.10766636e-02  2.80592293e-02  2.29680147e-02
 -1.52093425e-01 -3.14279139e-01 -2.11145699e-01  8.33774451e-03
  2.31715478e-02 -5.11059500e-02  7.30669200e-02 -1.55646130e-01
 -1.68274254e-01  2.70205308e-02  7.88010806e-02  1.45463064e-01
 -1.83667943e-01 -4.55709733e-02  1.06129199e-01 -2.30452102e-02
 -1.94483534e-01 -2.05896616e-01  6.88139407e-04 -1.51562914e-01
  4.28537140e-03  1.12035707e-01  4.60021049e-02  3.38638797e-02
 -2.18139485e-01 -1.01502784e-01  3.47665288e-02  1.31768256e-01
 -5.45047000e-02 -9.47944820e-03  1.76100418e-01 -1.97920948e-02
  1.81047440e-01 -2.84913871e-02  2.90270988e-02 -6.49577230e-02
 -1.06668919e-01  1.23037240e-02 -2.88632512e-02  5.64270914e-02
  4.43004817e-03 -8.69469419e-02 -1.18766809e-02  5.27719334e-02
 -2.52372891e-01 -3.84363569e-02 -1.55685976e-01  1.20391048e-01
  1.43370191e-02 -2.43033513e-01 -2.49951288e-01 -5.16663119e-02
 -1.67401224e-01  1.47774145e-01  7.26423115e-02 -1.15290038e-01
  9.37226787e-02 -2.96934340e-02  7.14239106e-02 -8.42872187e-02
 -1.23546785e-02  1.68412516e-03  3.33395926e-03 -1.41114503e-01
  4.52698730e-02 -9.27386880e-02 -9.76172984e-02 -2.19611093e-01]
[-0.05559883  0.00856403 -0.09799734  0.06275792 -0.19682449 -0.28662148
 -0.04664489 -0.19025408 -0.11230961  0.01603413  0.05050641 -0.09234072
 -0.30429298 -0.46043485 -0.06067025  0.0545937  -0.40526286  0.08175215
  0.02433982  0.09722386  0.00439216 -0.09100593 -0.2779378   0.08923466
 -0.03961601 -0.23546474 -0.28256208 -0.15454039  0.05805498  0.01478714
 -0.05356999 -0.07174227  0.01212906 -0.03644357 -0.00749242 -0.01933304
 -0.20923449 -0.39202192 -0.22648181 -0.12538157 -0.16482385 -0.11815433
  0.05765664 -0.10435327 -0.3224593  -0.05774302 -0.490132   -0.28698438
 -0.1520033  -0.16542955 -0.14726967  0.0722404   0.07691439 -0.07102503
 -0.2958224   0.11244191 -0.15586044 -0.10154128 -0.5214346   0.05621132
  0.11326677 -0.06606664  0.05907206 -0.22170478 -0.01180615 -0.32376644
 -0.08333381 -0.20610395 -0.320032   -0.11212197 -0.04664597 -0.04003805
 -0.22787611  0.07401102 -0.14260551  0.05266808 -0.33670393 -0.3001474
  0.00380806 -0.04883144  0.08538546 -0.36842823 -0.34364137 -0.10001209
 -0.39003605 -0.32388294 -0.42304644  0.02437408 -0.3769195   0.05910164
 -0.14738427 -0.04213763 -0.23778544 -0.29560554  0.04667277 -0.19083956
 -0.18219769 -0.11248601 -0.1068581  -0.25041845 -0.42097056 -0.02021116
 -0.34195775 -0.1347887   0.02699079 -0.06893644 -0.13007456 -0.31097987
 -0.25855166 -0.00828897 -0.30457318 -0.42045587 -0.27207178 -0.07266849
 -0.25781766 -0.47744092 -0.06950826  0.09724472 -0.54185385 -0.11318755
  0.0304436  -0.28244722 -0.22587821  0.03433304 -0.02230734 -0.0447677
 -0.463733   -0.30189577 -0.26442024 -0.15873855 -0.1253907   0.03316796
  0.02440105  0.03114605 -0.03541743 -0.02183054 -0.39455143  0.00458752
 -0.06560233  0.127926   -0.34228292 -0.28566724 -0.18623398 -0.31945825
 -0.33545887  0.03833789 -0.3130636  -0.26049846 -0.02597636 -0.01205456
  0.01767444 -0.34719336  0.01636027 -0.04931524 -0.42134133 -0.06189531
 -0.01104483 -0.269168   -0.20635548 -0.34394494 -0.20611893  0.09448972
 -0.07773561 -0.04817497  0.06075172 -0.40657404 -0.03986326  0.04883191
 -0.18711087 -0.13439663 -0.24655184  0.0791642  -0.37427977 -0.36533037
 -0.04692544 -0.29905552 -0.11170027  0.07569125 -0.07991749  0.04092712
  0.12103778 -0.11677597 -0.1140221  -0.0669365   0.01701994 -0.17034543
 -0.19750002 -0.41833818 -0.44067138  0.08325084 -0.04638048  0.08028001
  0.0088425  -0.3291658  -0.22213662 -0.31228998  0.16170138 -0.33615258
 -0.4574748   0.03841389  0.04396997 -0.03361648 -0.16349402 -0.5176029
 -0.12535042  0.03099822 -0.22605616 -0.0486591  -0.25143132 -0.27571312
  0.00340873 -0.3910098  -0.32655868  0.01852478  0.00300427  0.04657942
 -0.3912391  -0.03813139 -0.09345136 -0.34578818 -0.3046104   0.02769703
